/*
 * Copyright (c) 2025 EdgeImpulse Inc.
 *
 * Generated by Edge Impulse and licensed under the applicable Edge Impulse
 * Terms of Service. Community and Professional Terms of Service
 * (https://edgeimpulse.com/legal/terms-of-service) or Enterprise Terms of
 * Service (https://edgeimpulse.com/legal/enterprise-terms-of-service),
 * according to your product plan subscription (the “License”).
 *
 * This software, documentation and other associated files (collectively referred
 * to as the “Software”) is a single SDK variation generated by the Edge Impulse
 * platform and requires an active paid Edge Impulse subscription to use this
 * Software for any purpose.
 *
 * You may NOT use this Software unless you have an active Edge Impulse subscription
 * that meets the eligibility requirements for the applicable License, subject to
 * your full and continued compliance with the terms and conditions of the License,
 * including without limitation any usage restrictions under the applicable License.
 *
 * If you do not have an active Edge Impulse product plan subscription, or if use
 * of this Software exceeds the usage limitations of your Edge Impulse product plan
 * subscription, you are not permitted to use this Software and must immediately
 * delete and erase all copies of this Software within your control or possession.
 * Edge Impulse reserves all rights and remedies available to enforce its rights.
 *
 * Unless required by applicable law or agreed to in writing, the Software is
 * distributed on an "AS IS" BASIS, WITHOUT WARRANTIES OR CONDITIONS OF ANY KIND,
 * either express or implied. See the License for the specific language governing
 * permissions, disclaimers and limitations under the License.
 */
// Generated on: 27.03.2025 01:36:06

#include <stdio.h>
#include <stdlib.h>
#include "edge-impulse-sdk/tensorflow/lite/c/builtin_op_data.h"
#include "edge-impulse-sdk/tensorflow/lite/c/common.h"
#include "edge-impulse-sdk/tensorflow/lite/micro/micro_mutable_op_resolver.h"
#include "edge-impulse-sdk/porting/ei_classifier_porting.h"

#if EI_CLASSIFIER_PRINT_STATE
#if defined(__cplusplus) && EI_C_LINKAGE == 1
extern "C" {
    extern void ei_printf(const char *format, ...);
}
#else
extern void ei_printf(const char *format, ...);
#endif
#endif

#define STRINGIZE(x) #x
#define STRINGIZE_VALUE_OF(x) STRINGIZE(x)

#if defined (__GNUC__)  /* GNU compiler */
#define ALIGN(X) __attribute__((aligned(X)))
#define DEFINE_SECTION(x) __attribute__((section(x)))
#elif defined (_MSC_VER)
#define ALIGN(X) __declspec(align(X))
#elif defined (__TASKING__) /* TASKING Compiler */
#define ALIGN(X) __align(X)
#define DEFINE_SECTION(x) __attribute__((section(x)))
#elif defined (__ARMCC_VERSION) /* Arm Compiler */
#define ALIGN(X) __ALIGNED(x)
#define DEFINE_SECTION(x) __attribute__((section(x)))
#elif defined (__ICCARM__) /* IAR Compiler */
#define ALIGN(x) __attribute__((aligned(x)))
#define DEFINE_SECTION(x) __attribute__((section(x)))
#elif defined (__clang__) /* LLVM/Clang Compiler */
#define ALIGN(X) __ALIGNED(x)
#define DEFINE_SECTION(x) __attribute__((section(x)))
#endif

#if defined(EI_MODEL_SECTION) && (defined(__GNUC__) || defined(__clang__))
#define MODEL_SECTION(X) __attribute__((section(STRINGIZE_VALUE_OF(X))))
#else
#define MODEL_SECTION(X)
#endif

#ifndef EI_MAX_SCRATCH_BUFFER_COUNT
#ifndef CONFIG_IDF_TARGET_ESP32S3
#define EI_MAX_SCRATCH_BUFFER_COUNT 4
#else
#define EI_MAX_SCRATCH_BUFFER_COUNT 4
#endif // CONFIG_IDF_TARGET_ESP32S3
#endif // EI_MAX_SCRATCH_BUFFER_COUNT

#ifndef EI_MAX_OVERFLOW_BUFFER_COUNT
#define EI_MAX_OVERFLOW_BUFFER_COUNT 10
#endif // EI_MAX_OVERFLOW_BUFFER_COUNT

using namespace tflite;
using namespace tflite::ops;
using namespace tflite::ops::micro;

namespace {

#if defined(EI_CLASSIFIER_ALLOCATION_STATIC_HIMAX) || defined(EI_CLASSIFIER_ALLOCATION_STATIC_HIMAX_GNU)
constexpr int kTensorArenaSize = 1984;
#else
constexpr int kTensorArenaSize = 960;
#endif

#if defined(EI_CLASSIFIER_ALLOCATION_STATIC)
#if defined (EI_TENSOR_ARENA_LOCATION)
uint8_t tensor_arena[kTensorArenaSize] ALIGN(16) DEFINE_SECTION(STRINGIZE_VALUE_OF(EI_TENSOR_ARENA_LOCATION));
#else
uint8_t tensor_arena[kTensorArenaSize] ALIGN(16);
#endif
#elif defined(EI_CLASSIFIER_ALLOCATION_STATIC_HIMAX)
#pragma Bss(".tensor_arena")
uint8_t tensor_arena[kTensorArenaSize] ALIGN(16);
#pragma Bss()
#elif defined(EI_CLASSIFIER_ALLOCATION_STATIC_HIMAX_GNU)
uint8_t tensor_arena[kTensorArenaSize] ALIGN(16) __attribute__((section(".tensor_arena")));
#else
#define EI_CLASSIFIER_ALLOCATION_HEAP 1
uint8_t* tensor_arena = NULL;
#endif

static uint8_t* tensor_boundary;
static uint8_t* current_location;

template <int SZ, class T> struct TfArray {
  int sz; T elem[SZ];
};

enum used_operators_e {
  OP_FULLY_CONNECTED, OP_SOFTMAX,  OP_LAST
};

struct TensorInfo_t { // subset of TfLiteTensor used for initialization from constant memory
  TfLiteAllocationType allocation_type;
  TfLiteType type;
  void* data;
  TfLiteIntArray* dims;
  size_t bytes;
  TfLiteQuantization quantization;
};

typedef struct {
  TfLiteTensor tensor;
  int16_t index;
} TfLiteTensorWithIndex;

typedef struct {
  TfLiteEvalTensor tensor;
  int16_t index;
} TfLiteEvalTensorWithIndex;

TfLiteContext ctx{};
static const int MAX_TFL_TENSOR_COUNT = 4;
static TfLiteTensorWithIndex tflTensors[MAX_TFL_TENSOR_COUNT];
static const int MAX_TFL_EVAL_COUNT = 4;
static TfLiteEvalTensorWithIndex tflEvalTensors[MAX_TFL_EVAL_COUNT];
TfLiteRegistration registrations[OP_LAST];

namespace g0 {
const TfArray<2, int> tensor_dimension0 = { 2, { 1,501 } };
const TfArray<1, float> quant0_scale = { 1, { 178.95217895507812, } };
const TfArray<1, int> quant0_zero = { 1, { 5 } };
const TfLiteAffineQuantization quant0 = { (TfLiteFloatArray*)&quant0_scale, (TfLiteIntArray*)&quant0_zero, 0 };
const MODEL_SECTION(EI_MODEL_SECTION) ALIGN(16) int32_t tensor_data1[4] = { 0, 0, 0, 0, };
const TfArray<1, int> tensor_dimension1 = { 1, { 4 } };
const TfArray<1, float> quant1_scale = { 1, { 0.1157161220908165, } };
const TfArray<1, int> quant1_zero = { 1, { 0 } };
const TfLiteAffineQuantization quant1 = { (TfLiteFloatArray*)&quant1_scale, (TfLiteIntArray*)&quant1_zero, 0 };
const MODEL_SECTION(EI_MODEL_SECTION) ALIGN(16) int8_t tensor_data2[4*64] = { 
  73, 66, 121, -42, 16, -92, -122, -22, 125, 60, 69, -2, -53, 115, 8, -100, -24, 60, -97, -2, 38, -95, -87, 10, 12, 50, 107, 69, -121, 84, -75, -39, -2, 89, -80, -41, 32, 9, 3, 4, 15, -84, 28, -9, 84, 5, 90, -91, 44, 76, 30, -74, 18, -42, -105, 59, -97, -80, 75, -90, -16, 9, 120, 112, 
  73, -15, -88, -116, -94, -98, 16, 37, -39, 15, 86, 25, 81, -22, 38, 58, 75, 23, 31, 123, -84, -15, 21, -119, 98, 3, -52, 106, 59, 100, 35, -111, 37, -78, 36, -73, 16, -115, -103, 12, -79, 28, -37, 104, -118, 59, -117, -83, 78, 96, 115, 90, -86, -88, -13, -72, 75, 37, 88, 96, -71, 0, -4, 66, 
  -104, 104, -84, -105, 77, -104, 107, 59, 62, -74, 47, 54, 10, 5, 48, 94, 113, -53, -125, 72, 110, 56, 52, -69, -85, -121, -111, 9, -121, 18, 2, 56, -63, 68, 90, 62, -4, -101, -16, 54, 8, -34, 25, 91, -44, 8, -29, 11, 79, -39, 19, -3, 12, 40, -85, -106, 106, 90, 69, -115, -84, 95, -33, -94, 
  10, -20, -3, 52, 42, -58, 99, -29, -97, -120, -23, 48, -124, -63, 104, 123, 19, -94, -104, 110, 80, -72, 78, 27, 6, -77, 82, -127, -90, 70, -87, -104, 97, -50, -55, -80, 24, -42, -7, -92, -52, 47, -119, -88, 57, 33, -49, 13, 46, 21, 9, 76, 101, 46, 29, 7, 12, 32, -96, -116, -116, -23, -93, -39, 
};
const TfArray<2, int> tensor_dimension2 = { 2, { 4,64 } };
const TfArray<1, float> quant2_scale = { 1, { 0.0023412969894707203, } };
const TfArray<1, int> quant2_zero = { 1, { 0 } };
const TfLiteAffineQuantization quant2 = { (TfLiteFloatArray*)&quant2_scale, (TfLiteIntArray*)&quant2_zero, 0 };
const MODEL_SECTION(EI_MODEL_SECTION) ALIGN(16) int32_t tensor_data3[64] = { 0, 0, 0, 0, 0, 0, 0, 0, 0, 0, 0, 0, 0, 0, 0, 0, 0, 0, 0, 0, 0, 0, 0, 0, 0, 0, 0, 0, 0, 0, 0, 0, 0, 0, 0, 0, 0, 0, 0, 0, 0, 0, 0, 0, 0, 0, 0, 0, 0, 0, 0, 0, 0, 0, 0, 0, 0, 0, 0, 0, 0, 0, 0, 0, };
const TfArray<1, int> tensor_dimension3 = { 1, { 64 } };
const TfArray<1, float> quant3_scale = { 1, { 0.10638407617807388, } };
const TfArray<1, int> quant3_zero = { 1, { 0 } };
const TfLiteAffineQuantization quant3 = { (TfLiteFloatArray*)&quant3_scale, (TfLiteIntArray*)&quant3_zero, 0 };
const MODEL_SECTION(EI_MODEL_SECTION) ALIGN(16) int8_t tensor_data4[64*128] = { 
  42, -31, -3, -68, 36, -83, 9, 64, -53, -83, -18, 108, -91, -50, 85, -98, 92, 7, 46, -21, 59, 53, 36, 71, -89, 64, 90, -55, 99, 9, 18, 83, -99, 1, -21, 101, -25, 23, 14, -72, -26, -50, -43, 56, 92, 16, -82, -53, 38, -48, 3, -41, 79, 0, -15, -8, 28, -67, 62, -99, 104, -25, -28, -72, -46, -54, 16, -85, -78, -55, 15, 21, 3, 81, 104, -31, -18, 41, -48, -61, -60, 101, -87, -11, -76, 6, 3, 35, -29, 80, -95, 18, 80, 82, -45, -80, -17, 96, -91, 70, -34, -26, -100, -34, -67, -8, -11, 44, 70, -3, 57, 104, 34, 50, -60, 20, -109, 70, 49, -50, 34, 32, 97, 18, -56, -10, 91, 45, 
  -52, 0, -70, 66, 78, -57, 13, -96, 3, -33, 75, -31, -75, 104, -43, 52, -85, 20, -30, -96, -53, -51, 50, 9, 86, 92, -51, -69, 18, 8, 16, 88, 79, 67, 80, -57, -78, -28, -65, -58, 0, -26, -15, 7, -40, 16, 40, 88, -43, -34, 100, -33, -69, 81, -55, -82, -36, 88, 33, 73, 14, -79, 9, 7, -107, 9, -105, 18, -9, -52, -19, -74, -12, -4, 2, 74, 40, -45, 93, -43, -77, 40, 50, 42, 102, -102, -6, 68, -61, 14, 79, -40, -93, -101, 98, 99, 50, 58, -76, 56, -63, 58, -14, 8, -31, -67, -87, 63, 62, 63, 94, 59, 28, 39, 92, 31, -11, -63, 34, 78, -9, 33, 11, -43, 63, 2, 27, -84, 
  -17, 10, 102, 53, -80, -36, 94, -89, -21, 77, -23, 75, 37, -87, -64, 85, 16, -98, 78, -89, -94, 2, -17, 76, -75, 38, 23, -3, -98, -60, -50, -90, -78, -44, -50, -10, -104, 96, 103, -46, 51, 96, -73, 63, 15, -57, 30, 99, -77, 84, -66, 78, -76, -16, -40, 91, 81, -78, 47, 17, -81, 78, 37, 99, 95, 27, -32, 63, -24, -6, -105, -6, -103, 102, 8, -74, -92, -54, -37, -25, -70, 16, -1, 101, -46, -29, 13, 69, -100, 43, -6, -92, 38, 1, 59, 74, -50, 72, 83, -86, 87, -100, -91, 31, -20, -81, -32, -89, -99, -91, -91, -59, -41, -13, 35, -52, -71, 14, 11, 30, 60, -28, -102, -35, 79, 48, -18, -37, 
  58, 77, 21, -1, -76, 41, 84, 3, -11, -67, -81, -33, 41, 74, -93, -67, -69, 56, -19, 99, 84, -71, -72, -86, 17, 48, 64, 51, 99, -24, -78, -4, 82, 50, 91, -21, 20, 74, 59, -36, -27, 75, 15, -100, 81, 102, 16, 66, 5, -12, 64, -89, 27, -14, 52, 65, 102, 29, 103, 87, -84, -78, -31, 13, -29, -87, 87, 1, -85, -51, -30, 52, -20, -96, -96, -17, 51, -91, -74, 24, -5, -13, -40, 45, -33, 33, -64, 49, 114, 18, 75, 6, -64, 53, 30, 10, 105, -85, 61, 17, -87, -105, 35, -5, 50, 12, 94, -76, -16, -33, -74, -69, 77, 51, 55, -39, -50, -14, -26, -22, 2, -54, 88, -17, 49, 77, 37, 81, 
  -46, -100, -80, -34, 48, -92, -85, 54, -24, -100, -39, 94, -57, -24, -43, -22, -31, 97, -99, 73, -102, 101, 78, -51, -60, -110, -9, 33, -38, -11, 102, -86, -70, -81, 42, -31, 8, -46, 2, 9, 83, 60, 96, 21, -29, -108, 2, 4, -63, -40, 76, -73, 99, 10, -85, 102, -30, -17, -16, -58, -68, -82, 83, 97, 84, -26, -14, -67, -69, -39, 87, 7, -62, 87, 8, 34, -21, 94, -22, 69, 48, 74, -8, -47, 0, -25, 24, 10, -86, -73, 58, 35, 93, -87, 9, 10, -26, -69, -15, -80, 19, 64, -4, 15, 20, -90, -30, -54, 7, 50, -36, 25, -106, 38, -58, 31, -88, -73, -25, 45, 37, -57, 83, 94, -57, -83, -1, 97, 
  -75, -25, -84, 63, -68, 0, -40, 43, -95, 63, 47, -104, 14, -96, 2, 25, 35, -34, 7, 72, -92, -36, -4, -89, 9, -21, -94, 85, 17, 17, 91, 58, 65, 92, -100, -94, 55, -43, -67, -28, 57, -25, -111, -57, -28, 62, -100, -36, -6, -93, -13, -22, -50, 27, 20, -108, 67, -33, -52, -44, -81, 57, 0, 48, 2, 102, 73, 100, -69, -59, 37, 17, -27, 17, 69, 62, 45, 24, 52, 95, 72, 93, 46, -71, -5, -62, 68, 3, 31, -32, -53, -23, -77, -8, 39, -44, 22, 74, -80, 43, -82, 74, 95, 101, -103, -57, -2, 45, 75, -13, -120, -15, 43, 51, 10, 21, -41, -16, 43, 38, 73, -50, 66, -64, 64, 103, 33, 17, 
  78, -101, 41, -37, -37, -15, -71, -94, 90, 40, 25, 7, 62, -95, 92, 64, -88, -68, 48, -36, -78, -93, -105, 38, -104, 80, 69, 48, -23, 41, 65, 52, -67, 50, 11, 13, -6, -68, 3, -52, -78, 104, 70, 59, 78, -17, 77, 62, -104, 35, 15, 40, -34, 43, 78, -36, 69, 70, -15, -32, -70, -3, 72, 21, 76, -31, -53, -64, 2, -82, 99, -103, -104, -3, 84, 94, -29, -51, -106, -57, 48, -43, 13, -17, -68, 76, -3, 68, 49, 85, -73, 2, -57, -87, 59, 81, 16, -39, -47, -88, -34, -46, 91, 69, 4, 58, 16, -21, 3, 28, -93, -101, -10, 66, 98, -46, -108, -22, 66, 66, 84, -1, -69, -69, -5, 3, -81, -83, 
  -18, -90, 54, 69, 13, 96, -2, 67, -40, -50, -93, -29, -65, 8, -58, 90, -38, -71, 86, 47, 37, -107, 41, -69, 94, -61, -56, -9, 17, -72, 71, -22, -42, -61, -21, -5, 6, 12, 89, -73, 77, 66, -76, 36, 83, 24, 96, 57, 38, -40, -85, -61, -101, 47, 51, 17, 13, -37, 30, -6, -2, -39, 35, 59, -4, 75, 1, 2, -97, -43, -68, -75, -91, 90, 58, -5, 77, 71, -83, -81, 40, -93, 28, -110, 60, -8, 52, -24, 38, 66, 47, -43, -40, -76, -71, 72, -92, 40, 95, -52, -72, 32, -24, -70, 62, -94, -76, -31, -17, -110, -22, 63, 98, 79, -32, -62, 89, -21, 83, 72, 75, 49, 6, 67, -39, -12, -7, -87, 
  61, 18, -38, 76, -24, 17, 25, -9, -13, 27, -94, 35, 0, 50, 100, 56, 74, 8, -17, -7, -74, -98, 5, 15, 37, -39, -51, -6, -28, -89, -90, -99, 62, -23, 17, 99, 27, -92, -39, 15, -15, 67, 33, 96, -24, 25, -41, 68, -74, -101, -4, 77, 92, -91, 96, 63, 97, -78, 65, -63, 98, -103, -30, -12, 90, -93, 83, -33, -62, 64, -104, 86, -24, -55, -90, 24, 32, -81, 51, 66, -24, -73, 99, -73, 37, -53, -65, -85, 64, -88, 62, -33, -97, 8, -71, 22, 15, 44, -91, -102, -75, -105, 24, -3, 81, 40, -86, 100, -58, -102, 75, -93, -64, -8, 31, 24, -7, 110, 97, 41, -80, -91, 25, 84, -106, -30, -35, -7, 
  41, -45, -20, 9, -6, -27, -13, -67, -26, 31, -41, -20, -68, 24, 19, -72, 19, 81, 10, -64, -50, 14, -29, 23, 68, 56, 12, 52, 96, -32, 62, 53, 78, 44, 27, 35, 85, -8, -50, -57, 1, 40, 62, 57, 13, 55, 42, 96, -60, -41, 81, -104, -52, -19, 50, -32, -91, -30, -101, 16, -58, -76, 102, -31, 43, 3, -48, 18, 65, -21, -38, 6, -27, -23, 37, 99, -77, 79, 22, -78, 35, 41, 76, 7, 37, -67, -12, 71, -85, -97, -98, -64, -95, -43, -86, -24, 5, 57, -49, -94, -43, 21, 42, 61, -56, 71, -6, 33, -49, 72, -34, -23, -94, -65, -3, -70, -55, -94, 94, 14, 50, 23, -15, -97, 98, -59, 52, -92, 
  -76, 23, -97, -51, -58, -67, 6, 20, 85, -30, 34, 28, 79, 57, -102, 29, -76, -35, -8, 71, 40, -34, -88, -102, 64, 96, 66, 33, 89, -58, 79, 69, 20, -73, 25, -35, -17, -79, -81, -4, 36, -41, 72, -77, 0, 95, -52, -41, 95, -27, 66, -12, -11, 34, 62, -95, -81, 23, -25, -31, 92, 44, -28, 31, -82, 84, 6, 99, -23, -104, -70, -35, 58, -5, 66, -66, -76, -9, 42, -11, 90, 17, -2, 3, 90, 65, -37, -87, 58, -61, 83, 57, -5, -9, 80, 36, -8, -48, -83, 95, -37, 16, -47, -18, 51, 9, 55, -40, -88, 89, 14, 31, -15, -98, -93, 32, -40, -43, -61, -75, -46, -108, 12, 83, -12, -49, -21, 17, 
  -109, 71, -52, 102, -31, -86, 89, 64, -41, -64, -4, -104, -43, 66, 9, -36, -33, -85, 62, 78, -56, -8, -46, 36, -73, -106, 13, -11, 98, -106, 17, 101, -71, -80, -33, -93, -104, 32, 57, -41, 51, 57, -66, 87, 35, 69, 72, -13, 27, -24, -23, 91, -15, 39, -76, -21, -19, -81, -48, -76, -67, -67, -47, 46, -95, 77, -37, 81, -14, -92, 25, 57, 5, -1, -110, 59, 59, 80, 62, 19, 38, 35, 56, -91, -87, -65, 72, 97, 58, -73, 54, -2, 2, 75, -78, -6, -96, 26, 97, 62, -85, 69, -71, 27, 34, 58, -42, -7, 20, -20, -38, 84, 90, 74, 24, 80, -18, -101, 83, -80, -83, 47, 29, -96, 41, -26, -15, 52, 
  -94, -34, 51, -81, 50, 56, -100, 28, 71, 32, -3, 7, -19, -5, -61, 9, 104, 59, 69, -56, -71, 30, 38, -109, -92, -71, -66, 39, -23, -106, -79, 100, 38, -115, 86, 89, -31, 92, 34, 68, -38, -103, 62, -45, 102, -91, -33, 52, -25, 47, -33, -103, 74, -35, 51, -90, -27, 24, 73, 66, 12, -15, -82, -67, 36, 78, 19, 31, 55, 68, -26, -101, -93, -78, 88, 73, 29, -39, -73, -14, -72, -65, 67, 9, 81, -110, 23, -92, -45, -15, 37, -2, 97, -62, 22, -88, -55, 78, 61, -18, 80, 69, 4, 54, -45, -80, 31, 33, 60, -82, 3, 92, 106, 98, 71, 65, 6, -38, -55, -99, -17, -73, 58, 26, 109, 57, -48, -73, 
  18, -99, 61, -98, -35, 65, -5, 68, -27, -91, -53, 59, -14, -80, 54, 65, -59, 11, 69, -36, -60, -33, -50, 18, -62, 31, 52, 116, 84, -72, -24, -49, 48, -8, -71, -94, -22, 25, 74, 59, -76, -80, 33, -104, -90, 81, 53, -76, 84, 42, -21, -93, -73, -83, 61, 21, 49, 68, -96, 64, 67, 108, 64, 2, 4, -17, 54, 51, 45, -59, -19, -41, 67, 18, 116, -32, 94, 103, 13, -37, 72, -74, 29, -30, -57, 40, -12, 36, -68, -80, -35, -33, 22, -93, 28, 7, -15, 92, 5, -68, -5, 84, 106, 67, -47, -38, 1, 27, 88, 77, 49, 25, 85, 30, -75, -39, -15, 31, -8, 58, 50, -68, 48, -85, -19, 15, 37, 23, 
  54, -26, -13, -15, 81, 5, 85, -113, 74, 57, -73, -9, -18, -36, -65, 102, -4, -19, -40, 86, 57, -33, -51, 69, 31, -117, 51, 92, 45, -96, -36, 15, -14, -51, 82, 78, 67, -70, -77, 101, -42, -30, -12, 94, -35, 66, 84, -4, -96, -24, 96, 105, 95, -26, -45, 56, -12, -26, -70, 31, 71, -27, 58, -28, -83, -66, -27, -30, 49, -110, -12, 40, 3, 52, -12, -78, 15, -15, 83, -46, 15, -24, 0, -74, 46, 93, -107, 48, -93, 84, -81, -63, -58, 0, 103, -70, 103, -19, -63, 57, -5, 16, 42, 69, -7, 68, 18, 58, 7, -56, 85, -28, -95, 29, -33, -51, -92, -58, -2, -17, 94, -100, 63, -50, 58, 55, 81, -95, 
  53, 3, -13, 13, -62, -101, 39, 5, -25, -77, 64, 50, -43, -65, 3, 16, 102, -97, -62, -8, 82, 77, -94, -16, -104, 1, 7, -59, -9, -27, 5, 102, 47, 1, -2, -82, 85, -31, 89, 45, -3, -107, 58, -84, -34, -39, 2, -104, 65, 42, 51, -70, 70, 17, 78, -104, 86, 89, -87, -114, 87, 3, 21, 5, -67, 78, 19, -91, -16, -50, -96, -13, 84, 36, 42, -4, 90, -39, -46, 73, 40, 24, -45, 29, -53, -48, 89, -99, 53, -23, -26, -83, 29, -35, -42, -18, 86, -99, -97, 65, -78, -15, 76, -38, 10, -56, -94, -65, 73, 79, -96, 25, -101, 23, -60, 21, -81, -4, 51, -105, -91, 77, -100, 67, -18, 35, -34, 22, 
  37, -5, 20, 19, 53, -50, 44, -29, -15, -6, 73, 86, 46, 51, 41, 16, 19, -44, -40, -83, -94, 27, -31, -59, 1, 60, 72, -97, 71, -95, -41, -6, 40, -99, -26, -51, -44, 106, -2, 82, 80, -24, -65, 88, 87, 66, 50, -76, 89, 37, 95, -58, -106, -48, -100, -57, 27, 41, -64, 72, -13, -65, -106, 25, 14, 0, -98, -91, 9, -78, 25, 77, -101, 77, 76, -62, 88, 81, 98, 57, -40, -64, 95, -13, 41, -29, -11, -109, 69, 37, -67, -104, -52, 14, -9, 5, -17, 2, 101, -87, 32, 75, 52, 83, 23, 8, -52, -89, -84, 40, -94, -96, 77, 45, 30, -98, -50, 70, 0, 49, 52, -12, -103, -36, 52, 22, 49, 24, 
  85, -86, -20, 105, 18, -68, 49, -82, 91, 47, 26, 87, -25, 83, -40, 48, -51, -53, 63, -59, 9, 99, -12, -19, -94, -2, 87, 28, -11, 32, 78, 31, 62, -3, 25, -70, 75, -68, -47, 39, 28, 85, -33, 41, 72, -90, -105, -78, -37, -10, 39, -4, -30, -91, -30, 22, -100, -15, -83, -71, 10, 87, 7, -37, 98, 82, -24, 99, 12, -76, -15, 75, -37, 80, 109, 109, -35, -16, -92, 77, -26, 72, -76, 25, 50, 35, -30, -52, -6, 79, 103, 25, -13, 30, -111, -64, 40, -10, -59, 19, -36, 21, 13, -79, 61, 21, 70, 50, -78, -59, -7, 51, -3, -9, 55, 43, 47, 60, -57, -59, 56, 94, -87, 97, 32, 97, -17, -96, 
  36, -44, 12, -80, 57, 20, 80, 31, 102, -8, -94, 14, 55, 58, 92, 30, -65, -100, -52, 74, 100, -70, -19, -101, 101, 13, -80, 8, 25, 76, -21, 26, -18, -67, 72, 45, 8, 58, -21, 97, -58, 70, 86, -80, 0, -98, 19, 108, 74, -100, 94, -73, 23, 49, -4, 2, 38, 50, -89, 107, -12, -24, -20, 39, -29, 33, -50, 83, 78, 38, -23, 31, -62, 89, 1, 74, -61, 5, 107, -100, -60, -40, 70, 79, -66, 45, 66, 12, 105, 30, -88, -57, 93, 109, -25, -64, 75, 31, 77, -65, -69, -6, -27, -97, 9, -28, 80, -21, 69, 97, 92, 12, -76, 17, -70, 29, 93, 40, 102, -33, 84, 110, -73, -99, 39, -20, -12, -71, 
  -62, -36, -87, -71, 4, -24, -76, -80, -21, 42, 31, -42, 16, -50, -60, -88, -19, -44, 77, -91, -96, 66, -49, 97, 9, 27, -38, 52, 76, -78, -61, 25, 59, -2, -39, 95, -17, 81, -103, 13, -86, -79, 72, -18, 3, 25, 61, 62, -89, 75, 103, -92, 38, 20, 20, 75, -24, 31, -58, -46, -62, -14, -100, 96, -69, 54, 55, 8, 88, -98, -17, -80, 82, -6, -45, -51, -59, 47, -67, -22, -17, -51, -73, -17, 48, 32, 81, 53, 63, 46, -90, 83, 70, 102, -52, -46, -61, 40, -26, 8, -18, -46, 22, -46, -64, 15, -60, -49, -109, 60, -110, 13, 37, -39, -55, -76, -82, 45, -77, 18, -78, 31, -93, -48, -18, 47, 26, -114, 
  -68, -95, -35, 52, 62, 86, -55, 62, 96, 96, -39, -17, -49, -66, -5, -41, 83, -35, -58, 74, 103, -64, -66, -4, -62, 72, 53, -1, -97, -17, -8, 62, 76, 41, -32, 68, -63, 71, -18, 82, -14, -39, -46, 25, -8, 22, 60, -99, -105, -37, -14, 92, 65, -105, -17, 40, 3, -78, -29, -20, 52, -14, 11, 72, 65, -49, 21, -97, -30, 39, 2, 72, -59, -101, -75, 86, -50, 38, 4, -69, 39, 2, 47, -3, -23, 44, 76, -100, -68, -52, -58, -76, -65, 23, 75, 102, -36, 64, -95, -86, 94, 82, -106, 29, -1, 68, -34, -79, 11, 16, 78, 67, -6, -11, 59, 25, 14, 47, 10, 42, 48, -71, 33, 31, -33, -24, 57, 33, 
  55, -103, 48, 79, 104, 17, 79, -18, 24, 54, 80, 43, 20, 78, 19, -88, 32, 49, 62, 63, -57, 8, 69, -112, -58, -21, 38, 7, 41, -86, 3, 28, 63, -61, 17, 30, 74, -80, 60, 95, -34, -22, 49, 24, -99, 69, 42, -105, 3, -92, 68, 52, 22, 18, 101, -55, -42, 42, 96, -80, -111, -29, 42, 85, 96, -28, -1, 67, -73, 78, 40, 61, 21, -83, 17, -74, 93, 7, 55, 60, -103, -76, 5, 6, 27, 96, -72, 23, 12, 33, 9, 93, 15, -69, -28, -106, -67, 96, -102, -67, -91, 67, -24, 71, -103, -4, -6, 87, -84, 84, 99, 42, 18, -99, 100, 9, 15, 30, 53, -80, 62, 45, 68, -53, 0, 74, -47, -68, 
  -7, -27, -75, -16, -98, 17, -37, 25, -20, 72, 93, 11, -57, 38, -27, 37, -25, -61, -87, -101, -51, -9, -84, 84, -72, 63, -6, -29, 34, -78, 70, -53, 13, 52, -26, -50, -23, 81, -62, 10, 81, -43, -59, 91, -81, -19, -50, -20, 9, -51, -62, 110, -43, 13, -52, -18, -32, -121, -106, -6, -62, 60, -52, -97, -45, -52, 3, -39, 95, -6, -5, -58, 54, 16, 88, 41, -28, 3, -62, 70, -60, 2, 36, 23, -81, -55, -11, 7, -36, -91, 16, 98, 95, -78, -77, 81, 36, 28, -51, 76, 1, 72, -59, 94, -103, 93, -39, 26, 21, 66, 4, -69, 41, 55, 25, 78, -1, -43, -56, -66, -15, -2, 47, -52, 76, 36, 27, 33, 
  88, 101, 81, 71, -2, 24, 95, -46, 61, 82, -22, -66, -93, -55, -48, 13, -5, 20, -23, 52, -14, 86, 72, 16, 19, 54, -97, -20, 80, -40, 97, 77, 56, -97, -25, 44, 57, 99, 10, 55, 7, 96, -39, 80, -17, -71, 7, -85, -71, -61, 87, 51, -91, 44, 47, 42, -12, 80, -44, -75, -97, -53, -65, -3, 73, 75, -83, -95, 30, 70, -90, 49, -47, 57, 24, -68, 4, 9, -43, 73, -41, 72, 85, 20, -73, 107, 94, 15, -72, -58, 73, -112, 95, 82, -98, 101, 85, 77, -80, 85, 101, -25, 22, -105, -1, -39, -26, -33, -21, 25, -40, -35, 39, 92, -45, 99, -64, -35, 1, 45, -75, 58, 63, -92, -34, 83, -14, -39, 
  -87, -30, -63, -22, -46, 61, -100, -117, 64, 71, -68, 63, -97, 55, -62, -70, 58, -71, -65, 16, 26, 89, 64, -67, -16, -25, -96, 15, -89, 60, -3, 82, -71, -41, -35, 40, 11, -70, 38, -33, -82, 34, -23, -33, 46, -62, -81, -60, 32, -61, 28, -54, -48, 79, 50, -100, -15, -87, -87, 83, 45, -27, -95, -13, -72, 53, 87, 51, 54, 69, 74, -40, -6, 1, -18, 77, 40, 69, 94, 90, 14, 53, -81, 37, 68, 109, -63, 107, -66, 23, 44, -6, 25, 75, 83, -58, -13, 91, -97, -111, -11, -12, -56, 9, -49, -17, 45, 35, 22, -70, -26, 72, -94, -39, 54, 54, -25, -29, 29, -21, 8, 20, 5, 80, 20, -10, 45, -8, 
  -56, 71, -39, 57, -58, 44, 109, 90, -67, 6, 48, 66, 110, 7, -17, 13, 46, 76, 0, -1, -47, -92, -100, 3, 4, 54, -95, 21, -32, 11, -34, 52, -17, 94, -93, -66, -49, -30, -91, 40, -15, -63, -54, -18, -3, 98, -34, -84, -84, -37, 4, -76, -40, -23, 76, 79, 46, -105, 77, -40, 15, 24, -19, 77, 13, -33, -16, 85, 101, -24, -80, -1, -58, -32, -35, 99, -57, -88, -81, -99, -34, 57, 43, 64, 100, 75, 103, -7, 17, -50, 94, -85, -78, 87, -73, -57, -45, 31, -28, 23, 17, 39, 6, 45, -3, -35, -34, 110, 110, -99, 100, 3, 103, 4, 9, 41, 16, -35, 3, -15, 62, -48, -59, 39, 65, 8, -82, 60, 
  -48, -50, -86, -89, -5, 43, 34, 55, -97, -89, 93, 37, -4, -82, 63, 87, -2, -41, -3, 97, 93, 36, -3, 16, 11, 26, 6, 106, -51, 33, -69, -36, 104, -58, -68, 21, -51, -50, 13, -76, 104, -96, 101, 36, 73, -44, -35, -45, -5, 102, 29, -50, 10, -13, -81, 77, 111, -59, -28, 73, -61, 4, -96, 103, 28, 15, 103, 48, 3, 40, -56, -4, -39, 27, 71, 59, 45, -45, 102, -61, 95, 35, -52, -59, -98, -27, 16, -8, -47, -27, 97, 61, 72, 102, 23, 19, -1, -43, 88, 60, -73, -32, -24, 1, 71, 41, 16, -81, -2, -80, -44, -82, -88, 61, 97, -103, -49, 51, 25, -47, 84, 40, 48, -74, 76, -72, -9, -29, 
  43, 16, -60, -99, -4, -83, 82, -74, 16, -50, -61, -39, -64, -29, 12, -3, -100, 2, -48, 94, -42, -43, 58, 59, -52, -40, 9, 62, -19, 9, 9, -67, 67, -25, -38, 24, 82, -51, 82, 96, 111, 20, 96, -50, 4, -86, 58, 26, -60, 69, -41, 72, 82, -71, -83, -24, -31, 77, -28, 46, -3, -48, 75, 105, -19, -17, 6, 5, 105, -14, -42, 41, 60, -12, -86, 51, 59, 83, -42, -91, -86, 45, -26, 72, -27, -28, -34, 84, -72, 19, -85, 52, 107, -45, 83, 50, 29, 53, -2, -96, 101, 0, -77, -54, 49, -31, 49, 96, -8, -59, 82, -98, 13, 96, 30, -22, -30, 12, -88, 74, -80, 101, 92, -72, -22, -64, 100, 13, 
  51, -15, -12, 67, 64, -88, -63, 57, -4, -63, 30, -49, -95, -9, -56, -9, -17, -92, 24, 28, -58, 14, 59, -107, -72, -86, -38, -16, -43, 63, 3, 0, -53, -81, -47, -27, -97, 76, 43, -121, 93, -27, 61, -78, 58, 1, -41, -95, -80, 106, -26, -27, -71, -19, -40, 53, 72, 2, 49, 11, -29, 20, 74, -42, -3, -109, -104, 57, -28, 97, 75, -21, -93, -72, -90, -28, 90, 66, -55, -22, 12, 12, -77, 100, 114, 55, 14, -49, -46, 97, -12, 60, -47, 53, 84, 40, 0, -8, -105, 34, -90, 20, 26, 13, 11, -100, -60, 64, -89, 51, -101, -106, -65, -46, 68, 0, 89, -97, -46, 33, -72, 12, -2, 106, 83, -106, -24, 100, 
  -14, 63, 48, -74, 25, -75, 14, -60, 22, 111, -99, -6, 65, 15, 33, -35, 92, 14, 58, 38, 93, 44, -76, 52, 52, -29, 69, 50, 7, 54, -49, -96, 52, -50, -91, -5, 38, 31, -38, 83, 0, 48, -47, 43, -82, -83, 42, -72, -102, 28, -101, -104, 3, 56, 38, 70, 58, -49, 49, 52, 109, 13, -59, -75, -63, -94, 43, -53, -23, 98, -82, -21, 27, 32, 30, 79, -84, -31, 36, 84, 110, 73, -82, -15, -12, -67, -63, 107, -32, -68, 19, -62, -7, 23, -40, 84, 70, 88, 9, 21, 3, -79, 95, 21, -62, 98, -64, 73, -62, 108, 91, -18, 31, 46, -42, 58, 42, -75, 73, 36, -59, -100, 63, -19, -53, -4, -84, -27, 
  6, 57, 87, 1, -103, -84, -47, 91, 81, 4, 68, 18, 58, 97, -82, -79, 75, 46, 91, -46, 3, 53, 55, -72, 70, 21, -105, 35, -11, 40, -50, 83, -10, -29, 48, 46, -5, 17, -77, -48, -77, -68, 56, -21, 59, -106, -84, -48, 27, 15, -53, -32, -36, 41, 99, 87, 28, -57, 55, -38, -66, 19, -89, 73, -76, -81, 15, -42, -72, -71, -15, 34, 23, 4, -67, 26, -29, -52, 80, -36, -47, -36, 21, 68, -87, 48, -73, 36, 68, 94, 96, 97, 10, 67, -52, -103, 7, 71, -27, -4, 34, 21, 14, -61, 97, -71, 28, -2, -12, 3, 104, 14, 19, -1, 85, 54, -63, -4, 90, -11, 68, -11, 82, -69, 8, -80, 18, 82, 
  56, -46, -21, -69, -81, -21, -50, 89, -77, 85, -20, 43, -26, -109, 0, -78, 11, -4, -28, 44, -69, 1, 18, -15, -107, -58, 24, -59, -9, -44, -11, -88, -3, 64, 85, -63, -19, -1, -81, -5, -69, -94, 72, 54, -108, -8, 70, -19, -11, -4, -89, -63, -105, 93, 2, -15, 39, -14, -4, -3, -41, 26, 60, 81, -88, -104, 104, -106, -23, 35, 41, 60, -30, -71, -65, 0, -23, 9, 47, -53, -36, 16, -17, -96, 55, 30, 31, -8, -59, 89, -38, -84, -44, 78, -78, 78, -44, -55, 6, 74, -19, 79, 67, -110, 25, 33, 33, -66, 62, 26, 26, 95, -50, -78, -39, -6, 34, -77, 64, 73, 71, -90, 22, -76, 80, -58, -22, 90, 
  97, -2, 2, 83, 29, 69, 100, -7, 31, 96, 98, 34, -99, 80, -8, -40, 45, 106, -103, 39, -74, 37, -54, 8, -86, 67, -21, 40, 57, -49, 57, -97, -92, -77, 51, -80, -58, -8, -65, -53, 0, -36, 91, -10, -21, -90, -11, 71, 63, -79, 83, 83, 7, -64, 12, -49, 19, 4, 81, -22, 90, -105, -18, 43, -9, 3, -4, -3, -60, -92, -21, 101, 6, -90, -62, 2, 32, -54, -18, 33, -68, -72, -102, -62, 19, -87, 100, -42, -86, 3, 68, 31, 44, 107, -52, -81, 80, -35, -12, -36, -56, 102, 95, 65, -1, 24, -66, -34, 50, 103, 110, 35, 18, 89, 61, -19, 19, -83, -39, 33, -69, 71, -48, -51, -19, 4, -3, -62, 
  0, -27, -49, 50, 25, -12, 55, 94, 78, 32, -42, -97, 81, 4, 7, 26, 71, -94, 35, -21, -27, 41, 94, -68, 84, 77, -2, 38, -67, 86, -83, 37, -34, -21, -39, 66, -47, 84, -73, -86, -16, -4, 28, 19, 16, 61, -8, 55, -17, 17, 75, 51, 79, -54, 55, 25, 40, 93, -19, 1, -91, -29, -16, 64, 27, -1, 81, -97, 107, -51, -76, -3, 27, 10, -22, 17, -59, 88, -62, 30, 18, 63, 41, 66, 0, 87, -1, 90, -34, 39, 11, -8, -92, -97, -3, -25, -23, 93, -11, -25, 102, 32, -81, -82, -29, -105, -103, -22, -13, -37, 88, 4, -76, -52, 99, -57, 83, -62, 88, -47, 16, -101, 31, 19, 49, 29, -71, -14, 
  -41, 6, 75, 0, 48, 84, -55, 88, -21, -68, 99, -31, -32, -103, 99, 64, -11, -85, -19, 48, -82, -35, 75, 84, -79, 47, 59, -107, 42, -74, 45, 57, 96, 34, -54, 44, 54, -46, 36, -52, -16, -90, 19, 23, 93, 70, -69, 2, -106, 91, -49, 74, -8, 48, 27, 86, -52, 79, -1, 52, -90, 7, -67, 16, 97, -20, -22, -76, 27, -88, -90, 35, 73, -47, 9, -3, -111, -89, -79, -87, -78, 26, 30, 97, -46, -78, 56, 39, -50, -36, 54, -74, -101, -54, 88, 50, -51, 9, -86, -32, 90, 58, 86, -52, -7, 69, -14, -103, -87, 17, 12, 42, 27, -99, -33, 62, -22, -44, -40, -94, -68, 89, -86, -68, -49, -57, -58, 67, 
  42, -86, -27, -62, -49, 58, 42, -82, -96, -1, 87, 77, 70, 31, -45, -25, 87, 33, 52, -96, 82, -13, 69, 29, 59, -7, 1, -36, 23, -42, 58, -77, -70, 16, 4, -75, 83, 70, -14, 45, -102, 58, 55, -78, -40, -7, 18, -55, -79, -97, 5, -4, -21, 76, -91, 52, 85, -24, 17, -83, -76, -65, 14, 79, 86, 86, 53, 99, -88, -81, -86, -43, -89, 76, -30, -98, 97, 30, 17, -99, 79, -60, 43, 87, 91, -19, -102, 1, -96, 51, 4, 17, -71, 31, -35, -54, -47, 58, 29, -58, -91, -89, -64, -103, 68, 92, -93, 16, -15, 29, -36, 102, 11, -49, -84, -92, 74, 36, -105, -22, -79, -1, -20, 94, -48, -68, -20, 11, 
  -69, 16, -46, 24, 71, -41, -14, 97, -9, -96, 14, 82, -46, 11, -61, -53, -100, -86, 44, 46, 85, 71, 89, -96, -50, -98, 58, 88, -8, -109, 37, -67, 21, -93, -73, 80, 96, 60, 74, -59, 101, -99, -93, -20, -90, 27, 9, -52, -78, -86, -45, 21, 91, 75, 42, -66, 30, -102, 75, 86, -67, -79, -4, 22, -6, 12, 24, -24, -14, -25, 33, -72, 85, 81, 50, 75, 98, 60, 47, 9, -77, -13, 73, 64, 3, 58, 49, 19, -98, -11, 30, 93, -25, 63, 58, 64, 95, -70, -45, 72, 1, 15, -15, -89, 58, -100, 11, -32, -56, -63, -46, 83, 42, -31, -38, 92, 63, -23, -5, -29, 73, -13, -59, -25, -4, -72, -79, -69, 
  62, -48, -33, -90, 51, -79, 4, -34, 12, 74, -13, 28, -77, -28, -60, 18, -54, -76, -42, -12, -45, 101, -81, -42, 88, 38, -30, 49, -67, 50, -93, -19, 86, -90, 33, -19, 69, 74, -47, 72, 94, 77, -69, -54, 15, 60, 5, 26, -87, -6, 84, 38, 48, -85, -17, -66, 42, 61, -85, -18, 52, -105, -59, 51, -68, 16, 51, 42, 86, -7, 52, 108, -71, -21, 92, -82, 14, -88, 56, -24, -73, -47, -43, -101, 77, -33, 31, 84, 37, -52, 67, 22, 45, 71, -96, -3, 96, 54, 30, -88, 57, 55, -17, -20, 91, 2, 6, -13, 95, 74, 48, -8, 65, 43, 59, -32, -82, 54, 9, 98, 104, 28, 39, 94, 62, 88, 49, -60, 
  36, 26, 51, 14, -68, -82, 93, -72, -95, 26, 70, 91, 50, -58, -42, -44, 77, -6, -68, -94, -98, -85, 103, -25, 90, -28, 92, -63, 79, 95, -26, -99, -98, -106, 71, -17, 97, 22, -4, -54, 26, 27, -91, 13, -58, -74, -5, 45, -74, -53, 31, -81, -5, 4, -28, 83, 21, 29, 70, -80, 81, 11, 8, -45, 7, 26, -108, 10, -35, -40, -49, -70, -67, 75, 104, 106, 56, -61, 75, -72, 57, 93, 74, -15, -72, 74, 80, -1, -82, 89, -51, 95, -16, 18, -52, 31, -105, -43, -72, 14, -2, -71, -31, -36, -50, 94, 45, -81, 23, 95, -15, 66, -102, 73, -18, -49, -14, 11, 25, 85, 9, -80, -57, 103, 71, 84, -18, 78, 
  -4, 90, 75, 41, -67, 99, -4, 61, 27, 60, -11, -76, 6, -42, 16, -81, 25, 68, -38, -66, -12, 75, 91, 31, -59, -17, 2, 13, 77, -82, 7, -64, 72, 46, -39, 33, 1, -28, -60, 109, 29, 41, -23, 60, 10, -69, -16, -29, 47, 14, 66, -75, -86, 93, 56, -95, 32, -37, -55, 62, 19, 89, -119, -73, -39, -1, -64, 54, 67, 43, -39, 66, -76, 55, 24, 91, -96, -53, 86, -28, 60, 62, 2, 56, 91, -66, -14, -28, 5, -99, -47, -17, -55, 76, -95, 11, 99, 76, -110, 97, 67, -37, 42, 43, 33, -6, 46, 72, -12, -44, 63, -27, 67, 58, 22, -89, 21, -99, 2, 12, -64, -89, -82, 21, -86, -6, -3, -35, 
  92, 86, -82, -112, 70, -42, 103, 65, -7, -59, -62, 102, 80, 59, 107, -55, -92, 69, -2, 23, -99, 91, -9, -64, -29, 32, 56, -26, -5, -12, -93, -16, -60, -17, 36, -20, -92, -25, -13, -41, 60, 96, 88, -79, 104, -24, 11, -26, -57, 6, 49, 20, 48, 33, 76, -82, -100, -92, 85, -39, -57, 42, -53, 71, -93, -97, 43, 81, -82, -60, 65, 75, 57, -101, -50, -81, 83, -21, 72, -46, 40, -29, 71, 52, -46, 43, 61, 84, -81, 36, -106, -73, 31, 75, 16, 63, 107, -67, 25, 27, -14, 72, -95, 72, -87, -32, 74, -64, -41, -13, -29, 4, 68, 20, -54, 1, -48, 109, 88, 68, -42, -58, 94, 61, 24, -40, -11, -49, 
  49, 66, -13, -20, -41, -26, -76, -18, 89, -49, 70, 42, -50, -57, 2, -91, -54, -54, 104, -86, -56, -38, -44, 80, 35, 22, 5, 76, -40, 66, 68, 70, -40, -86, -71, -63, -103, -8, -46, 40, -53, -40, 48, -51, -96, 32, 53, -46, -22, 37, 99, 78, 40, 77, -95, 80, 82, -8, -4, -60, 105, 0, 54, 38, -78, -39, -24, 41, 30, -29, 56, -1, 60, -13, -62, 101, 34, -74, 62, -38, 22, 18, 66, -88, 21, -43, -30, 54, 48, -101, 18, 49, -77, 73, -31, 9, 81, 43, -91, -9, 74, -89, 72, -41, -33, -88, -1, 99, 27, -57, -60, 3, -98, 99, 39, -62, -31, 40, 97, 99, 29, 81, 46, 80, 94, 12, -99, -30, 
  -47, 55, -26, -83, -46, -35, -17, 76, 63, 84, -100, -68, -48, 69, 98, -100, -82, 60, -34, 108, -100, 23, 80, 79, 81, 49, -96, -7, 95, -84, -99, -4, -68, 92, -33, 25, -48, 68, -54, -85, -51, -28, -69, 12, -78, 94, 92, 95, -93, 28, 86, -41, 29, 73, 29, -15, 54, -75, -76, -1, -63, -51, -51, 61, -73, 81, 32, -43, -77, 89, 46, 5, -2, 15, 14, 50, -31, 74, -13, -31, 69, 71, 99, -28, -46, -91, 69, -19, -4, -104, -68, -81, -115, 87, -12, 17, -2, 10, 66, -41, 8, -107, -98, 93, -104, -105, 72, 112, -108, 37, -43, 75, -45, 30, -8, 80, 70, 24, 38, 94, -60, -92, 21, -85, -37, -87, -97, -48, 
  -66, -58, 29, -12, -80, -83, 44, 32, -107, -53, -44, 26, 48, -81, 30, -103, -70, 49, 53, 16, -91, -55, 3, 60, -11, -62, 81, -15, 65, 90, -35, 69, -11, -15, 22, 13, -83, 23, 83, 47, -39, -9, -35, 38, 73, 91, 56, 96, -83, -98, -81, 35, 1, -28, 85, 77, -79, 46, -66, -12, -14, -63, 42, -67, -72, 2, -100, -7, -35, 26, -105, -65, -20, 76, 4, -76, 80, -25, -67, -15, 20, 36, 25, -78, -56, -91, -14, 2, 60, 96, 70, -99, -102, -44, 17, -76, 93, -63, 49, 52, 50, 26, 91, -30, 22, 89, -66, -4, -107, 36, 55, -64, 30, 14, -65, 17, -2, 55, -58, -28, 76, -1, -92, 90, 30, 12, 56, -84, 
  -68, 79, -88, -98, 63, -54, -29, 13, -29, 2, 60, 17, -59, -53, 19, 13, 59, -11, -49, 79, -22, 76, -16, 8, 76, -21, -107, -32, 24, 57, -23, 85, -87, -71, -62, 83, 73, 16, 1, -80, 66, -61, 78, 85, 78, 89, -82, 5, -96, -40, 7, -63, -81, -46, -81, -36, -52, 98, -27, -64, -102, -11, -17, -93, 43, 0, -101, 87, 29, -83, -39, 61, 98, -38, 19, -43, -33, 8, -39, -81, 86, 36, -29, -19, 48, -49, -8, -70, 9, 48, 83, 8, 22, -21, 89, -33, 42, -56, -63, 78, 98, 82, -86, 35, -44, -46, -39, -88, -26, 84, -41, -22, 69, -94, 85, 26, 52, 101, -92, -49, 102, -41, 3, 47, -73, -84, -16, 29, 
  -28, -62, -53, -62, 87, -73, 3, 6, -106, 61, 64, 31, -102, -108, 20, -70, -45, -32, -55, -69, 42, 47, -20, 83, 6, 56, -107, -71, -109, 1, 89, -61, -74, -19, -72, 57, -5, -82, -40, -32, -103, 57, 72, 8, 41, -27, 62, -16, 0, 76, -51, -59, 91, -59, 97, -5, -79, 46, -50, 3, 74, 74, -18, 85, -45, 70, -69, 3, -102, -63, -47, 33, 85, 9, -42, 58, 34, 40, 65, -60, -107, -52, -108, 61, -38, -65, 22, 76, 109, 40, 30, -38, -18, -63, -49, -114, -70, 87, -10, -127, -5, -87, 68, 43, -79, -25, 84, -108, -4, -5, -37, -50, -77, 88, -100, 33, 97, 86, 80, -78, -39, 20, 82, 9, -62, 17, -8, -103, 
  68, 14, 85, 54, 16, -4, -23, 4, 37, 95, -50, -83, 16, -49, -16, -12, 11, -4, -87, -59, -92, -92, 89, 20, 41, 32, -59, -56, -65, -48, -72, -66, 95, -3, -83, -19, -106, -107, -48, -42, -29, -24, 98, 97, 1, 9, -89, 62, -48, 56, 13, 58, 41, 97, 19, -91, -94, 13, -75, 59, -27, 101, -60, 71, 87, -97, -44, 82, 59, -65, 80, 89, 3, 72, -26, 40, 95, 19, 65, 69, 89, -99, -91, -65, 41, -43, 29, -64, -57, -45, -45, -41, 59, 57, 49, -16, -15, -70, 22, -94, 101, 67, -56, -57, 38, -74, -100, 9, -28, -11, -11, 55, -107, 83, -83, 16, 74, -19, -45, -93, -40, 1, -61, 103, 54, -8, 39, -81, 
  -15, -48, 53, 3, 59, 15, 34, -23, 66, 9, 76, -56, -62, 83, 81, -44, 95, -66, 1, 89, -4, 77, 95, 77, 46, -55, -28, 85, 12, 69, 0, -17, -65, 42, 76, 40, 101, 14, 44, -86, -51, 34, -32, 27, 70, 10, 59, -76, -1, -68, -57, 23, -1, 1, 68, 1, -57, -98, 8, 70, -65, -77, 46, -21, -109, -101, -28, 70, -101, 52, -38, 84, -92, 98, -38, -48, -51, -64, 4, 88, -13, 73, 51, 0, 92, 102, 7, 62, -6, 50, -15, -44, 63, -28, 117, 53, -41, -117, 0, -83, 63, 64, 90, -77, -70, -44, -46, -62, -74, 42, 56, -7, -90, 73, -90, 29, 48, 99, 35, -81, 32, 56, 50, 62, 102, -26, -67, 15, 
  75, 46, -20, -106, 38, 13, 73, -108, -13, -86, 46, -75, -21, 13, -49, -80, -4, 7, -46, 69, -3, 82, -42, -79, -62, 95, -93, 88, 69, 24, 19, -86, 9, -62, 39, -113, 21, 86, -61, -7, -60, 78, -80, 54, -85, 87, 10, -19, -68, -27, 4, -17, 79, -8, -24, -24, -20, -46, 84, -63, 94, 64, -13, -102, -52, 22, -75, -9, 16, -102, -42, -19, -25, 54, -58, 35, 91, -1, -56, 7, -24, 96, 56, 31, 47, 99, 23, -42, 97, -57, -80, -57, 37, -104, -76, 15, -4, 32, -72, -52, 39, 15, 87, -52, 33, 99, -76, 64, 79, -106, -62, 72, -1, -47, 80, 69, 46, -28, 82, -56, -16, 63, -39, 59, 24, -59, -113, -9, 
  76, 42, 8, 106, -92, 9, -22, -40, 36, -83, -77, -2, -84, -68, -12, -30, 33, -97, -8, 78, 16, -49, -26, 46, -82, 94, 88, 102, 71, -19, 12, 111, -6, 81, 62, -35, 98, 106, 98, 50, 86, 28, 113, 90, 93, -87, 20, -25, 101, 49, 106, -84, 54, 110, 12, 63, -89, 84, -48, 79, -83, -15, -12, -26, -16, 105, 10, 81, -92, -25, -12, 32, 14, -5, -41, -30, 75, -15, 20, -49, 39, 3, 65, 10, -66, 96, -62, 0, 90, -16, -11, -58, -33, -73, 80, 75, 19, 3, -22, -68, -96, -48, 83, -56, 30, 69, -63, 41, 58, -29, -72, 10, 113, 28, -63, 23, -61, 5, 1, -35, -12, -87, -31, -84, 57, -37, 63, 48, 
  11, 49, 66, 104, -57, 1, 9, 79, -66, -85, 18, -56, 39, -56, 102, 59, 5, -80, -60, 14, -32, 3, 34, -79, -1, 47, 73, 11, 2, -46, 63, 78, 100, 52, -8, -54, -48, -99, 35, -83, 48, -104, 57, -96, -46, 72, 76, 96, 91, -69, -75, -100, -1, 1, -35, 16, -104, -78, 62, -80, 5, -52, 18, 96, -84, -64, 80, 106, 25, -56, 75, 63, -117, 74, 14, 62, -96, -104, -28, 0, -71, -40, 79, 24, -1, 37, -74, 35, -96, 85, 27, -102, -62, -85, 8, -8, -52, -73, 39, 78, 6, -72, 68, 47, 45, -31, 58, -95, -85, -49, 75, 89, -3, -6, -10, 48, 38, 31, -22, -48, -7, 48, 73, -72, -76, -24, 48, -71, 
  -40, 45, 80, 29, -37, 44, -14, -26, -55, 88, 48, 73, -83, -49, -38, 72, -91, 36, -97, 18, -54, 91, 87, -57, -60, 78, -11, -108, -83, 30, -5, 56, -83, 30, -75, -112, -38, -100, -47, -37, 25, -109, 45, -26, -100, -20, 45, -51, -71, 56, -79, 66, -24, 60, -43, 60, 40, 10, 73, 98, 94, -44, -7, 42, 2, -85, -7, 18, -53, -67, 39, -1, -49, -85, 51, 30, -53, -82, 77, 19, -36, -67, 27, 0, -70, 10, 13, -24, -70, 24, -31, 38, -87, -28, -10, -27, 93, -69, 37, -58, -9, -70, -51, -6, -41, -38, -30, -48, -111, 17, -41, -37, -54, 42, -100, 83, 15, 48, -87, 89, -33, -101, 75, -54, 44, -93, -46, 69, 
  -52, 34, -64, -28, -51, 14, 28, -61, -22, 29, 35, 17, 9, -104, 25, 92, -41, 99, -88, 28, -64, 31, 7, 0, -68, -1, 86, -95, 39, 88, 78, 2, 67, -22, -30, 62, 1, 77, 15, -20, 65, -11, 76, 36, -47, -2, 109, 99, -5, 57, -26, 86, 84, 36, 33, -46, -19, 23, -88, 55, -50, -13, 74, -88, 32, 68, -116, 72, -66, -77, 18, 84, 76, -58, -63, 20, 20, 93, 103, 46, -65, 20, 72, -39, -4, -96, -23, -17, -5, -59, 82, 59, -54, 85, 96, 75, -53, 67, 78, 81, 83, 40, -38, 38, -95, -66, -85, -40, -21, 34, 37, 17, 85, -83, 94, 45, -82, -3, 72, 46, 88, -14, -15, -104, 52, -83, -75, 106, 
  67, 103, -44, -38, 37, 55, -29, -97, 46, 67, 83, -4, 38, -11, 46, -52, 74, -49, -92, 3, 95, 77, -12, -91, 81, 31, -24, -34, -48, 26, 59, -109, 18, -57, -23, -14, -54, 41, 45, -78, -93, 80, 75, -99, 93, 44, -60, -28, 19, -48, 39, 3, 47, 88, 9, 58, -35, -58, -23, -17, 48, -35, 81, 19, 87, -101, -85, 3, 74, 100, 101, -88, 5, 21, 7, -2, 61, 19, -2, 87, -33, 70, -4, -56, 98, -94, 34, -98, 15, 14, -31, 51, -87, 64, -38, -84, -84, -39, 79, 87, -22, 87, 61, 46, 72, -1, -64, 46, 60, 40, -100, -24, 62, -85, -39, -37, 78, -110, -68, 52, 32, 27, 27, 25, -92, 102, 28, -53, 
  64, 15, -93, 53, 72, -81, -42, -50, -100, 19, -64, 100, -89, -83, -88, 102, 91, -52, -89, -21, 80, -79, -8, -20, 70, 3, 84, 56, -106, -67, -33, -77, -87, 53, -64, -61, 93, 26, -90, -21, 11, -77, 41, -64, -42, -100, -63, -85, 12, 86, 57, 80, 65, -82, 59, -22, 89, 6, 86, 33, -25, 100, -1, -48, 27, -5, 3, 27, 7, -37, 82, -32, -27, 27, -26, 39, -11, -96, 15, 29, 6, -87, 61, -28, 27, -26, 68, -23, -89, 98, -76, -1, 76, 46, -28, 53, -77, -5, 24, 61, -89, -38, 44, -64, 19, -98, -79, -67, 92, 80, -107, 63, -99, 53, 2, -104, -37, -20, -105, -56, -89, 82, 53, -84, -84, -75, -29, 30, 
  -107, 39, 92, 61, -10, 26, -96, 63, 86, 49, 3, 101, 29, 80, 69, 27, 1, 37, -81, 47, -51, -97, -107, -89, -19, 57, 92, -98, 21, 53, -98, -103, 69, -83, -94, 52, 3, 97, -84, 35, -57, -28, -57, 35, 29, 55, 31, -59, -6, 96, 13, -5, -38, -94, -9, 35, 44, 1, 1, 88, -44, -98, -12, 34, 5, -96, -5, -21, -93, 75, -40, -7, 38, -9, 21, 51, -76, -62, 8, -30, -21, 5, 43, -12, -68, -41, 81, -79, -38, 96, -89, -22, 32, 15, -109, -20, 52, -33, 76, -13, 15, 46, 71, 11, -53, -99, 97, -59, -26, -9, 29, -79, -83, 43, -13, 70, 64, -65, -66, -65, -9, 65, 85, -23, 0, -23, 91, -55, 
  67, 53, 63, 98, 59, -24, -4, -49, 4, 34, 9, 34, -58, -25, -52, 58, 20, -78, -57, -85, 63, -37, 71, 40, -74, 58, -64, 82, -23, 34, 53, -97, -105, 28, -31, 77, -46, 24, -56, -23, -72, -82, 38, 42, -10, 89, 3, 62, -11, 92, -12, 13, 74, -9, -84, 89, -102, 74, -86, -24, 83, -16, -32, -84, -33, 72, -59, 32, -103, -100, -80, 60, -50, -77, -32, 53, 5, 38, 74, 79, 64, 86, 48, 8, 44, 76, -12, 62, -10, 10, 2, 21, 33, 75, -103, -49, -97, 17, 62, 99, 28, -48, 27, 87, -21, -11, 75, -74, 20, 34, -4, 62, 56, 50, -102, 39, 11, 13, -26, 18, 36, -64, -94, -106, -54, 8, 57, 96, 
  72, 58, -63, 32, 91, 89, -87, 72, -97, -61, 8, -77, -27, 8, -2, 79, -13, -28, -103, -11, -22, 87, -82, -103, -36, 56, -78, -88, 89, -38, 42, 90, 65, 19, -91, 89, 39, 31, -77, -46, 50, 4, 23, -5, 21, -65, 41, 0, 2, 19, -38, 28, -73, -84, 54, 61, 71, 31, 59, -42, 102, -99, 6, -21, -68, -85, 42, 35, 8, 73, 20, 91, -85, 10, 27, 74, 4, 86, 100, 21, -4, -57, 40, 1, 31, -42, 49, 59, -38, 72, -27, -97, 33, 26, 50, 72, 68, 73, 74, 54, 24, 90, -83, 43, -74, 35, -82, -80, -97, -38, 7, -69, -5, 84, -24, 8, 62, -66, -104, -91, -80, 69, 4, -13, -59, 40, -27, -54, 
  29, -20, -16, 26, 58, 104, 90, 73, -47, 91, 0, -43, 40, 1, -18, -42, -17, -106, -10, -78, -39, -101, -22, 29, -78, 109, -32, 98, 39, -58, 50, -86, 92, 93, -13, -44, 47, -104, -80, -113, -66, -3, 69, -4, -10, -59, -43, 83, -51, -12, -14, -69, -16, 21, 94, 77, 40, 42, 69, 1, 7, 58, -51, -57, -42, 88, -51, 80, 83, 79, 86, -99, -6, -69, 37, -46, -29, 33, -99, -108, 43, -99, 73, -101, 59, -77, 59, 87, -20, -78, 68, 28, -1, 41, -104, 38, 82, 23, -25, 35, 22, -66, -10, -68, -104, 9, 82, -31, 70, 13, -41, 62, -8, 83, -74, -97, -22, 53, -37, 6, -18, -96, -57, -36, 40, -62, 84, 64, 
  87, -69, 14, 47, 74, -23, -76, -99, 28, -88, -7, -106, 93, -41, 9, -41, 93, 47, 7, -109, 30, -71, 22, -13, 102, 97, -43, 67, -57, 52, -108, -9, 27, -66, 45, -31, -89, 93, -10, -49, -18, 69, -59, -49, 36, 16, 67, 87, 43, 76, 70, 84, 6, 33, 34, -26, -15, -91, 97, -9, -2, 100, 5, -48, 21, -46, -77, 29, -96, -60, -89, -35, 79, -96, 74, 33, 12, 19, -48, 45, -89, 106, 13, 56, 107, 56, -47, -95, -32, -73, 53, 50, -33, 84, -61, -105, 64, 48, -2, 11, 48, -47, 80, -98, -23, -18, -59, 9, 29, -34, -10, 74, -61, -99, -45, 37, -105, 84, 43, 28, -98, 91, -13, 75, -72, 88, -56, -112, 
  111, -13, -37, -38, 19, 50, -23, 40, -26, -34, -7, 85, -85, 1, 60, -92, -2, -23, -22, 54, 77, -90, 2, 90, -10, 17, 1, -18, 7, -12, 11, -62, -78, -20, -99, -9, 42, 76, -32, -53, -24, -56, 7, -64, -78, -39, -50, -69, -67, 99, -25, 27, 48, -11, 66, -77, 83, -53, -30, 72, -16, -19, -43, 77, 57, 69, 6, 55, -31, 95, -17, -30, -38, -13, 38, -37, -84, -18, -23, 15, 27, 103, -88, 77, -40, -40, -62, -48, -24, 39, 35, 96, 83, 71, 48, 58, -13, 60, -49, -20, 37, 15, 65, -1, -75, 68, -41, 41, -39, 107, 28, 98, -98, -2, 41, -20, 66, 17, 48, 0, -85, -22, -31, -86, 19, 45, 43, -57, 
  -51, -42, 0, -87, -11, 55, -97, -1, -98, 73, -95, 37, 69, -58, -14, 9, -40, 54, 65, -4, -29, -48, -37, 68, -41, 70, -3, 99, -19, 58, 38, -19, 89, -104, -28, -68, 17, 94, -47, 88, -62, -56, -76, 1, 22, 0, 7, 20, 20, 37, 13, 68, -89, -45, -78, -67, -43, -74, 95, -83, -89, 44, -5, -107, -87, 73, 76, -92, 27, 76, 38, -97, -59, 63, -2, -71, -37, -106, -58, 91, 2, 84, -77, -20, -14, -78, -71, 45, 26, -9, 20, -62, -88, -109, -29, 24, 55, 100, -15, 68, -96, -90, 65, 19, -91, -2, 33, -95, -106, -19, -26, 37, -3, -85, 29, 53, 1, -86, 7, -28, -71, -26, 30, 20, 11, 64, 17, 13, 
  -35, -62, 22, -64, 105, -92, -28, -75, 34, 20, -77, 38, -65, -90, -43, -9, -51, 43, -30, -105, -19, -45, -18, 68, -93, -81, -102, 73, 104, -91, -44, 74, -40, 23, 71, -55, 79, -106, -44, -101, -97, 87, -19, -30, 84, -18, 69, 70, -106, -83, 52, -15, -2, 58, -53, 103, 6, -33, -84, -57, 97, 12, -104, -57, 46, -32, 11, -95, -76, 96, 22, -35, 99, -24, 34, 62, 41, -7, 34, -92, -64, 84, -89, 35, -64, -46, -37, 87, 14, -13, 46, 39, 11, 77, 21, -25, 7, -52, -102, 23, -45, -90, 96, -102, 28, 5, -78, 6, -82, 23, -43, -44, 24, -11, -94, -7, -7, -50, -33, -34, -83, 49, 82, -94, 4, 35, 47, 79, 
  -50, 54, -26, 43, -65, 45, -55, 50, -12, 82, -74, -32, -74, 99, 104, -27, -53, 76, -55, 56, 93, 6, 59, 96, 52, 47, 100, 9, 24, 55, -50, 12, -39, 95, 87, -19, 59, 83, 37, 72, -93, 50, -30, -90, -54, 54, -91, -65, -94, 24, -73, 39, 40, 2, -96, 97, 103, -22, -85, 106, -22, 77, -80, 41, -32, 74, -76, 46, 12, -3, 16, -31, 7, 39, 78, 22, 68, 95, -63, -69, 56, 89, 27, 12, 107, 103, 75, 80, -28, -57, -47, 8, 84, 44, 57, -76, 89, -52, -46, 69, -69, -95, 30, 30, -95, 41, -40, -66, 68, -10, 34, 89, -35, -18, -42, -27, 55, 42, -11, -91, -13, 97, 29, -79, -110, 24, -37, 72, 
};
const TfArray<2, int> tensor_dimension4 = { 2, { 64,128 } };
const TfArray<1, float> quant4_scale = { 1, { 0.0016670331824570894, } };
const TfArray<1, int> quant4_zero = { 1, { 0 } };
const TfLiteAffineQuantization quant4 = { (TfLiteFloatArray*)&quant4_scale, (TfLiteIntArray*)&quant4_zero, 0 };
const MODEL_SECTION(EI_MODEL_SECTION) ALIGN(16) int32_t tensor_data5[128] = { 0, 0, 0, 0, 0, 0, 0, 0, 0, 0, 0, 0, 0, 0, 0, 0, 0, 0, 0, 0, 0, 0, 0, 0, 0, 0, 0, 0, 0, 0, 0, 0, 0, 0, 0, 0, 0, 0, 0, 0, 0, 0, 0, 0, 0, 0, 0, 0, 0, 0, 0, 0, 0, 0, 0, 0, 0, 0, 0, 0, 0, 0, 0, 0, 0, 0, 0, 0, 0, 0, 0, 0, 0, 0, 0, 0, 0, 0, 0, 0, 0, 0, 0, 0, 0, 0, 0, 0, 0, 0, 0, 0, 0, 0, 0, 0, 0, 0, 0, 0, 0, 0, 0, 0, 0, 0, 0, 0, 0, 0, 0, 0, 0, 0, 0, 0, 0, 0, 0, 0, 0, 0, 0, 0, 0, 0, 0, 0, };
const TfArray<1, int> tensor_dimension5 = { 1, { 128 } };
const TfArray<1, float> quant5_scale = { 1, { 0.2179022878408432, } };
const TfArray<1, int> quant5_zero = { 1, { 0 } };
const TfLiteAffineQuantization quant5 = { (TfLiteFloatArray*)&quant5_scale, (TfLiteIntArray*)&quant5_zero, 0 };
const MODEL_SECTION(EI_MODEL_SECTION) ALIGN(16) int8_t tensor_data6[128*501] = { 
  -10, -7, 17, -28, -25, 45, -63, -6, 55, 13, -4, -37, -48, -47, 46, 66, -32, -16, -15, -9, 59, -63, 63, 10, 18, 25, -70, 25, 23, -63, 4, -69, 66, 32, -35, 65, 20, 76, -69, 40, -3, -16, -80, -4, -23, -37, 6, 69, 42, 28, 23, -67, -25, 64, 6, -56, -47, -31, -22, -5, 58, 40, 9, 33, 52, 77, -43, 74, 42, -83, -46, -24, -13, -24, 76, 67, 0, -45, 41, -12, -4, -33, 44, -29, -32, 43, 31, 67, 12, 0, 65, -60, 30, 52, 72, 70, 70, -21, 47, -56, -7, 81, 23, 29, -50, -40, 35, -58, -71, 72, -62, -38, -19, 15, -1, 79, 47, -27, 26, 62, -61, -34, 11, 55, 1, -63, -35, -36, 54, 4, 51, -56, 58, -22, 31, -57, -54, -23, -37, -18, -12, 42, 37, -18, -83, 86, 10, -87, -30, -51, 7, 6, 52, -60, -56, -37, 38, -6, -55, -52, -69, -4, -45, -60, 15, 31, 6, 5, 14, 4, -10, -60, -61, -49, -92, -74, 27, 33, 15, -47, -85, -64, -29, -56, -57, 44, 3, -3, 17, -43, -20, 40, -32, -70, 81, 6, 71, 51, 46, 67, 41, -43, 63, -58, 27, -61, 21, -4, -71, 64, 57, 14, -25, -26, -59, 34, 21, -17, 67, 47, -12, -63, 65, 5, -51, 41, 46, 9, -40, 21, 8, -33, 70, -23, 2, -20, 60, 36, 60, -12, -15, 69, -12, -36, -66, 48, -68, 58, 30, 41, 66, -43, -74, 75, -4, 48, 35, 26, 24, 74, 24, -19, 8, 57, 34, -83, -15, -50, 45, -12, 48, 68, 55, -42, -18, 55, 5, -16, 40, -38, 41, -88, -26, -70, 61, 1, -57, 27, 24, -73, 14, -21, -28, -28, 14, 72, -32, -10, -13, 26, 44, -2, -65, -8, 32, 45, -34, -2, -71, -15, 38, 0, -37, -3, 52, -74, -62, 14, 10, -6, -47, 71, 72, 8, 68, -35, -20, 14, -52, -14, -10, 52, -18, -11, 48, 53, 6, -1, -79, 6, -44, 10, -59, 42, 32, 36, 40, -67, -22, 11, -46, -69, -75, 42, -61, -81, -80, 70, -50, 36, 34, 9, -7, 58, -32, -71, -15, -73, 11, 75, 50, -19, 72, -61, -14, -26, 14, 33, 0, -42, -50, 51, 5, 46, -34, -25, -52, 29, 71, 53, 30, 58, -17, -54, 66, -66, -12, 12, -66, -77, 8, 58, -12, 51, -86, -28, 58, -58, -14, -54, 48, 8, -27, 20, -34, 44, -39, -44, 19, 53, -31, -74, 0, 15, -13, -1, -9, 53, -61, -41, -45, 24, 61, -17, -84, 33, 67, -19, 36, -47, -78, -1, -21, 60, 26, 0, -36, 69, -10, -54, -39, 52, -83, 6, 18, 30, 61, 50, -29, -3, 71, -13, -67, 19, -68, -39, -85, 5, -38, -41, 21, 67, 36, 2, -72, -45, 42, 73, 21, 27, -18, -59, -9, 3, 4, -79, -46, -22, -8, -65, -90, 31, 37, 35, -73, 35, 45, -34, -12, -82, 8, 
  -84, -71, -21, 0, -80, 76, -17, 23, -3, 49, -21, -40, -70, 60, -70, -41, -71, 26, 12, -30, -64, -72, -79, 73, -67, -48, -27, 49, 34, 32, 52, -77, 28, -33, -19, 31, -68, 19, 18, 69, -27, 49, -48, 35, 75, 71, -30, 32, -41, 51, -13, 15, -8, -65, -1, 54, 29, 56, 61, 74, 37, 17, 34, -1, 40, 1, -61, 11, -62, -82, -2, 58, 26, -21, -39, 29, -28, 20, 55, 33, -70, 7, -21, 83, -35, -75, -15, -4, -82, -50, -32, -71, -8, -11, -11, -43, 0, 20, -50, 46, 1, -44, -56, -73, 8, 71, 12, 32, -31, 40, 21, 74, 16, -73, 28, -4, 77, -34, -33, -63, -59, -57, 20, -77, 7, -10, -41, -56, 49, -13, 20, -65, 28, 26, 30, -76, -69, 78, 46, 16, 21, -11, -42, -40, -50, -44, -21, 64, 32, 79, 2, 70, 69, 20, -10, -31, 40, -67, 60, -52, 17, -30, 48, -74, -17, 23, -24, 23, 11, 73, 68, -1, 78, -77, 34, -15, 59, 11, 73, -20, 19, 37, -1, -68, -23, -58, -53, 54, -19, -4, -8, 13, -26, -10, -51, 53, 10, 14, -22, -76, 4, 66, 36, 59, 27, 77, 32, 36, -40, -79, -71, -23, 63, 36, -63, 77, -55, 47, 46, 36, -40, 29, -46, -3, -73, 61, -9, 32, 30, 2, -13, 25, -31, 3, -69, -69, 68, 18, -5, -31, 30, 35, 56, -9, -49, 1, -21, -44, -28, -10, -12, 11, 23, -8, 34, -33, 33, 24, -47, 71, -63, -41, 41, -25, -2, -35, -6, -28, 63, -70, 66, 11, -14, 60, -16, 49, -71, 5, -25, -70, -47, 5, 56, -45, -71, -59, 29, -66, -17, 54, -36, -74, 26, -56, 42, 77, -24, 8, 47, 58, -39, -22, 68, -72, -17, -82, 44, 20, -19, 77, -67, -19, 75, -6, -10, 58, 22, -11, -53, -1, 0, 9, -60, 24, 37, 59, -55, 6, 41, -43, 14, -77, -83, 18, 56, 54, -39, -10, 56, 57, -65, -24, -31, 69, -79, 17, 39, 40, -38, -15, 28, -13, -43, -29, 74, -47, -77, -45, -68, 37, -19, 62, 49, 56, 66, -10, 31, 68, -39, 28, -45, 67, -36, -17, 51, 34, 53, -67, -22, 65, 38, 70, -9, 38, -38, 57, 61, 6, -35, 23, -19, -23, -55, 56, 37, 70, 11, 42, 45, -43, 8, -46, 4, 27, 34, 75, -23, -89, 6, -24, -77, -13, -44, 20, -51, -25, -81, -18, -41, 52, 22, -69, 7, 31, -64, -14, -17, -20, 0, -33, 14, -34, -29, 47, 32, -58, 33, -59, 45, -66, -6, 68, 6, 2, 73, 11, -53, 27, 13, -63, -22, -19, 45, 39, 22, -9, -49, 60, -62, -7, 75, -64, 26, -37, 25, -8, -51, -38, -13, 11, 30, -62, -24, -82, -38, 33, 67, 4, -41, 32, 72, 10, 16, 66, -46, 27, -75, 3, 17, 65, 77, -24, 16, 49, -25, -87, 6, -53, 13, 88, 29, 
  44, 49, -67, 53, -47, 41, -71, -1, 65, -29, -24, 60, 62, 23, 14, 16, 35, 3, -27, -14, -68, 15, 50, -74, 41, 0, 16, 66, -24, 20, -36, -90, -17, 26, -85, -53, -35, -45, -56, -18, -71, -3, -70, 8, -8, 34, -81, -43, 10, -23, -10, -68, 17, -65, -33, 57, 6, -54, 9, -17, -51, 2, 40, -87, -56, -43, -90, 52, -18, -51, -23, -54, -39, -2, -16, -45, 51, -36, -75, -12, 42, 31, 85, 55, -37, 5, -25, -80, 20, -27, -63, -3, 5, -49, -19, 69, 50, -7, 35, -75, -12, 50, 58, 48, -6, 64, -15, 36, 17, -12, 41, -61, 8, -41, 17, -13, 21, 43, 3, 15, 44, 33, -23, 63, 42, -58, -33, 21, 28, -57, 74, 69, 52, 16, 7, 71, 28, 64, -45, 69, -72, -53, -71, -43, -67, -33, -76, -14, 25, 6, 59, -13, 75, -73, -39, 11, -16, 53, -79, 50, -37, 46, -15, -6, 39, 14, -75, -41, -17, -63, 67, 60, 52, -30, -50, -6, -54, -67, -74, -5, 47, 0, 0, 59, 58, -81, 71, -41, -54, 60, -60, 72, -45, -12, 71, 46, 43, 67, -46, 1, -44, 32, 77, 72, -9, 45, -21, 38, 63, 29, 60, -24, 44, 0, -10, 43, 27, 26, -11, -22, -87, 42, 50, 28, 24, -52, 13, -19, 77, -46, 56, -85, 65, 64, 58, 43, 11, -60, -58, 57, -2, 20, 50, -1, -36, 50, 64, 2, 40, 46, 30, -13, 60, 26, -76, -17, 12, 37, 24, -12, 50, 23, 46, 73, 39, -34, -7, 7, -43, -58, -45, -77, -68, 61, 14, -19, -54, 65, 59, -22, 60, -33, 31, 58, 26, -37, -10, 68, 37, -29, -28, -50, -30, -10, 70, -12, -5, -70, -28, -87, 66, -42, -24, 54, 15, 45, -19, -8, 27, -72, -57, -62, 64, 4, 36, -10, 50, 67, -36, 51, -34, -37, 63, 60, 35, 48, 58, 9, -46, -74, -10, 30, -54, -21, 4, -57, -44, 6, 1, -23, 41, -79, 53, 55, 15, -22, 44, 31, 13, -7, -25, 5, -10, -14, -41, -52, -70, -11, -9, -74, -54, 43, 53, 13, 3, 67, -78, -43, -16, 6, 31, 54, -59, -69, -32, 71, -32, -84, 0, -50, -84, 59, -16, -31, -55, -24, 19, 30, -56, 24, -77, 54, 70, 32, 10, 12, 69, 43, 46, -70, 31, -66, 13, 69, 73, 74, -77, 20, 61, -27, -63, -82, 47, 72, -42, -46, -64, -57, 4, -14, 28, -15, -76, -75, 34, -67, -78, 34, -16, -46, -86, 7, -48, 38, 34, 60, -57, 67, 30, -53, 67, 69, -43, -27, -61, 20, 53, 6, 54, -62, -14, -22, 29, 44, 17, 50, 44, -62, 19, -47, 13, 48, 32, -34, -42, 71, -6, -8, -4, -44, -7, 18, -67, -77, 48, 72, 42, 36, 60, -18, -84, 21, -71, -44, -10, 55, -70, -5, 28, 7, -20, -55, -27, 50, -5, 0, -56, -87, 36, -90, -57, 
  -68, 68, 47, 71, -7, 57, 18, -7, -31, 32, -58, -70, -68, -9, 73, -49, 52, -12, -34, 6, 11, -70, 20, -69, 60, -36, -41, 24, -21, 10, 0, -81, 33, -48, 33, 70, -62, -46, -19, 13, -61, 8, 45, -82, 24, -52, -62, 15, 56, 12, -48, 78, -90, 45, -38, -31, 4, 61, -19, 12, 12, -83, -29, 10, -76, 10, 17, -33, -74, -21, -10, 33, 74, -77, -66, -35, -45, -20, -8, 75, -85, 20, 14, 25, 76, 57, -5, -36, -64, 54, -10, 30, 53, 42, 7, -9, -29, -41, -48, -53, -18, -75, 31, -39, 67, 42, 67, 47, 48, 6, -92, -11, 40, -11, -62, -55, -2, 37, 78, -61, 34, 72, -51, 18, 58, -22, -62, 39, 43, -12, -17, 11, -51, 11, 60, 80, -9, -3, -70, -15, -18, -43, -15, -58, 57, -71, -65, 60, 33, 3, 35, -24, -59, 32, -13, -17, 75, -17, 31, -45, 78, 34, -13, 45, 39, -10, 18, 6, -52, -41, 33, -55, -10, -54, 4, -45, -3, -53, 75, 12, 51, -24, -50, -76, -64, -29, 12, 35, 66, 4, -62, -22, -66, 27, -17, -3, 22, -83, -59, -27, 39, 44, -2, -2, -39, 16, -41, 1, 20, 64, 48, -8, 20, 27, -44, 70, -19, -24, -29, -75, -6, -78, -21, -83, 40, -66, -85, -46, -78, -16, 37, 24, -3, 69, -23, 50, 11, -1, 32, 12, 62, 28, -35, -19, -36, 38, -74, 48, 21, -19, -28, 25, -71, 54, -19, -12, -14, 58, -92, -43, -43, -75, 0, -68, 10, -49, -62, -69, -75, 17, -86, 57, 67, 60, 5, -13, -19, -80, 45, 14, -32, -39, 25, -6, 9, -18, -78, -41, -30, 55, 40, -63, 39, 38, -87, 76, -83, -3, -12, 0, -51, 45, 18, 39, -66, 19, 63, 22, 28, 3, 71, -31, -20, -43, 22, 38, -22, 39, -88, 22, 23, -69, 13, 71, 63, -76, 18, 19, 17, -29, 49, 2, -34, 31, -37, 3, 39, -66, -20, 2, 10, -27, -64, -52, -34, -81, -68, -85, 32, -28, 62, 45, 1, 62, 58, -82, 70, -54, -53, -58, -44, -51, 42, -38, -14, -1, -17, 9, -55, -86, -56, -11, 56, -16, -10, -26, -17, -66, 53, -14, -3, -70, -56, -24, -17, -60, -85, 47, -19, 26, 28, 52, 3, 12, -52, 51, -83, 13, 67, -36, 51, 27, -54, 33, 6, -27, 46, -16, -30, -46, -78, -39, 34, 58, -72, 48, -12, -47, 31, -56, 43, 9, 26, 46, -24, 42, 55, -53, 59, -29, -41, -20, 58, -12, 7, 56, 51, 48, 62, 52, -60, 17, -56, 42, -46, 21, 4, -59, -47, -42, -28, 28, -32, 22, -31, 19, 50, 20, -59, 64, -12, -62, -75, 45, -54, -85, -74, -87, -8, -47, -37, -77, 55, -8, 24, 14, 17, -39, 7, 36, -69, -81, 47, 31, 20, 11, 46, 62, 60, -39, 58, 66, 37, 43, -41, 62, 11, 25, -30, -63, 11, 
  61, -45, -38, 14, -27, 81, -71, 65, -68, -21, 4, 5, 33, -35, -12, 11, 39, -31, 70, -11, -34, 21, 0, -50, 33, -23, 0, -27, 38, -44, 29, -38, -40, -55, -2, -36, 13, 10, -2, 22, 54, 72, 69, 29, -59, 44, 79, 42, 31, -48, -61, 65, -24, -34, 23, -74, 80, -9, -13, -12, -69, -40, -72, -36, 83, 52, 18, 48, 32, 70, 2, 9, 76, -24, -26, 22, -60, -22, -20, 3, 41, -62, 50, 30, -27, -24, 61, -81, -65, 41, 59, -52, 32, 8, 13, 3, -11, -71, -11, 9, -31, 33, 9, -22, 12, -62, 67, 72, 66, -50, -39, 21, 33, 67, -39, 20, -6, 24, 44, 61, -12, -54, 73, -75, 38, -23, 68, 62, -64, 51, 69, 35, -19, 69, 42, -18, 83, -67, 52, 27, 74, 72, 43, -39, 2, 55, -48, -41, 0, -58, -63, 28, -24, 72, -9, -36, 58, -53, 72, -9, -23, 34, -16, 34, -64, -75, 36, -71, -6, -64, 33, 75, 60, -20, 14, 19, -19, -73, -12, 52, -58, 25, -12, 72, -37, -26, 73, 18, 63, 64, 34, 21, 32, 49, 26, -20, -44, 22, -73, 29, -7, 21, 28, -51, 21, -66, -56, -67, 24, 41, 73, -18, 13, -9, -6, -15, -54, 30, 41, -72, -69, -64, -41, -4, 5, 10, 73, -56, -29, -56, 81, -41, 31, 55, -57, 63, -30, -76, 25, 78, -26, -30, 31, 69, 37, -46, 61, -18, 13, 53, -40, 53, -24, 55, 48, -73, 45, 57, -69, -79, -56, 39, 68, 59, -63, 47, -59, -44, -13, 76, 30, -18, 25, -22, 38, -29, -19, -15, 83, -67, -19, 78, -56, -46, -39, -12, 28, 10, 46, 30, -20, -35, 54, -39, -28, 11, 22, 1, 43, 83, 61, 35, 27, 11, 12, 29, 43, 28, -16, -10, -70, -21, -42, 61, 63, 4, -39, -7, -25, 44, -57, -25, -57, 1, -23, -24, -57, -33, -42, -36, 50, 7, -75, -55, 22, -60, -33, 18, 2, -51, 60, -45, 0, -33, 9, -26, -6, -46, 65, 7, -45, 58, -20, 62, -40, 6, 9, -38, -67, 58, -69, 57, 75, 44, 59, 15, 20, -46, -64, 76, -88, 28, -75, -69, -73, 25, -71, -48, 40, -84, 3, 77, 59, -57, 73, -18, 9, -70, -7, -82, 44, -27, -79, 50, -6, 9, 8, -30, -29, 39, 45, 71, -8, 21, -41, -68, -52, 12, -44, -4, -73, 25, -12, -26, -70, 29, 24, -72, -21, 65, -20, 5, 51, 30, 37, -52, -72, 45, -2, 37, 61, 36, 68, 24, -27, -50, -70, 65, 19, 23, -79, 13, 53, -40, 45, -77, -34, 13, 24, 62, -39, -37, -7, -70, 12, 26, -47, 59, -45, -23, 20, -7, -50, 35, -12, 2, 19, 17, -8, -85, -42, 52, -22, -36, -67, -18, -75, 66, 29, -49, -16, 24, -76, 22, -44, 10, 52, -63, -51, -74, -28, -48, -4, -51, -76, -36, 12, -23, 4, 56, 46, 
  -27, -64, 5, -54, -54, 53, 62, -14, 67, -71, -15, -74, -46, -38, 28, -12, 27, -20, 50, 81, -45, -67, 20, -12, -59, 53, 45, -30, -6, 32, 36, 59, 1, -7, -47, 54, -58, 8, -58, -22, 18, -44, -66, -54, -16, -1, 47, 5, -58, 50, 41, -22, 87, 22, 42, 42, -38, 80, -61, -37, -68, -72, 53, 19, -19, -33, 22, -33, -57, -55, -33, -9, 21, 5, -31, -54, 77, -41, 66, -49, 75, -42, -69, 46, -16, -43, 74, 75, -10, 13, 50, -9, -79, -62, -21, -44, -61, -3, -43, -19, 16, -70, -40, 60, -25, -71, -57, 59, 17, -35, 29, 76, 13, -20, -53, 84, 24, -28, 55, -23, 11, 52, 54, -69, -61, -71, 42, 19, -42, 10, 81, 24, 15, 85, 2, 2, -45, 51, 47, -11, -16, -65, -51, -52, -3, 53, -41, -79, 68, -42, -76, 44, 67, -34, -34, 25, -69, 46, -8, 72, -2, -78, -7, 80, 69, -40, -55, 63, -8, 68, -48, 17, -63, 22, -2, 11, -54, 36, -76, -26, -10, 53, -30, 61, 42, -19, -55, -42, -1, 60, 72, 60, -9, -60, 16, -16, 53, -54, -39, 15, 24, 78, -40, -51, -11, -31, 27, 32, 69, 60, -5, 55, 29, -1, 38, -47, -39, -43, 2, -60, -63, 0, 52, 19, -23, 7, -54, -60, 69, 27, 88, 79, -37, -33, -66, 62, 29, -4, -72, -7, -84, 54, 72, -14, 36, -39, -69, -10, 86, -13, 51, -58, 59, -69, 0, -38, -38, -62, -8, 40, 55, -12, -70, -1, -29, -61, 36, 65, 48, -49, -1, 40, 34, -71, -65, -31, 13, 4, -54, -5, -17, -43, -16, -22, 70, -71, -70, 79, -43, 79, -8, -62, 73, -28, 43, -24, -43, 6, 73, 31, 65, -55, -45, 77, 35, -5, 23, 80, 9, -13, 2, -24, 13, 81, 23, 53, 38, 28, 28, -5, 59, -82, 5, -18, -67, -17, 25, 67, -74, -71, 19, -10, 55, -72, 87, -22, -72, -45, 10, -50, -6, -6, 46, -58, -22, -21, -40, -4, -34, -37, 78, -66, -67, 6, -60, -36, 32, 45, -24, -75, -34, -65, -2, 38, 72, 58, -13, 18, -14, 1, 84, -33, -60, 84, -61, 26, 5, 16, 12, 35, 55, -5, 29, 62, 63, -46, 23, 46, -30, 41, -1, -75, -10, -25, 20, -57, 50, -43, -24, -34, -57, 80, 56, -26, -64, 1, -22, 38, 32, 27, 74, -9, -46, 15, -52, -55, -38, 26, -27, 67, 81, 8, -42, -60, 12, 46, -22, 24, -27, -71, -49, 72, 60, 76, -23, 37, 83, -36, 5, 18, 70, 79, -39, -43, 75, -34, -55, 1, 35, 50, -59, -48, 48, 28, 25, 68, 2, -45, -35, -27, -54, -17, -62, -55, 42, -32, 79, -51, -27, 18, 74, 52, -7, -32, 6, -29, -11, -20, 74, 7, -77, 58, 64, 22, -32, -9, 10, -31, 37, -24, 61, 32, 17, 43, 13, 30, -30, 19, 30, 72, -53, 
  27, -35, 24, 5, -67, -13, 53, -13, -62, -59, 40, 0, 33, -53, -72, -47, -47, -21, 0, -38, -31, 43, 75, -38, 24, 78, 25, -88, 72, -63, 41, 52, -74, -47, 67, 9, 43, 17, -24, -23, 69, 56, 14, 2, -8, -41, -26, 50, -44, 61, -12, 8, -24, 71, 30, 61, -49, 63, -17, -23, 15, -61, 22, -56, -71, -70, -33, 56, -42, -67, -76, 6, 18, -54, -31, -40, -46, 59, -54, 4, -57, 22, -70, -2, 46, -26, -28, 20, -65, -42, 51, 75, -42, 22, -48, -42, 28, 11, 41, -28, -63, -5, -35, 55, -60, -74, 65, 26, 37, -32, 27, -68, 18, -29, -32, -16, 29, -29, -68, -79, 60, 60, -16, 24, -59, 13, -73, -11, 49, -85, 53, 40, 37, 9, 18, -64, 75, 70, -55, 51, -22, 57, 9, -7, -5, 5, -47, 47, -42, -2, 64, -9, -63, 25, 56, 49, 15, -24, -48, -82, -34, 46, -63, -21, 14, 57, -73, -72, -81, -80, 70, 50, 5, -65, -51, -46, 44, -83, 63, -48, -58, -84, 0, 55, -10, -50, -25, 70, -16, 7, 34, -79, 35, 39, -55, 61, 12, -38, 71, 31, 66, 72, 80, -24, 8, 26, -52, -56, 18, -63, 62, -38, 55, 23, -21, 31, 76, 48, -3, 6, 23, -26, -51, 70, -44, 9, 3, 25, -46, -1, -25, 54, -5, -53, -43, 23, -3, -99, 16, 13, -60, -18, 45, -34, -5, -53, -32, 79, -53, -93, -48, 42, 23, -72, -83, -36, -36, -64, 51, 77, -62, -45, 8, -58, -20, 58, 45, -43, 59, -48, -83, -67, -30, 3, 38, 37, 21, -19, 58, -27, -11, 59, -29, -57, 69, -50, -20, -25, -79, -24, 27, -31, -6, -18, -15, 56, -83, -28, -47, 32, 61, -51, -64, 12, 76, 38, -46, 31, 42, -37, 35, -27, -71, 24, 25, -55, -38, 40, 41, -65, -46, 39, -14, -33, -73, 15, 19, 4, 15, -56, 45, -33, -26, -33, 65, -18, 54, 24, 12, -36, -58, -25, -60, 24, -35, -48, 36, 59, -24, -49, -37, 45, 73, 61, 75, 32, -13, -67, -20, 20, 18, 53, 75, -42, 85, 32, 19, 57, -56, 61, 66, 61, -7, -15, 7, -64, -62, -16, -23, -19, -71, 79, 14, 13, -71, -2, 81, -63, 50, 18, 25, -53, -48, -19, -47, -77, -48, -38, -60, 89, 35, -18, -48, -70, 57, -7, 7, 44, -66, 19, 34, 50, -3, 56, -36, 24, 58, -40, -54, -40, -28, 1, 30, 42, -11, -13, -44, 40, -49, 14, 26, -71, -34, 83, 9, -55, -70, -3, -40, 4, 12, -25, 4, 62, 27, 9, -20, 69, -23, 47, -51, -16, 32, 70, 9, 18, 33, -7, 75, -65, 20, -68, 10, 12, 21, -14, -32, -24, -62, -25, 33, 6, 5, 67, -20, 58, -8, 33, 21, 3, 8, -8, -3, 56, -8, -27, 30, 8, 63, 86, -72, 62, -12, -29, 39, -58, 78, 34, 41, 85, 116, 
  58, -15, 35, 2, 3, 1, 23, -57, 37, -61, 50, -82, 84, -35, -7, -24, 83, 13, -48, 14, -21, -50, 48, -38, -29, -20, -74, -69, 60, 29, 47, 18, -15, -2, 42, 7, 12, -6, 26, -52, -32, 29, -51, -7, 20, 49, -85, -24, -26, 31, 52, 29, -9, -25, -24, 64, -5, 15, 68, -59, 14, -14, -57, 11, -54, 20, -74, -22, -57, 56, -77, -14, 63, -56, -20, -64, -68, -53, 68, 17, 34, -23, 26, -13, 0, -25, 78, -58, -1, -68, 66, -70, -21, 69, -53, -42, -5, 37, -29, 31, 70, -7, -20, 42, 2, -58, 33, 12, 75, -56, 70, 57, -53, 27, 69, -23, -85, -9, -70, 49, -75, -41, -66, -21, 19, 8, 21, -26, 17, -36, -7, 27, -58, 57, 9, 14, 74, -56, -43, -17, 43, -2, -41, 15, -51, 63, 61, 21, -75, 55, 24, -10, -14, -44, 64, 3, -40, -28, -47, 37, 3, -53, 62, 24, -21, 3, 45, -13, 68, 31, 42, -53, 66, 1, -63, 44, 30, 48, -44, 15, 11, -25, 54, -4, 59, 43, -55, -73, -82, 75, 17, 59, 8, 63, -20, -43, 42, 62, -26, 9, 70, 60, -52, 17, -7, 24, 39, 55, 68, 2, 81, 71, 30, -45, 77, 14, 18, 41, -2, -73, -6, -63, -63, 37, -25, -11, -14, 12, -48, -55, 4, -43, 49, -14, 30, -39, -28, -12, -48, -26, -51, -12, 72, 37, 53, -32, -83, -33, -80, -36, -79, -30, 12, 52, -30, 13, 7, -32, 39, 64, -12, -36, 71, -38, -42, 64, 5, -5, -42, -44, 7, 29, -30, 16, 53, 59, -10, 27, -79, 41, 61, -41, -6, 25, -52, -6, -79, 8, -69, -39, 75, 54, -7, -8, -28, 7, 58, 32, 8, 47, 5, -21, -3, 17, 24, -12, -61, -75, -23, -7, 41, -59, -37, 71, 21, -28, -43, 23, -59, 51, -11, -35, 16, 49, 28, -36, -14, -7, -13, -8, -40, 8, 28, 71, -39, 0, -53, 21, -36, 38, 30, 15, 47, -68, 76, -36, 52, 44, 71, 52, -54, -23, 11, -31, -26, -61, 71, 41, -6, 79, 11, 4, -70, -9, 44, 44, -62, -51, -40, 26, 0, -36, -77, 49, 50, -62, -45, 18, 72, -30, 51, -36, -30, -2, 16, 11, -24, 2, 48, 50, -54, -50, 78, -50, 59, 76, -12, 32, -33, -57, 27, 26, -14, 26, -71, -1, 34, -31, 68, -32, -27, 9, 19, 51, 40, -18, -20, -44, 42, 51, -28, -6, -67, 11, -66, 41, 67, 55, -23, 13, -42, -55, -49, 55, 83, -16, 69, 63, 65, -31, -2, -69, 26, 45, 29, -43, 84, 75, 47, 67, 2, 29, -24, 3, -39, -22, -83, -22, -38, -70, 72, -11, -64, -17, 48, 5, 35, 50, 56, -46, 18, 65, 19, 51, -11, 5, -15, -33, -50, 11, 44, -63, 36, -65, 25, 68, 14, -48, -82, -50, 6, -63, 18, 16, 50, -82, 46, 19, 70, -55, -14, 
  43, -25, -29, -20, -45, -6, -37, -60, -69, 73, -7, -72, -29, 40, 24, 65, -24, 23, 5, 10, -71, -62, 10, 60, 20, 47, 65, 42, -79, -44, -2, -25, -66, -83, -26, -37, -87, 67, -70, 21, -81, -8, 69, 66, 19, -64, -13, -23, -38, -7, 73, -15, 47, -67, -58, 18, -71, 64, -19, 27, 47, -75, 38, -58, 5, -69, 4, -64, -54, -20, -43, 3, 39, -72, -53, 26, -23, 3, -66, -35, -52, 43, 59, -31, -31, -7, 93, -79, -68, -45, -28, -85, -32, 55, -11, 58, -77, 13, 73, -66, 43, 16, 49, -62, 85, -40, 6, 86, 36, -56, 50, 37, 45, 70, -51, -11, 82, -58, -15, 67, -7, -37, -13, -73, -5, 31, 45, 37, 7, 7, -17, 27, 2, -8, 19, -2, 0, -65, 45, -16, -16, 64, 66, 26, 40, -26, -16, -32, -30, -3, 59, 67, 32, -59, -58, 34, 37, 39, 2, -23, -20, 76, -48, -28, 36, -38, -24, 43, 56, 2, -52, -14, -65, 15, 67, 75, 33, 47, -14, -47, -2, -74, -41, 66, 27, 66, 62, -37, 83, 0, 83, 70, 44, -66, 18, -40, 5, 75, -32, -81, -18, -62, 62, 43, -85, 14, 16, 47, 14, -17, -79, -74, -12, -22, -84, -77, -25, -74, 80, -28, -65, 21, -50, -58, 45, 3, -24, 8, 60, 22, 57, 36, -21, 6, -5, 55, 1, -65, -33, -35, -8, 42, 29, 0, -8, 24, -26, 13, 32, -9, 58, -63, -77, -51, -39, -32, -46, -35, -2, -17, -55, -54, -58, -7, 43, -12, 6, 10, -9, -37, -81, 37, 1, 15, 27, -11, 12, 60, 14, 9, 2, 70, -21, -43, 32, -4, -18, 2, 68, 57, 1, 35, -78, 69, -58, 20, 27, 67, -54, -71, -65, 19, -8, -5, -69, -59, -29, 46, -37, -41, 14, -57, -36, -64, -55, -47, -43, -18, -23, -40, 18, 43, 5, 4, -59, -22, 78, -39, -49, 80, 15, -7, 48, 1, -7, 33, 33, -9, -36, 68, 0, 34, 49, -74, -47, -89, 23, -30, -7, -19, 9, 47, -7, 74, 43, -75, -63, 10, -41, -5, 70, -18, 18, -89, -27, -6, -23, -36, 17, 67, 33, -10, -39, 49, 63, -28, 34, 21, 6, 29, -24, 12, 12, 30, -25, 72, -18, 1, -75, -54, 25, -7, -37, -86, 17, 8, 7, 27, 52, -19, 31, -64, 18, 27, -28, 17, -71, 17, 61, -32, -36, -6, 24, 84, 51, 0, -50, -23, -70, -65, 56, 55, 39, -53, -10, 34, -74, 69, 34, -91, -34, 25, -16, -63, -53, 27, 52, 56, -46, -35, 22, -40, -15, 29, -72, 14, 25, 3, 16, 6, -52, -69, -10, 19, -50, 41, 50, -55, 41, -64, -27, -70, 45, 6, -25, 9, 54, -39, -87, -75, -24, -6, -4, 79, -49, 7, 61, -90, -23, 68, -24, -11, -17, 38, 29, -3, -21, 72, 49, 20, -56, -13, 90, -68, -58, -44, -45, -45, -82, 67, -103, 
  -72, -31, 29, -36, -11, -66, 50, -74, 30, 60, 6, 56, -19, -23, 18, -9, 10, 38, 36, -22, -45, 0, 1, -47, -37, -17, -73, -7, 2, -7, -44, 34, -67, 73, 3, -56, 61, 1, 14, 26, -46, -13, 9, -29, 11, -9, 26, -69, 37, 72, -38, -80, 47, 70, 12, 72, 56, 2, 1, 45, 58, 51, -53, 38, 73, 72, 45, -38, -11, -14, -20, -76, -36, -21, -36, -61, -19, -49, 66, 60, -75, 11, -12, 17, -45, 27, -51, -39, -27, 63, -76, -58, -14, -52, -58, 36, 12, 51, -55, 69, -28, 42, -14, -61, -15, 18, 55, 43, 7, -2, -60, 52, -34, -33, -18, -2, 51, 51, -57, -29, 43, 45, -39, 74, 8, -70, 73, 66, -12, -61, -69, 59, -18, 55, 24, 44, -14, -49, -60, -73, -14, 24, 3, 69, -20, 26, -56, -73, 58, 29, 5, 73, -75, 29, 25, -8, 60, -1, -24, 14, 45, -15, -76, -23, -47, -11, -43, -80, -51, 29, 15, -79, 74, -62, -77, 57, -22, 19, 72, -33, -18, 63, 67, 47, 10, -2, 9, -40, -23, 18, -36, -17, -14, -66, 32, -50, -64, 66, -33, 27, -75, -44, 0, -31, 16, 77, 14, -25, 80, -25, 26, -17, -76, -6, 67, -80, 60, 51, -26, 38, -78, -15, -34, 18, 30, 36, -40, 14, 38, -75, 54, -46, 51, 32, 13, -57, 32, -47, 72, -16, -25, 43, -52, 35, 37, 50, 38, -66, 9, 6, 20, 66, 63, 11, 14, -47, -19, -30, -58, -16, 37, -10, -60, 6, -78, 9, 61, 30, 9, -4, 0, -13, 23, -18, -66, 14, 44, 63, 22, -35, -64, 58, -77, -38, 25, -5, -17, -31, 2, 26, 41, -78, 13, -77, 24, 60, -65, -65, -26, -20, 27, 59, -37, 39, 0, -55, -29, -52, 65, -6, -6, 56, -74, -28, -80, -46, 39, 2, 16, 8, -58, 8, 14, -34, -12, -47, 17, 21, 59, 51, -67, 1, -20, 10, -14, 66, -38, -4, 77, -57, -43, 54, -27, 43, -64, -83, 76, 2, 15, -63, 14, -31, -36, -71, 62, -2, 26, 52, -62, 26, -80, 36, -54, -1, -72, 40, -15, -19, -3, -48, 34, 2, 75, 68, 17, 3, -44, -41, -34, -41, -13, 7, 60, 47, 15, 22, 14, 2, 36, 22, -56, 23, 73, 75, -69, -45, -4, 21, 42, 44, 42, 56, -17, 46, 32, -66, 24, -65, 42, 56, 16, -12, 60, -4, 49, 51, -39, 17, -31, 27, -6, -68, 29, 75, -7, -68, -63, -29, -30, 48, 8, 20, -53, -50, -57, 3, -73, -44, 8, 30, 34, 78, -31, -1, 2, 74, -23, 37, 1, 28, 71, -80, -40, -61, 1, -25, 1, -61, 64, 62, -65, -74, -54, 44, -37, -6, 49, -3, -13, 72, 51, 63, 51, 15, 41, 37, -23, -74, 41, 52, -67, -51, -56, 62, 33, 11, 36, -52, 38, 1, -90, 34, -28, -52, -52, 28, 50, -83, -47, 61, -51, 
  67, -46, 66, -72, 82, -48, -72, -62, 51, -3, 28, 62, 51, -24, -43, -55, 30, 15, 38, 82, 54, -21, 45, -33, 23, 63, -21, 71, 50, 51, 44, 50, 84, 36, 69, -11, 12, -72, -11, 11, 1, 73, 48, -38, -27, 58, -16, 16, 40, 64, 6, 4, -53, -50, 23, -10, 76, 67, 40, -65, 54, -69, 34, -22, -18, 66, 59, -2, -52, 70, 67, 40, -1, -34, -34, 10, -34, -9, 29, 46, -31, 28, 63, 81, -46, -12, 39, -55, -15, 19, -62, 59, 57, -12, -58, 70, -36, 58, -66, 1, -24, 36, -82, 0, -1, -76, 53, -6, -18, 54, 59, 23, -24, -50, -69, -52, 0, 45, 12, 31, 7, -20, 25, -13, 67, 34, -8, -35, -66, -20, -55, -40, 70, 50, 12, 51, -74, 6, -32, -24, -15, 46, 18, -63, -34, -13, -12, 2, -62, 65, -24, 10, -56, 22, -35, 66, 72, 21, -25, 42, 12, 52, 35, 47, -36, -6, 2, -8, -57, 10, 3, -32, 7, -22, 43, 73, -46, 71, -3, -14, -60, -13, 78, -78, -81, 5, -58, 58, 69, -1, -33, 34, 5, -20, -52, 20, -80, 70, -26, -14, -23, 4, 5, -39, 55, -78, -50, 0, -68, 38, -54, 77, 57, 3, -46, -60, -24, -70, 59, -40, 4, 29, -23, 40, 40, -63, 27, -32, 20, -56, -47, -43, -48, 53, -36, -49, -44, 73, 68, -5, -34, -33, -33, -55, 3, -53, -30, -4, -63, 39, 53, 9, -1, -14, -9, 13, 24, -49, -21, -11, 36, -57, 30, -19, -76, 10, 17, 50, -79, 38, 8, 54, -72, 20, -1, -73, 45, 62, 63, 64, 53, -17, -69, -58, -56, 70, 50, 13, -23, -22, 20, 72, 10, 74, 4, 16, 52, 35, 14, -28, -59, 75, -1, -78, 59, -62, 52, 31, 62, 58, 72, -10, -35, 32, 65, 66, -81, 38, -57, -25, 63, 45, -14, -27, 55, -77, -62, 48, -40, -81, 26, -57, -81, 52, -33, 12, 42, -76, -14, -38, 75, -39, 5, 32, 57, -27, 2, 51, -50, 51, 75, -17, 35, -45, 72, -64, -47, -47, -39, -50, 56, -19, 3, -18, 54, -19, -27, 56, 45, 78, 75, 43, 35, -15, 60, 47, -42, -79, -19, -30, 59, -65, -67, 19, 14, -34, 30, -28, 15, -79, -28, -50, 51, -54, -69, -31, -51, -5, 47, -9, 17, -47, -36, 45, -62, -57, 71, 54, -3, 34, 43, 64, 56, 72, 48, -23, -61, 35, 65, -32, -64, -74, 24, -52, -56, -61, 18, 50, -73, -13, 61, 3, -34, 34, 55, -35, 11, 39, 2, 58, 13, -47, 62, 70, 27, 68, 9, -27, -65, 35, 42, 28, -19, -39, 8, -60, 63, -78, -81, 52, 17, 40, -61, -12, -26, 4, 12, -53, -2, 45, 52, -42, 47, -52, 52, 61, 7, -77, 4, -29, 54, 62, 27, 70, -55, -112, -104, -46, 45, -75, -39, -68, 80, -88, 31, -22, -89, -46, -31, 32, -49, 
  -14, 1, 26, 42, -77, 0, 1, -25, -9, -34, 36, -76, 46, 55, 31, 36, 39, -29, -51, -9, 78, 9, 37, 10, -50, 65, 51, 9, -27, -8, -9, 66, 69, -46, -67, 41, 61, 36, 23, -73, 39, -74, -54, 4, 38, 46, -5, -66, -16, 74, -21, -38, 56, 51, -13, -22, 62, 36, -25, 27, -28, -51, -53, 14, 5, 68, -45, -29, -71, 49, -6, -4, 60, 31, 74, 71, -72, -12, -61, -60, -77, -6, 19, 30, 26, 61, 77, 41, -82, -78, 26, 53, -31, -11, -29, 20, 28, -38, -73, -28, 25, -70, 32, -72, 77, 56, -38, 8, 44, -11, 25, -19, 22, 62, 70, -44, 80, -15, -19, 17, -18, 48, -40, -46, 74, 11, -69, -70, 71, 16, -77, 33, 46, 79, -78, 20, -75, -22, -40, -63, -32, 20, 69, 68, -46, -17, 67, 27, 61, -45, -82, 55, -51, -17, -49, 49, -7, -52, 74, 23, -54, 15, -23, -18, 15, 33, 64, 57, 26, -77, -44, 72, -57, 52, -12, -60, 59, -51, -42, -26, -8, -27, 64, -24, -8, 77, -31, -34, -32, 81, -14, -74, -13, 49, 77, -46, -69, -52, -14, 4, 57, -29, 90, -26, -62, 21, 15, -2, 23, 4, 70, 78, -78, 81, 86, -42, 35, 96, -34, -51, 92, -80, 54, 27, -15, -54, 66, -52, -20, -45, 37, -26, -89, 38, -46, 79, -38, -87, 75, 59, -51, 68, 1, 5, -9, 8, -68, 61, -10, 71, -30, -62, 6, -2, -3, -10, 2, 71, -82, 61, -70, -55, -83, 8, -69, -7, -19, -75, 13, 0, -47, 70, -22, 6, -55, -53, 14, 58, 55, -54, 8, 18, -56, -22, -58, 66, -21, -34, -48, -82, 20, -38, -58, -10, -55, -84, -70, -23, 16, -73, -11, -66, -55, -32, -61, -63, 66, -41, 4, -13, -47, 33, 15, -46, 66, -9, 20, 79, -13, 65, 36, -47, -8, 63, 64, -79, 24, 36, -16, 34, -56, -39, -19, 40, -14, -53, -73, -18, 19, 35, -28, -69, 45, 29, -16, 22, 7, -44, 68, 67, -72, -10, -1, 66, 23, 32, 62, -68, -21, -7, -46, 3, -67, 45, 43, 51, -8, 52, 20, 77, -74, -57, 12, 26, -68, 26, -32, 78, -13, 41, 8, -41, -48, -8, -53, 68, -53, -12, 67, 4, 50, 40, 53, -67, -23, 21, 57, -75, -44, -80, -23, -51, -49, 5, 8, -57, 35, -58, -32, 65, 36, 39, 61, 52, -75, -35, -34, -24, 51, -65, 22, 35, 63, -51, 9, 65, 71, 72, -48, 41, -34, -17, 78, 61, -50, -69, -61, 22, 54, -24, -54, 56, -49, -46, -23, -3, 43, -79, 8, 39, -78, 60, 47, -30, -50, 22, -6, -48, -63, 59, -36, 30, 23, -7, -1, 62, 68, 12, 46, -16, 73, 7, 10, 51, 18, -4, -49, 8, -4, 68, 69, 21, -22, -65, 28, 75, -12, 7, -24, 59, -52, 65, -41, 11, 14, 43, 17, -46, 28, 1, 5, 
  -40, -51, -38, -30, 61, -85, -56, 32, -14, 65, 18, -71, -41, -22, -34, 21, 40, -12, 20, -51, -53, -46, -6, 41, 33, 62, -64, 57, 78, -48, 5, 1, -30, 71, 41, 54, -76, -3, -84, 68, -33, 10, -19, -57, 7, 35, 38, -4, 8, 1, -88, 12, 26, 31, -24, 28, -10, 38, -3, 14, -19, -25, -74, 67, 39, -13, 55, 44, -49, -13, 60, 2, -84, 86, 48, 69, 2, 73, -8, 74, 25, -5, -52, -10, 69, 16, 29, -72, -35, -50, 1, 44, -48, 23, -82, -78, 3, -35, 19, 15, -56, -86, -30, -26, 23, 40, -81, -5, 75, 1, -4, -24, 75, 25, -65, 64, -28, 72, -46, -77, 37, 13, -46, 21, -74, -55, -29, -59, -42, -74, -78, -70, 28, -81, 80, -1, -62, -34, -14, -10, -71, -44, -9, -25, 42, 59, -75, 22, 46, 50, 27, 65, -73, -2, -51, -7, 19, 61, -32, 14, 80, -77, 75, -34, -4, -36, 48, 86, -48, 37, 33, -40, 6, -68, -20, 4, -27, 9, -4, 15, 17, -62, 64, -36, 68, 78, 51, -6, -41, 14, -12, 13, 67, -78, 91, 61, -31, -27, 50, 47, 35, -19, 64, 3, -43, 39, -32, -15, 64, -16, 19, 27, -13, -28, -53, 18, 47, 38, 57, 49, -45, 21, -18, -14, -58, -61, -41, 28, -60, -21, -34, -78, 26, -64, -27, -85, -48, 19, -10, 18, 49, -75, 67, 68, -27, 42, -27, 24, 48, -22, -63, 1, -27, 30, 65, -77, 4, -8, -71, -10, 32, -11, -61, 62, 51, 70, 68, -14, 51, -10, 70, 25, -12, 1, 4, -57, -64, -60, -54, -49, -68, -24, -40, -38, -40, 67, -29, 42, 43, 57, 57, -66, -72, 70, 38, -7, 69, -47, -56, -41, -61, -69, 2, 62, 47, 69, -21, -50, -14, 68, -23, 14, -30, 10, 35, 64, -24, 70, -43, -60, 72, 16, 27, -58, 75, 26, 60, -76, 50, -5, -4, 8, 36, -78, 59, -46, 40, 9, -12, -71, 56, -71, 80, 19, 5, -67, -15, 75, -59, -24, 78, 52, -66, 0, 34, 29, 43, 4, 28, 56, -19, 57, 6, 8, 8, 48, -63, 59, 80, 47, -33, -41, 4, -46, 67, -78, 49, 63, 48, -70, -53, -29, -75, -29, 67, -66, -19, -33, -9, 73, 12, -23, -71, -72, -18, -60, 0, 14, 8, 29, -67, 29, 32, 42, -28, -35, -62, 62, -12, -1, -13, -10, -31, -15, 74, -25, -70, 33, 55, 18, -25, 6, 18, 79, 63, 53, -33, -22, -63, -60, -60, 53, -75, -16, 69, -6, 5, 79, -55, 36, -17, 49, -61, -55, -77, -43, -21, -33, 6, -45, -42, 55, 77, -24, 29, 75, -16, -54, 58, 69, 53, 23, 78, -70, 24, -67, -23, -16, 79, -1, 59, -9, -21, -8, 3, 63, -24, 7, 43, 66, -66, -60, -14, 46, -32, 39, -12, -9, -26, -29, 34, 69, 9, -78, -34, -62, 44, 52, 31, -53, -20, 
  19, 31, -38, -42, 32, -78, -35, -66, -65, 45, 65, -65, -25, 25, -6, -39, -5, 15, 20, -61, 15, 45, -53, 25, 52, -15, 0, -28, 65, -8, 27, 73, 39, -12, 21, -26, 53, -76, -84, 30, 17, -58, 10, 31, -79, 40, 3, -83, -17, -53, -61, -36, -45, 71, 72, -58, -30, -34, 42, -33, 51, -23, -46, 28, 82, 60, -74, -13, 69, -37, 44, 44, -53, -74, -29, -1, 44, -1, 68, -13, -84, 73, 66, -1, 14, 45, -47, -70, 37, -2, -1, -21, -86, 12, -11, -46, -6, -53, -23, 58, 40, -37, -62, -81, -77, 66, -57, 28, -27, -73, -59, -47, 23, -43, 71, -31, -49, 32, 38, 1, -61, -40, 58, -75, -49, -14, 25, -7, -80, 18, 2, 25, 18, -77, 13, 22, 6, -89, 2, -17, -28, 5, 44, -65, 64, -41, -43, -2, 37, 4, 69, 19, -1, -76, -3, 8, -33, -65, -86, -55, -9, -48, 11, -64, -91, -4, 74, 22, -28, -1, 22, -47, 60, -59, 40, -12, -2, 61, 33, -66, -37, -73, 39, 9, -63, 69, -13, -32, -58, 72, -40, 31, -26, -65, 7, 47, 62, 17, -47, -70, -29, -20, 36, -26, -21, 31, 27, -82, -66, 29, 1, -46, 43, -40, -8, -47, 47, -47, 65, -73, -26, -76, 22, -5, 31, 49, -27, 60, 53, 46, 25, -50, 47, 21, 45, 46, -35, -49, -59, 61, -5, -1, 33, 66, -6, 25, -19, -43, -8, -33, -43, 80, -39, 54, 30, 28, -36, -10, 40, 33, 83, 49, 37, 22, -65, -51, 33, -8, 15, -28, -21, 69, -61, 70, -64, 42, -66, -27, 54, -11, -17, -38, -22, -69, 25, -12, -37, 78, 64, -65, -44, 67, -28, 58, -9, 18, 71, -58, -28, -32, 63, 68, 46, -53, -85, -68, -38, -33, -65, 19, -35, -72, 41, 40, 82, 63, -52, -2, -30, -20, -5, -11, -22, 42, -26, -5, 80, 66, -68, -64, 59, -39, 85, 21, 24, 29, 1, 73, -64, 43, 48, 2, 69, 62, -71, -34, 52, 53, 42, 1, -27, 22, -76, 48, -13, -22, -49, 13, -76, 58, -83, -29, -52, -16, -3, 67, 34, -29, 17, -53, -52, -5, -87, 56, 64, -5, -17, -44, 56, -11, 57, 23, -48, 61, 52, -3, 10, 67, 56, 15, -79, 39, -41, -62, -6, 59, -15, -26, -14, -67, -40, 10, -75, 18, 70, 35, -42, 25, -16, -50, 22, 44, 68, 62, -41, -20, 21, -29, -54, -40, 6, -74, -38, 29, -20, -60, 68, 63, 15, -45, -80, 9, 71, 50, 51, 27, 1, -25, 5, -34, -73, 5, 21, -27, -45, 76, 82, -26, 68, -47, -57, -29, 43, -72, -52, 0, 34, 56, -42, 58, -81, 49, -34, -60, 62, -1, -62, 44, 73, -19, 62, -36, 69, -27, 25, -18, -63, 8, 59, -6, 42, -87, 19, -56, 62, -54, 64, 46, 16, -47, 28, -37, -30, -34, 37, 83, -4, -5, -2, -34, -19, 
  74, 63, -63, 32, 77, -38, -58, 53, -70, 46, 9, -77, -47, -5, -56, 64, -59, 8, -57, -69, 75, 41, -60, 29, -29, 27, -11, -69, 48, 46, -27, 2, 49, 12, -34, 54, 32, -45, -3, -57, 37, -63, -38, -17, 30, -28, -16, 77, 31, 31, -22, 16, -42, 66, -7, -20, -52, -13, 17, 53, 42, 25, 29, 14, 77, -53, -53, -20, -61, -55, -74, -56, 36, 63, 61, 69, 43, 58, 23, -4, 42, -41, -23, -59, 54, -25, 61, 69, -13, 68, -41, 10, -61, -62, -74, 71, 3, 65, 55, 33, -16, -46, 12, -70, 39, -74, 47, 49, -61, 36, -7, -10, -19, 25, -62, 57, -20, 51, -6, 47, -41, -8, 57, 73, 52, 64, 35, 48, 33, -24, 84, -23, 60, -32, -58, 66, -22, 31, -33, 61, 7, -41, 56, -20, 46, 39, 78, 24, 7, 7, -67, 13, 1, 25, 24, 9, 15, -53, 62, -4, 1, 26, -68, -5, 78, -9, -56, 44, 77, -38, -77, 26, 63, 5, -37, 25, -17, 75, -47, -20, -69, 34, 76, -61, -60, -23, -66, -58, -35, -33, 20, -21, 78, -30, 0, -50, 56, -58, -81, 60, 41, 76, -32, -24, 43, -68, 46, -3, -56, -10, -55, 71, -76, 73, 62, 19, -20, 51, -50, -14, -40, 30, -10, 56, -9, -63, -69, -70, -64, 39, -22, -72, -38, 1, -41, -5, -27, -20, -68, -69, -65, -24, -21, 25, -1, 7, 50, 58, 61, -67, 10, -89, -58, -61, -97, 37, -12, 65, 57, -40, -17, 10, -24, -51, -46, 3, 52, 78, 3, 59, 0, 6, -24, 41, -80, 62, -60, 13, 37, -29, 55, 56, 41, -10, 63, -46, 19, 15, -55, 9, -55, -15, 51, 49, -6, -27, 3, 51, -68, -77, 16, -6, -1, -45, 67, 55, -45, -36, -12, -41, 44, 51, -29, -43, -24, 28, -60, -37, 78, 45, -25, 58, -8, 57, 8, 27, -79, -44, -82, -11, -10, -8, 4, 50, 7, 31, 42, -77, 5, -25, 69, -60, 13, 28, -63, -59, 0, -7, -28, -33, -46, 10, -59, -82, -2, 45, 15, -32, -12, -48, -20, 39, -62, -33, 10, -31, -64, 46, -43, 40, 51, -36, -78, 0, -3, -72, 59, -15, 22, 4, 4, -32, 59, 32, -63, 5, -49, -77, -43, -7, -22, -23, 37, -37, -53, 24, 49, 46, -10, 15, -45, -67, -35, 12, -52, -58, 69, -60, 82, -72, -59, 25, 35, 8, -3, -13, 10, -1, -32, -74, 84, -68, -35, -38, -46, -25, 31, -14, 35, 62, 4, 50, 24, -39, 25, -53, 12, -35, 61, -35, -47, 40, 50, 2, -69, 0, -40, 73, 51, -1, 26, -5, -26, 13, -2, 53, -46, 57, 65, -13, -22, 7, 21, 65, -27, 14, -85, -79, -13, 60, 17, 68, -18, -57, -7, 24, 26, -56, -86, -33, -59, 20, 64, -45, 54, -7, -15, 37, -80, 36, -57, 70, 4, 47, -43, -35, 29, -68, -24, 9, -24, 
  -11, 74, 67, 10, -22, -35, 43, -23, 33, 41, 13, -42, 54, -67, -21, -75, -42, -69, 0, -3, -28, -48, 17, 55, 38, -37, -56, -46, -25, 34, 14, -36, 31, -20, -11, -48, 66, 62, -81, -24, 85, -39, 49, -24, 35, -4, -44, -26, 71, -68, 38, -68, -42, 44, 12, -8, -66, 9, 45, -33, -15, 0, -77, 44, 23, 45, 30, -71, -78, -37, -42, -3, 68, -22, 77, -76, 64, -24, -85, -32, 45, -36, 36, -66, -3, -70, -19, -50, -39, -62, -34, 76, -67, -43, -25, -55, -33, 15, 32, 52, 24, -64, -10, -13, 20, 35, 39, 29, 27, 23, 19, 24, -24, 2, -77, 28, -68, -7, -63, -40, -24, 52, 92, 66, -72, -45, -58, 1, -47, -5, 39, 74, 56, 46, 88, 65, -48, -57, -22, -73, -58, -67, 52, -66, -30, -32, 56, -19, -20, -69, 39, -34, -29, 28, 75, 25, 70, 19, -30, -83, 11, 40, 7, -7, 63, -31, -29, 54, 6, -9, 82, 23, 84, 22, -24, 83, 23, 24, 80, -2, -54, 86, -51, 14, -55, 23, 71, -10, 20, 38, 55, -25, -43, 32, 11, 48, 15, 43, -10, 35, -16, 37, -53, -36, 23, 49, 64, -15, -30, -11, 69, -55, -66, 71, 86, -23, 7, -54, 55, -32, -65, 20, -84, -19, 30, -63, -40, 26, -14, -51, -52, 57, -19, 29, -37, 32, -61, 61, -63, 53, 6, -1, -41, -60, 41, 45, -58, 34, 29, -48, -70, -18, -63, -1, -64, 57, -73, -4, 65, 31, 59, -6, -3, 69, 65, -55, -20, 47, 1, -33, -10, 15, -48, -84, 25, 31, -1, -47, 46, 9, 29, -62, 43, 3, 34, 66, 75, -80, 28, -55, -81, 57, 11, 46, -82, 57, 2, -14, -50, 71, -26, 52, 48, 65, -9, -75, 47, 46, -24, -80, -11, -37, -3, 30, 0, 66, 27, -44, -23, -54, 41, -46, 60, -35, 45, 84, -41, 32, -29, 73, 42, -58, -29, -9, -45, -83, -35, 46, -76, -49, 56, -6, 63, 20, 35, -59, -7, -39, -29, 72, -84, 58, -37, 42, -8, -29, 51, 17, -29, 24, -27, 14, -41, 13, 17, 35, 45, -59, 14, 76, -71, -29, 35, 69, -66, -77, 48, 26, 25, -11, -53, -73, -53, -6, 3, 71, 9, -42, -52, -27, -18, -10, -36, 44, -73, 48, -37, 41, -67, 72, 46, 31, -72, -43, 33, 40, 56, -43, 69, 73, -78, -49, -66, 45, 23, -38, -52, -39, -1, 38, 76, 0, 68, 3, 20, -16, 54, 24, -6, 25, 26, -26, -40, 57, 10, 54, 23, -6, -1, -11, -2, -46, 84, 78, 30, 68, 20, -38, -21, -1, 2, -3, 29, 29, 23, 75, -35, -71, 65, 22, 78, 56, -60, -39, -62, -44, -13, 3, -52, -75, -70, 63, -18, -5, -43, -31, 11, -18, -44, 13, 71, 43, -66, 15, 62, 64, 38, -69, 59, -29, -71, -51, -9, -70, -1, 57, 18, -56, 69, -1, 69, 
  -5, -20, 38, 62, 53, 57, 38, -37, 25, -17, -61, 14, 50, -22, -7, -3, -30, 5, -45, -2, 67, -29, 13, -50, -48, -76, -33, 18, 4, -66, -67, -52, -77, -26, -80, -13, -32, 1, 52, 14, 25, 47, -86, -79, -32, -3, -35, 56, 19, -71, 62, -24, 3, -74, -49, -44, -56, 33, 28, -75, 58, -69, -7, 0, 1, 65, 54, 18, 62, -29, -63, 70, -16, -79, 51, -30, -80, 18, -68, 59, 23, 33, 58, -4, -36, -30, 72, 42, -18, -50, -23, 29, -65, -19, 12, 46, 34, -11, -42, -25, -62, -32, 54, -45, -55, 9, -39, -30, -33, 27, -64, -37, -4, -76, 4, 15, -28, 55, -47, -34, -10, -3, -13, -52, -49, -33, -61, -29, 40, 62, 26, -72, 27, 0, -31, -33, -82, 45, -36, -33, 64, -22, 54, -61, -62, 65, -64, -31, 35, 65, -2, 30, -26, -51, -39, 60, 5, 59, -26, -85, 9, -81, -30, -85, 44, -14, 51, -63, 59, 26, 65, 31, -22, 26, 22, 39, -73, 33, -65, 49, 9, -20, -14, 3, 13, -3, -43, -35, -84, -85, 64, -72, -2, -72, 43, -65, 32, -18, 25, 61, 27, 51, -20, 43, -36, 67, 36, -34, -8, 45, 24, 64, 2, 16, -86, -40, 47, 58, -74, 18, -82, 52, -51, 34, -71, 24, -23, -27, 39, 26, -15, -49, -33, -43, 53, -63, 7, 23, 62, 24, 13, -53, -52, 53, 45, 11, 63, 35, -2, -49, -46, -36, -51, -75, 32, 31, -76, -55, -34, -46, -40, 46, 31, -54, -22, 57, 46, -5, 42, 58, 32, 40, 20, 6, 18, 27, 62, -49, -8, -34, 56, -3, 58, -43, 24, 49, -81, -52, -33, -79, -41, -51, 66, -44, -25, -74, 35, 69, -19, -41, -76, 67, 8, -22, -23, -41, -41, 19, -40, -61, -57, -2, -44, -21, -56, 59, 55, -92, 23, 32, 4, -80, 10, 32, 40, 25, 43, -17, -33, -1, 40, 53, 37, -39, 64, 62, -9, -3, 12, 47, -7, -33, -55, -65, -1, 74, -62, -39, 40, -17, 30, 13, 50, 58, -66, 35, -64, -85, -73, 47, -1, 3, -1, -39, -63, -23, -41, -19, 28, 31, 46, -89, -22, -25, -51, -6, 75, -31, -32, -70, 60, -75, 3, -18, 32, -15, -12, -70, -34, 47, -43, 39, 63, -42, -72, 39, 71, 43, 7, 69, 69, 62, -77, 25, 27, -82, -46, 4, -34, -40, -72, -69, -3, -10, -30, 53, -72, -2, -67, 39, -36, 29, -48, -15, -36, -24, -82, 80, -31, -58, 16, -13, 11, -69, 47, -15, -44, 64, 39, -51, 54, -82, 46, 35, -83, -44, -62, -22, -61, 11, -24, -37, 30, 3, 82, -6, 33, 6, 16, -74, 62, 17, -36, -3, -19, 17, 14, -60, -65, 56, -46, -2, -21, 39, 53, -76, 48, -86, -38, -10, 37, 3, 8, -29, -35, -10, -12, -84, -5, -31, -8, -81, 68, -62, 61, 18, -19, 15, 15, -7, 9, 
  -19, 78, 24, -17, 1, 7, 66, -45, 6, -75, -22, -34, -40, 29, 65, 30, -51, 35, 17, -38, 77, 65, -8, -30, 63, -66, -44, 18, -65, 77, -6, 2, 26, -7, 52, -53, 54, -62, -2, -31, -74, -29, -72, 42, 2, 21, 58, 76, -77, -7, -51, -66, -77, 74, 35, 69, 69, -77, 35, 76, 61, 12, -62, -2, -22, -72, -39, -67, 28, -42, -29, -27, 37, 24, 19, -72, -38, 39, -62, -22, -17, -33, 39, 22, -22, 40, 5, -41, -14, -42, 37, -80, -6, 20, 26, 19, -22, -23, -70, -79, 22, 46, 48, -20, 5, 55, -68, -13, 26, 2, -68, 34, -20, -25, -41, 6, 37, -74, -52, 78, -20, -67, 59, 27, -29, 43, -72, 73, -64, -55, 60, 42, 71, 64, -62, -22, 43, 45, -27, 10, 12, 6, -40, 1, -57, 39, 7, 62, 6, 6, 77, 2, -29, 73, -60, 73, -7, -39, -52, -67, -25, 31, 10, 65, -14, 50, 30, -13, -4, -12, -32, -47, 23, -78, -60, -40, 41, -78, -20, 10, -12, -56, -75, -61, 36, 5, 50, 18, -46, 48, -85, 59, -17, 65, 9, 66, 12, -19, 50, 45, -67, 8, 62, -25, 37, -56, 41, 2, 41, -29, 53, 19, -1, -58, 56, -74, -63, -85, -78, 65, 38, -59, 11, -60, 45, 77, -69, -41, -43, -38, 69, 10, -80, 12, 4, 45, -68, -47, -13, 63, -32, 7, -53, 33, 42, 10, -39, -59, -45, 59, 55, -63, 39, -28, 62, 2, -77, 55, 65, -2, 62, 68, -75, -71, -73, 73, 52, 7, -39, -55, -46, -61, -5, -17, -73, 56, -38, -23, -73, -37, -14, -52, 0, -46, -18, -15, 34, -20, -16, -25, 30, 41, 43, -53, -62, 13, -40, 11, -12, -22, 16, -31, -38, 35, 23, 36, 74, 2, -44, -33, 31, -86, 2, -41, 49, -2, -11, 58, 31, 15, -40, 9, -59, -53, -58, 65, -51, 24, 7, -38, 39, -38, -81, 2, 27, -27, 14, -29, -73, 21, -33, -1, 51, 41, -13, -40, 36, -4, -12, 25, 32, -43, 13, -73, 2, -17, 34, -36, 60, -85, 56, 45, -24, 49, -39, -77, -69, 1, 68, 37, 6, 58, -50, 31, -3, 72, -54, -26, -37, 65, 43, -17, -61, 32, 55, -80, -60, 49, -29, 53, 0, 70, 41, -39, -32, -79, 74, -11, 40, -63, -70, 24, 20, 38, 16, 3, -45, -7, -56, 6, 27, 40, -14, -9, 64, -46, -33, -15, -49, 37, -38, 52, 76, 53, -14, -10, -21, 13, 69, -21, 62, 37, 16, 28, -15, 46, 74, -27, 17, -8, -54, 55, 9, -18, 1, 36, -1, -30, 49, 58, -5, -58, 53, 7, -16, 60, -77, 68, 25, 69, -60, -8, -77, -18, -77, 33, -64, 15, -7, 39, -34, -37, -24, -73, -39, -68, -26, -84, 46, -32, 35, -101, 92, 77, -60, 18, 26, 60, -4, 21, -44, 77, 10, 33, -46, -97, -58, -54, 27, 75, 3, 
  -76, 51, 84, 71, -46, -43, 70, 39, -8, 7, 31, 76, 9, 1, 2, 33, -27, -42, 28, -53, 9, 54, 22, -25, -53, 14, 48, -51, 39, -64, -33, -17, 48, -39, 7, -13, -13, 60, 23, 17, 71, 72, 32, -29, -19, 7, -35, 31, 57, 22, -7, -70, -42, 71, 40, -61, 56, -52, -73, -17, -4, 39, 19, 65, -56, -17, -58, 71, -4, -88, -52, -43, -27, 66, 68, -4, 63, 55, 7, -9, -18, 48, -6, 35, 23, 19, 15, -47, -13, -31, -44, 20, -70, -68, -71, -55, -71, 63, -61, -89, 54, -2, 63, -11, 15, -63, 19, -36, -47, 23, 10, 22, -64, 55, -29, -65, -59, -14, -48, 4, -24, 38, -76, -58, 65, -24, -23, 49, 19, -16, 73, 16, -70, 20, 22, 26, 80, 4, 36, 79, -41, -46, -60, -48, -74, 39, -11, -71, 38, -60, 29, 62, 5, -34, 77, 4, 10, 29, -23, -5, 40, 27, 58, -34, -59, 29, -59, -26, 39, 70, 74, -84, 5, -65, -55, -45, -25, 58, 63, -18, -19, -17, -47, 51, 69, 80, -31, 75, 22, -36, 24, 5, -59, -58, 25, -15, -61, -28, 8, -34, 31, 52, 10, -60, 4, 41, 37, -8, -20, 82, -76, 54, -2, -78, -5, 75, -4, 5, 63, -45, -35, -36, -29, 9, -30, 64, 51, -69, 15, 32, 32, 37, 51, 67, -73, 5, -46, -10, 1, 42, 15, -9, -4, 14, -88, -71, 43, -47, -25, -28, -55, 9, 52, 20, -45, -34, 56, -75, 42, 82, -30, -23, -20, 53, 46, -38, -5, 10, -14, -17, -71, 17, 84, 67, 61, -53, -77, -37, -63, 59, 19, 23, -26, 19, -62, 12, 80, 87, -71, -7, 51, -39, 29, -66, 38, 44, 36, -46, 79, 44, -87, -63, -65, -53, 10, 29, 46, -31, 72, -27, 31, 12, -24, -1, -1, 12, -34, -43, -61, -48, 81, -62, -43, 71, 20, -38, -22, -82, 53, -2, 35, 76, -36, 18, 60, -52, -39, -42, 17, 22, -42, -23, -44, 70, -14, 40, -65, 35, -50, -65, 73, -23, -43, 42, -31, 79, -7, -24, -24, -13, -17, 79, -61, -24, 38, -61, 25, 47, 88, 41, 46, -14, 40, -70, 66, -71, -36, 29, -82, -43, -12, -33, -69, -16, -32, 23, 52, -13, 55, 16, -35, -27, -45, -74, 62, -33, -87, 40, 54, 37, -56, -26, 10, 68, 9, -83, 16, -21, 27, 35, -63, 37, 76, -67, -78, -37, 43, 33, 29, 79, -38, -60, -16, -68, -27, -17, -35, -55, 32, 67, 72, 1, 59, 69, 30, -76, 46, 50, 9, -42, 33, -18, -35, 78, 40, 51, -9, -35, 9, 58, -48, 50, -29, -16, 49, -39, 11, -62, 53, -8, 49, -36, -40, 10, 78, -79, 55, -12, 49, 67, 69, 24, -9, -17, 16, 55, 10, 37, 78, 22, -70, -71, -69, 9, -37, 9, -50, 13, 32, 32, -28, 69, 38, 65, 37, 79, 10, 79, -81, -45, -61, 
  -7, 38, 47, -55, 60, 78, -28, -38, -6, 7, -50, 25, 17, -7, 54, -51, -63, -33, -69, 17, -32, 47, 38, -18, -15, -56, 37, -54, -16, 11, 76, 41, 3, -8, 14, 40, -51, -21, -58, 44, 91, -23, 4, 56, 67, 31, 11, 16, 69, -59, 16, -56, 43, 40, -39, -25, -7, -9, -2, 75, 24, -14, 72, -35, -36, 6, -27, -39, -39, -43, 17, 0, 75, 21, 72, -69, -35, -65, 43, -32, 74, -73, -4, 29, -57, -10, -34, 32, -41, -65, -6, 68, 42, 64, -69, -4, 17, -14, 68, 76, 24, -41, -74, 24, -37, -55, -44, -48, -73, 28, -21, 16, -20, 59, -16, -70, 61, -24, 56, 60, -70, 20, 64, -11, -70, 72, -18, -61, 43, -46, 71, 6, 60, 44, -30, 16, 50, 82, -22, -64, 92, -43, -33, 80, 8, 16, 35, 67, 30, 29, 11, 40, -49, -70, -18, 13, -44, 49, 55, -49, 58, -24, -6, 59, -41, -10, 30, -67, 40, 13, 71, -26, 57, 9, 38, -25, 14, 56, 6, 61, 34, 45, 15, 26, 42, -28, 27, 51, -83, -6, -27, -76, -38, 65, -68, 28, -35, 5, -22, -51, 37, 46, -41, -61, -22, 65, 8, 19, 29, -37, 24, 20, 27, 68, 15, -2, -44, 9, 46, 13, 24, 59, -60, 2, -55, -75, 25, -29, 39, -97, 64, -43, -80, 61, 48, -62, -67, -34, -44, -42, 30, -66, 76, -63, -36, 39, -8, -86, 12, -51, 8, -19, -4, 43, -25, -13, 40, 63, -39, -49, 5, -3, 3, 20, -67, 28, -29, -40, 0, 15, 33, -75, 12, 68, -62, -61, 41, 45, 56, 5, -48, 59, -11, 14, -39, -7, 39, -8, -42, 29, -31, -24, -40, 3, 14, -58, -65, -19, -52, -33, 46, -74, 72, -67, -15, 35, -47, 56, -64, -1, -39, -24, -13, 42, -78, 59, 44, -54, -18, 17, -47, 23, 31, -54, 2, 5, 63, -11, -24, -61, 46, -34, 61, 4, 27, 60, -18, -55, -13, 0, 71, 46, -48, -13, -66, -72, 47, -92, 14, 30, -80, 7, 36, 48, -60, -12, -11, -37, 35, 26, -68, -23, 20, 48, 42, 54, -51, 24, 24, -36, -56, 20, -8, 22, 24, 67, 16, -36, -4, 74, -71, 56, 46, 49, -73, 47, 11, -38, 27, 81, 41, 15, -12, 16, -38, -70, -38, 31, -14, 39, -51, -38, -35, 21, 0, 11, 3, -45, 62, -80, -24, 69, -51, -33, 79, -80, -44, -27, 16, -69, 49, -16, 26, 61, -2, -24, 28, 54, -35, -38, -46, 48, 84, -73, -59, 5, 60, -44, -45, 38, -34, -24, -53, -35, 7, -67, -4, -4, 71, -53, -52, -69, 72, 31, -20, 66, 60, 17, 14, 72, -4, -43, 63, 39, -41, 83, 67, 78, 51, -22, 8, 50, 19, -70, 18, -12, -12, -5, 36, 20, -27, -66, 68, 32, -2, -22, 49, -55, -95, 4, 71, -46, -54, 21, -19, -85, 67, -75, 78, 49, 97, 
  -11, -40, 40, -8, 7, -66, 7, -65, -66, -16, -57, -31, 20, 27, -62, 39, 37, -52, -33, 31, -16, -4, -13, -68, -7, 65, 20, 55, -29, -55, 76, 68, 36, 20, -25, -54, -8, 41, 54, -73, 30, -27, -45, 20, 84, -23, 54, 19, -49, -31, -23, 7, 13, 21, 73, -80, -77, 8, -57, 80, -69, -79, -39, -35, 52, -44, 77, -43, 30, -19, -36, -14, 60, 45, -4, -5, -17, -64, 44, -42, -26, 58, -65, -19, 76, 65, -55, 63, -41, -43, 29, -45, 40, -53, -62, 33, 65, -39, -54, -66, 76, 69, 42, -73, 78, 66, -76, 70, -25, -34, -63, -71, -9, 82, 13, -12, -59, -51, 74, 34, -58, -11, 79, -56, -23, 2, 3, 65, -62, -62, 48, 11, 71, -30, 50, -12, 7, -60, 36, -77, 35, -48, -58, -18, 50, 47, 4, -15, 74, -12, -13, 8, 5, -68, -32, 72, 53, 59, 62, 30, 37, -29, -12, -22, 65, 18, 79, 72, -14, -41, -18, 50, 84, -33, -47, -24, 60, 27, -63, 10, -83, -60, 0, -37, -26, -11, -64, -5, -26, -72, 67, 65, 34, 76, 8, 67, 42, 45, -64, 9, -27, 4, -72, -41, -5, 36, 47, -19, -49, 76, -80, -2, 48, -63, 24, -62, 54, 79, 66, 13, -63, -8, -12, 56, 57, -11, -50, -79, -22, 33, -77, -58, -7, -18, -71, -24, 41, 5, 39, -68, -12, 32, -2, 18, 60, -67, 45, 39, 14, -82, -2, 75, -44, -54, 65, 73, 38, -64, -18, -43, 24, 33, 71, 4, 67, 75, 8, 39, 49, 44, 72, 2, -64, -61, -7, 0, -53, 9, -67, -13, -72, -37, 19, 25, -40, 50, 5, 54, 35, -10, -63, -61, -45, -36, 22, 57, -46, 47, -3, -76, -58, 36, 66, -50, -74, -5, -4, 9, 56, -14, 29, -29, -24, -18, -72, -54, 4, -73, 73, -61, -71, -52, -75, -27, -85, -64, -62, 37, -36, 61, 48, -18, 32, -47, -10, 14, -58, 38, 65, -11, -75, 70, 1, -50, 38, -64, -13, 23, 22, 64, 15, -62, 68, 25, -34, 49, -17, -8, -46, 14, -30, 62, 28, 63, -64, -40, 58, -24, 12, 6, -10, 0, 15, -25, 40, -38, -62, 12, 67, 5, -28, 19, -40, 61, -73, 39, 14, 30, -69, -79, 14, -52, 73, 59, 14, -59, -10, 58, 22, 44, 14, -4, 9, 79, 69, 14, 74, -44, 28, -59, -11, -44, 81, 9, -46, 8, 33, 14, -66, -15, -70, -20, 25, -48, 80, -24, -87, -39, 67, -61, 60, 41, -65, 31, 72, -17, -69, -28, -37, -62, -3, 8, 75, 46, 3, -74, 45, 20, -52, 13, -65, 21, 64, 11, 17, 2, -55, -61, 74, 29, 26, 27, -11, 39, -21, -48, -24, 2, -25, -34, 11, -17, -74, -51, -59, 2, -32, 59, 43, 36, -84, -18, -80, 32, -16, 42, 9, 31, -70, 5, 66, -6, 80, -37, -29, 59, -3, 67, -79, 16, -5, 
  -10, 2, 63, -66, -53, 83, 7, -53, 32, 36, 0, 59, -63, -6, 13, -69, -27, -71, 35, -34, 81, 33, -68, 75, -14, -60, -35, 56, 69, -66, 65, -7, -30, -34, -16, 74, -12, 50, 40, 59, 2, -31, -34, -14, -21, -64, -66, 26, -55, -17, 78, 5, 17, -3, 58, 35, 45, -29, -40, -12, -18, 35, 71, -49, -72, -40, -77, 50, -53, -73, 59, 62, 31, -63, -72, -24, -6, 79, -73, -6, 76, 21, 51, 64, 17, 64, 82, -71, -33, -72, 36, -53, 79, 27, 51, -3, -43, -1, 67, -70, -59, 10, -3, -72, 47, 34, 81, 28, -62, -54, -45, 73, 71, -28, 59, -42, 8, -30, 17, 39, 82, -55, 52, 13, -60, -59, 57, 67, -1, 25, -18, 1, -58, 50, 20, -39, 2, -42, 10, -66, -20, 59, -13, 4, -8, -38, -4, -71, -69, -7, -63, -71, -52, -29, -44, -55, 72, -13, 60, -30, -39, -22, 31, -52, -80, 60, -71, 26, 36, -8, 47, -53, -26, -60, -77, -15, -21, 53, -47, 16, -5, 22, 75, -76, 49, -52, 37, 0, -75, 55, -8, -52, -57, -25, 49, -56, -13, -77, 52, -13, 9, -24, -61, -31, -16, -27, -17, -55, -39, -23, 31, -53, 6, -3, -36, 65, 31, 26, 38, -36, -37, 7, -45, -61, -65, 49, -2, -53, -40, 54, -46, 27, -29, 56, -80, -33, -14, -37, 20, -48, -53, 25, 18, -34, -11, 68, 84, -19, -80, -78, 47, 29, -88, 41, 14, -53, -24, -56, 14, 6, -47, -40, -62, -25, 33, 67, 48, 54, 52, -35, 9, 25, -20, 32, 25, 70, -81, 52, -8, 8, 56, -56, -14, -38, 56, 12, -36, -28, -28, -9, -65, 6, -33, -49, 43, 68, 28, -55, -5, 25, 4, -84, -44, 40, -27, 0, 21, -7, 50, -66, 11, -27, -10, 64, -40, -7, -54, 52, -59, 59, -65, 35, -43, 26, -12, -11, -35, 5, -48, -3, 74, 42, -62, -28, -35, -40, -6, -27, -34, 28, -48, 59, -21, 45, -63, -38, 79, -9, 20, 36, -52, -9, 42, 46, 57, -25, -58, -44, 77, -73, 73, -69, -39, -2, -24, -61, -39, -54, 22, 82, -14, 73, 19, -70, 3, 31, 2, 68, 16, 74, 81, 86, 24, 56, -64, 74, -9, 55, 74, 49, -7, -52, 5, -58, 63, -43, -24, 29, -27, 12, -28, 38, 64, -33, 76, 5, -59, -29, 33, 53, -48, 63, 62, -65, -67, 25, 17, 18, 83, -45, -12, -7, -9, 36, 38, -43, 82, 17, -41, 67, 49, -6, 26, -46, -64, 25, 70, 3, -7, 16, -21, -33, 1, -33, 5, -5, -51, -63, 72, -43, 73, 53, 82, 5, -39, -25, 19, 67, -22, -15, -6, -74, 59, 39, -5, 4, 23, 12, 11, -9, -66, 71, -11, 39, -19, -31, -57, -5, -44, -53, -24, 76, -44, -23, 71, 40, 36, -30, 74, -2, -29, -63, 14, -15, 1, 73, 6, 47, 55, 67, -12, 
  -14, 9, -73, -41, -7, -75, 19, -1, -82, 65, 55, -2, 9, -41, -45, 32, 34, 39, 36, -13, -15, 18, -26, 50, 39, 61, -64, 55, 66, -4, 59, -6, -53, 55, -79, -7, -68, 1, -78, -2, 69, 34, 44, -27, -75, -82, 63, 51, -57, -79, -83, -6, -10, -18, -34, -65, -6, -64, 44, 58, -63, 56, -43, 61, 84, -8, -51, -37, -69, 30, 69, -40, -46, -35, 49, -69, 37, -31, -45, 5, 35, 28, -16, -57, 1, -5, -71, 22, 55, -84, -4, 20, -27, 23, 10, -67, -58, 27, -43, -12, 21, -84, -35, -52, 15, -15, -18, -22, 43, 39, 28, -63, 80, -50, -45, 33, 37, -39, -57, -6, -41, -10, -6, 69, -25, -68, -43, 55, 55, 15, 12, -34, -55, 31, -64, -81, 64, -68, 9, 13, -47, 10, -72, -40, 34, -54, 57, -80, -24, -62, -17, 62, 48, -15, 1, -64, -25, -8, -24, -60, -30, 25, -72, 32, 21, -2, 4, -37, -60, 25, 54, 34, 9, -70, 72, -5, 45, -65, 22, -63, 68, 17, 53, 40, -52, -33, -67, 20, -2, 71, -21, 85, -51, 63, -11, -24, -68, 44, 70, 24, 72, 28, 75, 49, -67, -74, 3, 23, -33, -63, -35, -68, 58, 50, -38, 7, 59, -49, -79, 73, -14, -17, 57, 64, 1, -6, 22, 31, -68, 85, 27, -27, -63, -62, -77, 25, 12, 54, 55, -76, 76, -61, 21, -65, -58, 15, 71, 24, 6, 68, -4, -41, -10, 17, 63, 44, -33, -46, 6, -57, -47, -17, -15, 18, -83, -45, 9, 15, -38, 45, 68, -4, -69, -55, 43, -31, -41, -65, 4, 29, -2, 78, -13, -76, -3, -57, -51, 48, 56, -11, -3, -61, 65, 20, -46, 64, -31, 77, -12, -31, -26, -10, 78, 45, -17, 47, -58, -76, -69, -51, -26, -65, 18, -76, -33, 77, -64, 63, -15, -78, -8, 58, 31, 58, 42, -45, -25, 4, 45, 77, -3, 5, -56, -11, -53, 24, -42, -20, -13, 62, 1, -19, 62, -57, -18, -26, -50, -33, 74, -52, 2, -58, -24, -51, 18, 13, 73, 42, -70, -68, 39, -4, 20, -22, -17, 21, 30, 15, -63, 9, -79, 57, 2, -57, -37, 12, -6, 51, 77, -47, 47, -59, 61, -21, -30, 16, 64, -35, -17, 69, 70, 26, -22, 5, 8, 4, 83, -23, -53, -6, 40, -58, 6, -26, 8, -55, 75, -22, -22, -45, 74, -12, 25, 37, 23, 74, -45, 15, -23, 24, 84, -66, 19, 9, 23, 58, 5, -7, -72, 43, -52, 3, 46, -44, -16, 14, 39, 15, 55, 12, 64, -14, 6, 68, -8, 42, 45, -19, 1, 21, 7, -63, 9, -15, 67, 72, -57, -66, -39, -13, -8, 34, -16, 66, -2, -22, 58, 64, 51, -70, -73, -24, -41, 3, 13, 74, 53, 14, -28, -16, -81, -62, -41, 35, -85, -49, 52, 53, 90, -25, 65, 48, -10, -83, 73, 82, -74, 50, -87, 45, -10, 
  41, -47, -12, 64, -53, -37, 39, -83, -12, -61, -94, 13, -79, -5, 2, -16, 33, 44, 60, -29, 23, 17, -69, 44, 48, 27, -45, -23, -15, -7, -48, -50, -11, -71, -10, -66, -53, 51, 42, -16, 48, -70, -57, -97, -66, -3, -30, -47, 23, -69, -50, 29, 1, 77, -44, 22, 3, 12, 13, 24, 16, -92, -47, 50, 20, -11, 39, -36, -9, -21, 7, -47, -12, -3, 62, -2, 49, -16, 45, -8, -46, 47, -26, 40, 15, 13, 54, 57, -19, 51, 43, -84, 43, 50, 26, -70, -5, 21, 75, 19, -9, 70, -35, -43, -62, -7, 46, -6, -42, -48, 21, 69, -11, 75, -12, 7, -17, -36, -43, -38, 41, -86, 29, 78, -70, -36, 25, -25, 36, -56, -7, -25, 39, 51, -45, -75, -77, 52, 27, -78, -1, -77, -59, 9, 62, -4, -40, 27, -18, 73, 39, 66, -70, -22, 37, -49, 3, -65, -18, -75, 64, 92, -29, -74, -35, -23, 62, -4, -79, -68, 71, 69, -63, 75, -70, -57, -2, 8, -52, -60, 59, -48, -67, 48, 70, 35, 65, 54, -43, 62, 21, -80, 43, 31, 16, -22, -37, 48, -39, -27, -33, -72, 30, -77, -54, 76, 22, -10, 35, -9, 43, 46, 12, -31, 56, -22, -74, 7, -21, 78, -3, -62, -50, -7, 54, 50, 63, 79, 34, 37, 75, -58, 46, -63, 83, 80, 65, -5, -27, 88, 43, 39, -29, -74, 13, -13, -86, 78, 69, 18, -48, -18, -48, 63, 77, 9, -57, 31, 12, -25, -46, -21, 15, -46, -13, -53, 61, 43, 60, -39, 29, 69, -22, 70, 59, -28, -58, 7, -44, -26, 20, 46, -58, -30, 26, -16, 53, 46, 8, 20, 29, 13, 71, -10, 10, 69, 29, 13, -21, -26, -65, 40, -17, -29, 65, -43, -64, -11, -3, 59, -49, -54, 55, -1, 11, 1, -65, 57, -67, 73, -11, 44, -74, 61, -38, -66, -59, -7, 53, 20, 66, 84, -25, -6, -67, -37, -68, 51, -67, 18, 17, 14, 40, -6, 72, -65, 50, 48, -73, 58, 46, -12, -62, -49, -38, 49, 7, 21, 76, -18, 15, -57, 50, -69, 78, -77, 68, 37, 63, 55, 60, -17, -29, -10, -80, -57, 32, -11, 42, -42, -79, -9, 83, 26, 55, 46, 24, -74, -20, -33, -37, -8, 13, 13, -77, -29, 39, 29, -69, 66, -56, -78, 64, -22, -49, -26, -17, 33, -7, -31, -18, 10, -70, 19, 67, 22, -13, 42, -64, 7, 42, -53, 44, 66, -64, -8, 18, -24, -72, -89, -39, -75, 28, 57, 16, -5, 46, -16, -23, -11, 72, 46, 51, 64, 58, -73, -30, -40, 23, -44, 45, 59, -6, 13, -48, 27, -38, -55, -64, -67, -33, -48, -81, 28, -47, 28, -72, -8, 59, 76, -63, -68, 47, 18, 5, -16, -67, -56, -12, -40, -21, 12, -40, 66, 83, 32, 55, -78, 19, 19, 9, -43, 51, -35, 64, 37, 57, 80, 30, -16, 84, 
