/*
 * Copyright (c) 2025 EdgeImpulse Inc.
 *
 * Generated by Edge Impulse and licensed under the applicable Edge Impulse
 * Terms of Service. Community and Professional Terms of Service
 * (https://edgeimpulse.com/legal/terms-of-service) or Enterprise Terms of
 * Service (https://edgeimpulse.com/legal/enterprise-terms-of-service),
 * according to your product plan subscription (the “License”).
 *
 * This software, documentation and other associated files (collectively referred
 * to as the “Software”) is a single SDK variation generated by the Edge Impulse
 * platform and requires an active paid Edge Impulse subscription to use this
 * Software for any purpose.
 *
 * You may NOT use this Software unless you have an active Edge Impulse subscription
 * that meets the eligibility requirements for the applicable License, subject to
 * your full and continued compliance with the terms and conditions of the License,
 * including without limitation any usage restrictions under the applicable License.
 *
 * If you do not have an active Edge Impulse product plan subscription, or if use
 * of this Software exceeds the usage limitations of your Edge Impulse product plan
 * subscription, you are not permitted to use this Software and must immediately
 * delete and erase all copies of this Software within your control or possession.
 * Edge Impulse reserves all rights and remedies available to enforce its rights.
 *
 * Unless required by applicable law or agreed to in writing, the Software is
 * distributed on an "AS IS" BASIS, WITHOUT WARRANTIES OR CONDITIONS OF ANY KIND,
 * either express or implied. See the License for the specific language governing
 * permissions, disclaimers and limitations under the License.
 */
// Generated on: 27.03.2025 01:36:49

#include <stdio.h>
#include <stdlib.h>
#include "edge-impulse-sdk/tensorflow/lite/c/builtin_op_data.h"
#include "edge-impulse-sdk/tensorflow/lite/c/common.h"
#include "edge-impulse-sdk/tensorflow/lite/micro/micro_mutable_op_resolver.h"
#include "edge-impulse-sdk/porting/ei_classifier_porting.h"

#if EI_CLASSIFIER_PRINT_STATE
#if defined(__cplusplus) && EI_C_LINKAGE == 1
extern "C" {
    extern void ei_printf(const char *format, ...);
}
#else
extern void ei_printf(const char *format, ...);
#endif
#endif

#define STRINGIZE(x) #x
#define STRINGIZE_VALUE_OF(x) STRINGIZE(x)

#if defined (__GNUC__)  /* GNU compiler */
#define ALIGN(X) __attribute__((aligned(X)))
#define DEFINE_SECTION(x) __attribute__((section(x)))
#elif defined (_MSC_VER)
#define ALIGN(X) __declspec(align(X))
#elif defined (__TASKING__) /* TASKING Compiler */
#define ALIGN(X) __align(X)
#define DEFINE_SECTION(x) __attribute__((section(x)))
#elif defined (__ARMCC_VERSION) /* Arm Compiler */
#define ALIGN(X) __ALIGNED(x)
#define DEFINE_SECTION(x) __attribute__((section(x)))
#elif defined (__ICCARM__) /* IAR Compiler */
#define ALIGN(x) __attribute__((aligned(x)))
#define DEFINE_SECTION(x) __attribute__((section(x)))
#elif defined (__clang__) /* LLVM/Clang Compiler */
#define ALIGN(X) __ALIGNED(x)
#define DEFINE_SECTION(x) __attribute__((section(x)))
#endif

#if defined(EI_MODEL_SECTION) && (defined(__GNUC__) || defined(__clang__))
#define MODEL_SECTION(X) __attribute__((section(STRINGIZE_VALUE_OF(X))))
#else
#define MODEL_SECTION(X)
#endif

#ifndef EI_MAX_SCRATCH_BUFFER_COUNT
#ifndef CONFIG_IDF_TARGET_ESP32S3
#define EI_MAX_SCRATCH_BUFFER_COUNT 4
#else
#define EI_MAX_SCRATCH_BUFFER_COUNT 4
#endif // CONFIG_IDF_TARGET_ESP32S3
#endif // EI_MAX_SCRATCH_BUFFER_COUNT

#ifndef EI_MAX_OVERFLOW_BUFFER_COUNT
#define EI_MAX_OVERFLOW_BUFFER_COUNT 10
#endif // EI_MAX_OVERFLOW_BUFFER_COUNT

using namespace tflite;
using namespace tflite::ops;
using namespace tflite::ops::micro;

namespace {

#if defined(EI_CLASSIFIER_ALLOCATION_STATIC_HIMAX) || defined(EI_CLASSIFIER_ALLOCATION_STATIC_HIMAX_GNU)
constexpr int kTensorArenaSize = 27280;
#else
constexpr int kTensorArenaSize = 26256;
#endif

#if defined(EI_CLASSIFIER_ALLOCATION_STATIC)
#if defined (EI_TENSOR_ARENA_LOCATION)
uint8_t tensor_arena[kTensorArenaSize] ALIGN(16) DEFINE_SECTION(STRINGIZE_VALUE_OF(EI_TENSOR_ARENA_LOCATION));
#else
uint8_t tensor_arena[kTensorArenaSize] ALIGN(16);
#endif
#elif defined(EI_CLASSIFIER_ALLOCATION_STATIC_HIMAX)
#pragma Bss(".tensor_arena")
uint8_t tensor_arena[kTensorArenaSize] ALIGN(16);
#pragma Bss()
#elif defined(EI_CLASSIFIER_ALLOCATION_STATIC_HIMAX_GNU)
uint8_t tensor_arena[kTensorArenaSize] ALIGN(16) __attribute__((section(".tensor_arena")));
#else
#define EI_CLASSIFIER_ALLOCATION_HEAP 1
uint8_t* tensor_arena = NULL;
#endif

static uint8_t* tensor_boundary;
static uint8_t* current_location;

template <int SZ, class T> struct TfArray {
  int sz; T elem[SZ];
};

enum used_operators_e {
  OP_RESHAPE, OP_CONV_2D, OP_MAX_POOL_2D, OP_FULLY_CONNECTED, OP_SOFTMAX,  OP_LAST
};

struct TensorInfo_t { // subset of TfLiteTensor used for initialization from constant memory
  TfLiteAllocationType allocation_type;
  TfLiteType type;
  void* data;
  TfLiteIntArray* dims;
  size_t bytes;
};

typedef struct {
  TfLiteTensor tensor;
  int16_t index;
} TfLiteTensorWithIndex;

typedef struct {
  TfLiteEvalTensor tensor;
  int16_t index;
} TfLiteEvalTensorWithIndex;

TfLiteContext ctx{};
static const int MAX_TFL_TENSOR_COUNT = 4;
static TfLiteTensorWithIndex tflTensors[MAX_TFL_TENSOR_COUNT];
static const int MAX_TFL_EVAL_COUNT = 4;
static TfLiteEvalTensorWithIndex tflEvalTensors[MAX_TFL_EVAL_COUNT];
TfLiteRegistration registrations[OP_LAST];

namespace g0 {
const TfArray<2, int> tensor_dimension0 = { 2, { 1,300 } };
const MODEL_SECTION(EI_MODEL_SECTION) ALIGN(16) float tensor_data1[16] = { -0.016057228669524193, -0.012725619599223137, -0.011932205408811569, -0.016005378216505051, -0.00922433752566576, 0.0038369563408195972, -0.0090962229296565056, -0.0033094808459281921, 0.0031865173950791359, 0.0028100891504436731, 0.0055243684910237789, -0.013521888293325901, -0.012872572056949139, -0.0038552575279027224, -0.0032956439536064863, -0.0019374544499441981, };
const TfArray<1, int> tensor_dimension1 = { 1, { 16 } };
const MODEL_SECTION(EI_MODEL_SECTION) ALIGN(16) float tensor_data2[32] = { -0.0023966755252331495, -0.0094988113269209862, -0.00055886449990794063, -0.014606814831495285, -0.012792329303920269, -0.0034251569304615259, -0.012407824397087097, 0.00096677721012383699, -0.00048805490951053798, -0.0049076364375650883, -0.01051060575991869, 0.0040896367281675339, -0.00035099167143926024, -0.0017307301750406623, -0.0099266814067959785, -0.0047735446132719517, 0.003188673872500658, 0.0011465952266007662, -0.008820975199341774, -0.0041254344396293163, -0.0057059889659285545, -0.0090442290529608727, -0.0023669272195547819, -0.011851190589368343, 0.00075666804332286119, -0.0012949684169143438, 0.0022670116741210222, 0.0031739308033138514, 3.7669775338144973e-05, 0.006219036877155304, 0.0021611968986690044, -0.012475939467549324, };
const TfArray<1, int> tensor_dimension2 = { 1, { 32 } };
const MODEL_SECTION(EI_MODEL_SECTION) ALIGN(16) float tensor_data3[64] = { -0.0059591201134026051, 0.004249929916113615, -0.009061301127076149, -0.0027409123722463846, -0.00017639048746787012, -0.0014803861267864704, -0.0089799892157316208, -0.012776465155184269, 0.00011715101572917774, -0.0099814319983124733, 0.0015068083303049207, -0.0017692862311378121, -0.0080160424113273621, -0.0096854791045188904, -0.0048449588939547539, -0.0016156630590558052, -0.009166346862912178, -0.0044264919124543667, -0.004523830022662878, -0.0024685398675501347, 0.00085436075460165739, -1.9314073142595589e-05, 0.0047077257186174393, 0.0010773633839562535, -0.0014200784498825669, -0.0080602783709764481, -0.0059128412976861, -0.0027671745046973228, 0.012441405095160007, -0.0060985879972577095, -0.0065059983171522617, -0.0050674835219979286, 0.0047768745571374893, -0.0098959282040596008, -0.0025268539320677519, -0.005437332671135664, -0.0041222339496016502, -0.0055353571660816669, -0.0036279207561165094, 0.00059544213581830263, 0.001003962242975831, 0.0010262063005939126, 0.0039444235153496265, -0.0047720144502818584, -0.0024977244902402163, -0.0017149685882031918, -0.0099746659398078918, -0.010155515745282173, -0.0092926947399973869, -0.0026345360092818737, -0.0063793202862143517, -0.010223978199064732, -0.013313882052898407, -0.0032038770150393248, 0.0043701552785933018, 0.00063678849255666137, -0.0031510826665908098, -0.0059117511846125126, -0.0020453555043786764, -0.0010394662385806441, 0, -0.0042126793414354324, -0.0029041559901088476, -0.0064326557330787182, };
const TfArray<1, int> tensor_dimension3 = { 1, { 64 } };
const MODEL_SECTION(EI_MODEL_SECTION) ALIGN(16) float tensor_data4[128] = { -0.0074336598627269268, -0.014016914181411266, -0.006100144237279892, -0.02044275589287281, -0.016851415857672691, -0.0085973013192415237, 0.0086072208359837532, -0.00030329756555147469, 0.00098080094903707504, -0.0055767232552170753, -0.01150086522102356, -0.010221101343631744, -0.017788195982575417, -0.0085471970960497856, 0.00016359888832084835, -0.009741579182446003, -0.010728881694376469, 0.0026467735879123211, -0.010764887556433678, -0.0026132941711694002, -0.019168619066476822, -0.0078921755775809288, -0.00045428529847413301, -0.0093721579760313034, -0.015192840248346329, -0.0062012709677219391, -0.028380570933222771, -0.011273684911429882, 0.0039271074347198009, -0.011737755499780178, -0.01521479245275259, -0.010547150857746601, 0.001176282181404531, -0.014695988968014717, -0.0094815297052264214, -0.018798802047967911, -0.0062532182782888412, -0.010737627744674683, -0.0098140565678477287, -0.011200504377484322, 0.0012403560103848577, -0.010020257905125618, -0.0095399990677833557, -0.014510042034089565, -0.0020849846769124269, -0.0084182517603039742, -0.004932064563035965, -0.0057127689942717552, -0.011682606302201748, -0.01282999012619257, -0.0018741927342489362, -0.025441480800509453, -0.017298107966780663, 0.0090325828641653061, -0.010203731246292591, -0.00026345177320763469, -0.0013997696805745363, -0.016843888908624649, -0.021288007497787476, -0.0091899624094367027, -0.020158039405941963, -0.014806344173848629, 0.00049832474905997515, -0.014752849005162716, -0.0088031627237796783, -0.012648043222725391, -0.0051622572354972363, -0.010298735462129116, -0.0022102408111095428, -0.0089770713821053505, -0.0076952408999204636, -0.008905547671020031, -0.0095255384221673012, -0.013952492736279964, 0.00450553884729743, -0.0051969094201922417, -0.012400295585393906, -0.014177003875374794, -0.01165547501295805, -0.01817047968506813, -0.014775214716792107, -0.012014651671051979, 0.0014065697323530912, -0.002600737614557147, -0.011552597396075726, -0.0070889652706682682, -0.0086654322221875191, -0.012472815811634064, -0.013321184553205967, -0.013627203181385994, 0.00034091039560735226, -0.010870159603655338, -0.0080139562487602234, -0.004024080466479063, -0.0087751522660255432, -0.0020171476062387228, -0.0079968003556132317, -0.023639068007469177, -0.0085826776921749115, -0.0041520185768604279, -0.01641983725130558, -0.0065827746875584126, -0.019214266911149025, -0.019753243774175644, -0.01076721865683794, -0.013687480241060257, -0.010458657518029213, -0.013624611310660839, -0.0089996000751852989, 0.0013927915133535862, -0.01071848813444376, -0.0048049320466816425, 0.00057201419258490205, -0.01820715144276619, -0.014327961951494217, -0.016628753393888474, -0.0094820540398359299, -0.0011744203511625528, -0.0070549603551626205, -0.0020413026213645935, -0.010168573819100857, 0.0020519024692475796, -0.0084116896614432335, 0.011465819552540779, -0.0046262168325483799, -0.019555088132619858, -0.007285537663847208, -0.0029504597187042236, };
const TfArray<1, int> tensor_dimension4 = { 1, { 128 } };
const MODEL_SECTION(EI_MODEL_SECTION) ALIGN(16) float tensor_data5[16*3*3*1] = { 
  /* [0][0][][] */ -0.010762657038867474, 0.027386613190174103, -0.18802735209465027, 
  /* [0][1][][] */ 0.10295634716749191, -0.10162107646465302, 0.047282062470912933, 
  /* [0][2][][] */ 0.14470839500427246, -0.14505337178707123, -0.027034085243940353, 
  /* [1][0][][] */ -0.1846802830696106, -0.043339312076568604, -0.19048014283180237, 
  /* [1][1][][] */ -0.16046997904777527, -0.017753714695572853, -0.053239136934280396, 
  /* [1][2][][] */ 0.14316290616989136, 0.17992702126502991, -0.17265065014362335, 
  /* [2][0][][] */ 0.11083866655826569, -0.14850786328315735, -0.1680142730474472, 
  /* [2][1][][] */ 0.073221631348133087, -0.097253993153572083, 0.084770709276199341, 
  /* [2][2][][] */ 0.080279916524887085, -0.10607822239398956, 0.10755155235528946, 
  /* [3][0][][] */ -0.1726057231426239, -0.023818023502826691, 0.16241692006587982, 
  /* [3][1][][] */ 0.16298671066761017, 0.15373025834560394, -0.02233220636844635, 
  /* [3][2][][] */ -0.043379157781600952, 0.039735682308673859, 0.18955393135547638, 
  /* [4][0][][] */ 0.15183930099010468, -0.018298709765076637, -0.10928643494844437, 
  /* [4][1][][] */ -0.0042973230592906475, -0.021751044318079948, -0.13430055975914001, 
  /* [4][2][][] */ 0.088252551853656769, -0.034959077835083008, -0.099375888705253601, 
  /* [5][0][][] */ -0.062002409249544144, -0.011258732527494431, 0.10449448227882385, 
  /* [5][1][][] */ -0.11271620541810989, -0.011270103044807911, -0.054320253431797028, 
  /* [5][2][][] */ 0.027884151786565781, -0.063556790351867676, -0.16419433057308197, 
  /* [6][0][][] */ 0.1012921929359436, -0.033034868538379669, -0.051846962422132492, 
  /* [6][1][][] */ -0.090876907110214233, -0.18230165541172028, -0.12097752094268799, 
  /* [6][2][][] */ -0.094369694590568542, 0.024912377819418907, -0.08572908490896225, 
  /* [7][0][][] */ 0.13681599497795105, 0.10781273990869522, 0.13747677206993103, 
  /* [7][1][][] */ -0.15500013530254364, -0.05627167597413063, 0.1589135080575943, 
  /* [7][2][][] */ 0.10244061797857285, -0.060568112879991531, -0.033499814569950104, 
  /* [8][0][][] */ 0.11419980227947235, 0.039135865867137909, -0.03049764409661293, 
  /* [8][1][][] */ -0.073668703436851501, -0.061809107661247253, -0.16239058971405029, 
  /* [8][2][][] */ -0.14550955593585968, 0.057379879057407379, -0.065303392708301544, 
  /* [9][0][][] */ -0.16484151780605316, 0.13879254460334778, 0.14881514012813568, 
  /* [9][1][][] */ 0.17249208688735962, -0.014300113543868065, -0.11240678280591965, 
  /* [9][2][][] */ -0.15833480656147003, 0.056679524481296539, -0.078818805515766144, 
  /* [10][0][][] */ 0.17975936830043793, -0.055783312767744064, -0.16605977714061737, 
  /* [10][1][][] */ 0.099481433629989624, 0.039407789707183838, -0.15281815826892853, 
  /* [10][2][][] */ -0.19077357649803162, 0.12465794384479523, -0.12462488561868668, 
  /* [11][0][][] */ -0.039169363677501678, -0.1786765456199646, -0.093997739255428314, 
  /* [11][1][][] */ 0.00033316074404865503, -0.16839124262332916, -0.13967703282833099, 
  /* [11][2][][] */ 0.042747523635625839, -0.0093209780752658844, 0.065512716770172119, 
  /* [12][0][][] */ -0.095713041722774506, 0.17556162178516388, 0.029945887625217438, 
  /* [12][1][][] */ 0.1536739319562912, -0.02709493599832058, 0.11981956660747528, 
  /* [12][2][][] */ 0.11399684101343155, 0.14861281216144562, -0.12154701352119446, 
  /* [13][0][][] */ 0.040778685361146927, 0.086672939360141754, 0.022354274988174438, 
  /* [13][1][][] */ 0.013234640471637249, 0.13557469844818115, 0.16220545768737793, 
  /* [13][2][][] */ 0.09999421238899231, 0.019263191148638725, 0.053103990852832794, 
  /* [14][0][][] */ 0.16692756116390228, 0.047178115695714951, -0.074509240686893463, 
  /* [14][1][][] */ -0.145689457654953, -0.18428562581539154, 0.0049159470945596695, 
  /* [14][2][][] */ -0.08101886510848999, -0.055350709706544876, 0.15646614134311676, 
  /* [15][0][][] */ 0.0056042042560875416, 0.065152771770954132, 0.049180150032043457, 
  /* [15][1][][] */ 0.12276998162269592, -0.098255567252635956, -0.18618060648441315, 
  /* [15][2][][] */ -0.16831740736961365, 0.052312888205051422, 0.19170625507831573, 
};
const TfArray<4, int> tensor_dimension5 = { 4, { 16,3,3,1 } };
const MODEL_SECTION(EI_MODEL_SECTION) ALIGN(16) float tensor_data6[32*3*3*16] = { 
  /* [0][0][][] */ 0.042255718261003494,0.10799549520015717,-0.035903431475162506,-0.0035884161479771137,-0.0036080689169466496,-0.0046151424758136272,-0.081404075026512146,0.080158643424510956,0.037974882870912552,0.021486569195985794,-0.096417911350727081,0.08062019944190979,-0.0017834400059655309,0.10335910320281982,0.071421146392822266,-0.012486961670219898, -0.057577431201934814,0.034991830587387085,-0.093999646604061127,0.10190783441066742,-0.032424710690975189,0.11765002459287643,0.11728239804506302,0.025158055126667023,-0.10630796849727631,-0.11135408282279968,-0.044252660125494003,0.10195372998714447,0.081312976777553558,-0.011613544076681137,-0.10286395251750946,-0.044635403901338577, 0.10054803639650345,0.047286912798881531,0.0020775585435330868,0.11218012124300003,0.042232867330312729,-0.11617047339677811,-0.038853719830513,0.042395524680614471,0.064037211239337921,-0.084754608571529388,0.047698896378278732,0.038159936666488647,0.038949556648731232,-0.07084665447473526,0.067911997437477112,-0.0087723657488822937, 
  /* [0][1][][] */ -0.10554862767457962,-0.096994690597057343,0.061768703162670135,0.064004071056842804,0.095934398472309113,-0.037321131676435471,-0.076941289007663727,0.035770148038864136,0.10506675392389297,0.058070287108421326,0.010679573751986027,-0.045568104833364487,0.023176060989499092,0.06326688826084137,0.078396737575531006,-0.11773083359003067, -0.11563606560230255,-0.10462904721498489,-0.008143286220729351,-0.095844142138957977,-0.023782588541507721,0.063061438500881195,0.1129162386059761,-0.096563905477523804,-0.045783553272485733,-0.067534983158111572,0.0036957238335162401,0.0032386763487011194,0.01009796280413866,-0.076124444603919983,-0.081793777644634247,-0.075517110526561737, -0.041802853345870972,-0.001176724093966186,-0.046765126287937164,-0.050366409122943878,-0.057071905583143234,0.099987581372261047,0.05172918364405632,-0.023445375263690948,0.089909844100475311,-0.040913768112659454,0.003522075479850173,-0.10171964019536972,-0.096916988492012024,-0.024979948997497559,-0.062715642154216766,0.073759756982326508, 
  /* [0][2][][] */ 0.039235450327396393,0.064037151634693146,-0.060078073292970657,-0.0787244513630867,-0.0035406395327299833,0.079272843897342682,-0.048165623098611832,0.087480798363685608,0.076308675110340118,-0.0015727839199826121,-0.0056217233650386333,-0.072037138044834137,-0.023885056376457214,0.017738953232765198,-0.016372073441743851,-0.062449175864458084, 0.034393563866615295,0.01025837380439043,-0.064913004636764526,0.011928236111998558,0.084231100976467133,0.084349349141120911,-0.11944819986820221,-0.03465241938829422,0.091007769107818604,0.083871178328990936,-0.02868952788412571,-0.10717372596263885,-0.018048515543341637,-0.017001340165734291,-0.092387966811656952,0.02727985754609108, -0.050943505018949509,-0.017490971833467484,-0.058492220938205719,-0.004836598876863718,0.0074370750226080418,0.0019909567199647427,-0.091952055692672729,-0.0070832273922860622,-0.094838522374629974,-0.072454005479812622,-0.078032307326793671,-0.10261856019496918,0.008380470797419548,-0.033769626170396805,0.024131171405315399,0.10602004081010818, 
  /* [1][0][][] */ -0.063128463923931122,-0.0027139820158481598,-0.015168917365372181,-0.040282804518938065,-0.080939784646034241,-0.066236622631549835,0.072904907166957855,0.050622928887605667,0.08495822548866272,0.024069786071777344,-0.066447503864765167,-0.0035933717153966427,0.0074677448719739914,0.055391687899827957,-0.12146711349487305,0.093473672866821289, 0.0022325690370053053,0.0813126340508461,-0.039279714226722717,0.035186730325222015,0.077020436525344849,-0.053554121404886246,-0.037709884345531464,-0.1176755502820015,-0.09117686003446579,0.080852515995502472,0.10458684712648392,0.00037039016024209559,-0.063024565577507019,-0.0098599493503570557,0.042978312820196152,0.026672510430216789, -0.095230117440223694,0.076547533273696899,0.017586207017302513,-0.10817016661167145,-0.028743855655193329,0.04458250105381012,-0.11393716931343079,-0.045160036534070969,-0.070293568074703217,-0.042571067810058594,-0.056123401969671249,0.049261841922998428,0.064368888735771179,0.11608509719371796,0.013185096904635429,-0.087228260934352875, 
  /* [1][1][][] */ 0.092446036636829376,0.083933316171169281,0.10214979201555252,0.082829393446445465,-0.059096544981002808,-0.017278056591749191,-0.086443506181240082,0.018229490146040916,0.01690315268933773,-0.077735595405101776,0.001408526673913002,0.088008098304271698,-0.0011842965614050627,-0.10402368009090424,0.094707250595092773,0.042360775172710419, 0.083501935005187988,-0.046957969665527344,0.068694256246089935,-0.02308560349047184,0.075211621820926666,-0.049739431589841843,-0.070395313203334808,0.070728927850723267,-0.097582787275314331,-0.063835509121417999,-0.033256296068429947,0.088754065334796906,-0.075163215398788452,-0.079393170773983002,-0.07367398589849472,-0.095323905348777771, 0.0016308320919051766,-0.026845144107937813,-0.023929204791784286,-0.0066354493610560894,-0.0029097010847181082,0.029105000197887421,0.0094108777120709419,0.027150606736540794,-0.048897296190261841,0.009170246310532093,0.029835281893610954,0.072003550827503204,0.042614489793777466,-0.013551695272326469,0.095986716449260712,0.061337001621723175, 
  /* [1][2][][] */ -0.060830399394035339,-0.033505324274301529,-0.056055113673210144,0.014761134050786495,0.10984407365322113,0.088830828666687012,-0.032081417739391327,0.054478839039802551,-0.080162480473518372,0.084150306880474091,0.083084598183631897,-0.060175731778144836,-0.066092818975448608,0.057183220982551575,-0.08302607387304306,0.025064323097467422, -0.036443505436182022,0.036112431436777115,0.078539162874221802,0.092351481318473816,0.034102458506822586,-0.011739165522158146,0.078892767429351807,-0.0061779883690178394,0.025045828893780708,-0.10539957880973816,-0.096952475607395172,-0.036028314381837845,0.0036063292063772678,-0.01769036240875721,0.011782428249716759,0.080303631722927094, -0.11233612895011902,0.030123963952064514,0.01275650504976511,-0.0016080427449196577,-0.1082107201218605,0.083962835371494293,0.0190708227455616,-0.12294547259807587,-0.017743794247508049,0.10914292931556702,-0.051269933581352234,-0.062300067394971848,-0.013273761607706547,-0.064835861325263977,-0.082842692732810974,-0.0062104221433401108, 
  /* [2][0][][] */ -0.023872081190347672,-0.043431788682937622,0.0087198447436094284,0.0078389979898929596,0.11712180078029633,0.089387081563472748,0.058585338294506073,-0.0017293867422267795,-0.086421214044094086,0.053262252360582352,-0.031078333035111427,0.08710123598575592,0.095219813287258148,-0.061834331601858139,-0.087781324982643127,0.10267888009548187, -0.010201982222497463,-0.012141300365328789,0.094065919518470764,-0.078331142663955688,-0.016360044479370117,0.11849352717399597,0.084243461489677429,-0.026605632156133652,0.0502665676176548,-0.017628513276576996,-0.095891714096069336,-0.10194563865661621,-0.080711953341960907,0.11019915342330933,0.097174510359764099,0.075966924428939819, 0.015013421885669231,-0.0057261791080236435,-0.11301164329051971,-0.090069226920604706,0.08964172750711441,-0.0096001438796520233,-0.099611684679985046,0.058616533875465393,-0.093118950724601746,-0.081571213901042938,0.0016874903813004494,-0.02840689942240715,-0.017341189086437225,0.094016551971435547,0.092317372560501099,0.09851296991109848, 
  /* [2][1][][] */ -0.089761979877948761,-0.081730574369430542,0.032618377357721329,0.049300309270620346,0.029971795156598091,0.084961786866188049,-0.01139338780194521,-0.11888634413480759,-0.11392012983560562,0.047090973705053329,-0.065139599144458771,-0.08432353287935257,-0.065245218575000763,0.046444173902273178,-0.09447227418422699,0.06603645533323288, -0.088450446724891663,0.11729221791028976,-0.043602835386991501,0.052026569843292236,-0.052251555025577545,-0.063403978943824768,-0.0086037963628768921,0.050715651363134384,-0.10723111778497696,0.067976675927639008,0.11268587410449982,-0.04423123225569725,0.10622785985469818,0.045927762985229492,-0.046894431114196777,-0.03036828525364399, 0.052979283034801483,-0.00777089549228549,0.10591375827789307,-0.098265364766120911,-0.087770983576774597,0.026980144903063774,0.074168257415294647,0.031235229223966599,0.0020010997541248798,0.1139957383275032,-0.057335793972015381,0.076944462954998016,0.032994829118251801,-0.06909593939781189,0.10853684693574905,0.0064043612219393253, 
  /* [2][2][][] */ -0.091996073722839355,-0.10518317669630051,0.088948838412761688,0.09793398529291153,-0.071235939860343933,-0.029488548636436462,0.10580619424581528,0.074335545301437378,-0.080553531646728516,-0.014258032664656639,-0.026407666504383087,0.072722144424915314,-0.056143932044506073,0.024230726063251495,0.11342889070510864,0.098771028220653534, 0.086720928549766541,-0.044761497527360916,-0.091902397572994232,0.096545591950416565,0.058075256645679474,-0.00055744301062077284,0.014345981180667877,0.059180743992328644,-0.088657006621360779,-0.090717941522598267,0.081079132854938507,0.0140550397336483,0.042495999485254288,-0.067918039858341217,0.10794877260923386,0.022307319566607475, 0.10337871313095093,0.10933156311511993,0.023813040927052498,-0.013667670078575611,-0.041409455239772797,-0.0092513579875230789,0.073796592652797699,-0.070242501795291901,-0.021959487348794937,0.042080938816070557,-0.00034642597893252969,-0.092368714511394501,-0.096701860427856445,-0.090747810900211334,-0.019702885299921036,0.05747859925031662, 
  /* [3][0][][] */ 0.046272870153188705,0.040099255740642548,0.075859472155570984,-0.10044723749160767,0.014183718711137772,-0.02985025942325592,0.0001475781318731606,-0.072781302034854889,-0.08673270046710968,-0.055998865514993668,0.044491320848464966,0.059909820556640625,0.079499781131744385,0.045121405273675919,-0.0044176122173666954,-0.086899742484092712, -0.019942404702305794,-0.11767856776714325,-0.079164214432239532,-0.0055709239095449448,-0.096659570932388306,0.096853367984294891,-0.052188318222761154,0.083721093833446503,0.036598168313503265,0.076130524277687073,0.075635761022567749,0.044393181800842285,-0.11508321762084961,-0.053452584892511368,-0.079617083072662354,-0.034425899386405945, -0.086089439690113068,0.10492158681154251,0.054873067885637283,0.039339706301689148,-0.021004809066653252,0.059338834136724472,0.10101857036352158,-0.11359554529190063,0.086855791509151459,0.095028676092624664,-0.084860868752002716,-0.013055023737251759,-0.081873334944248199,0.081558741629123688,-0.11136478930711746,0.036904465407133102, 
  /* [3][1][][] */ 0.00290116504766047,0.061689659953117371,0.039740622043609619,-0.011359116993844509,0.056729111820459366,0.0028947170358151197,0.047709349542856216,-0.050800178200006485,0.10623028129339218,0.019891813397407532,-0.034504130482673645,-0.048811234533786774,-0.10009396821260452,0.064667701721191406,-0.0097735868766903877,-0.080409891903400421, 0.081254929304122925,-0.085777774453163147,0.040065761655569077,0.024081774055957794,0.093901291489601135,-0.0007293782546184957,-0.024562457576394081,-0.084047101438045502,0.0078866751864552498,0.087095700204372406,0.075717829167842865,0.078694336116313934,0.059788823127746582,-0.015123275108635426,-0.036393273621797562,0.034067165106534958, -0.038029633462429047,-0.10791680216789246,0.072906121611595154,0.064262144267559052,0.018462546169757843,0.061170972883701324,-0.12433238327503204,-0.083906345069408417,0.077515788376331329,-0.044290605932474136,0.10233859717845917,-0.0052852579392492771,0.010785837657749653,0.025680195540189743,0.058146834373474121,-0.061091054230928421, 
  /* [3][2][][] */ -0.014517364092171192,-0.094577819108963013,-0.025101916864514351,-0.11395630240440369,0.061269994825124741,0.0072728502564132214,-0.10210787504911423,-0.011450560763478279,0.010115461423993111,-0.032406516373157501,-0.035343240946531296,0.077412664890289307,0.043070517480373383,-0.10961596667766571,0.065174169838428497,0.054860539734363556, 0.10093376785516739,0.085512496531009674,0.027451461181044579,-0.025769662111997604,0.11289782077074051,0.027614938095211983,0.098512545228004456,-0.08688151091337204,-0.10577023029327393,-0.091661304235458374,-0.090387411415576935,-0.078170076012611389,-0.041270803660154343,0.024200133979320526,0.0081803901121020317,0.088668182492256165, -0.031871769577264786,0.099023990333080292,-0.10235371440649033,0.11475385725498199,0.10141215473413467,0.058981653302907944,0.002840233501046896,0.12434498220682144,-0.089788824319839478,-0.086925894021987915,-0.04341517761349678,-0.084932483732700348,-0.032942675054073334,-0.082860618829727173,0.052958536893129349,-0.030722577124834061, 
  /* [4][0][][] */ -0.045577302575111389,-0.075930885970592499,-0.10999377071857452,0.023730922490358353,-0.08561648428440094,-0.04860740527510643,-0.034633513540029526,0.031907934695482254,0.063235417008399963,0.079982250928878784,-0.093320004642009735,-0.035765066742897034,-0.089548945426940918,-0.024279763922095299,0.061119578778743744,0.10658484697341919, -0.028850680217146873,-0.0038730741944164038,-0.10846502333879471,-0.11291389912366867,-0.042213231325149536,0.012310986407101154,0.1117195263504982,0.071685232222080231,-0.057802721858024597,-0.062333174049854279,-0.029306970536708832,0.017519906163215637,-0.054267559200525284,-0.083540774881839752,-0.019425788894295692,-0.062334112823009491, -0.036597717553377151,-0.11647772789001465,0.10309962183237076,-0.096681691706180573,-0.11227018386125565,0.053248614072799683,0.087308436632156372,0.03219812735915184,-0.11539318412542343,0.091822408139705658,0.10874679684638977,0.079271689057350159,0.086893141269683838,0.105800561606884,-0.050142515450716019,-0.11494462192058563, 
  /* [4][1][][] */ -0.065787509083747864,-0.06398436427116394,-0.12111029028892517,-0.10927467793226242,-0.012532851658761501,0.064009271562099457,0.036513853818178177,0.084617279469966888,-0.039685066789388657,-0.015337653458118439,-0.011598085053265095,-0.10697536170482635,0.10652617365121841,0.042339365929365158,-0.081408731639385223,-0.067831970751285553, -0.074648387730121613,0.01561866607517004,-0.088658474385738373,-0.12194166332483292,0.040146779268980026,-0.091221950948238373,-0.036640364676713943,0.076249696314334869,-0.0010374995181336999,0.097187913954257965,-0.061650548130273819,0.064434133470058441,-0.0059082838706672192,0.073785029351711273,0.0073073254898190498,-0.072294510900974274, 0.086296096444129944,0.10766416043043137,0.062319140881299973,-0.11112082004547119,0.10240855067968369,-0.10793054848909378,0.028081577271223068,-0.041953973472118378,-0.041607651859521866,-0.10580011457204819,-0.12344309687614441,0.025641871616244316,-0.0063831652514636517,-0.0045895897783339024,0.0020192076917737722,-0.075315095484256744, 
  /* [4][2][][] */ -0.071522459387779236,-0.09093455970287323,-0.042660430073738098,-0.098318763077259064,0.078925803303718567,-0.052591349929571152,-0.082364901900291443,0.02291535772383213,0.10734052211046219,0.09511508047580719,0.0042037051171064377,0.072868399322032928,-0.099146448075771332,0.040497925132513046,0.11550652235746384,-0.075633570551872253, -0.038774464279413223,0.019101407378911972,-0.019541384652256966,-0.11853215843439102,-0.015231724828481674,0.091928310692310333,-0.050769027322530746,0.079509042203426361,-0.075878053903579712,-0.083078294992446899,-0.095591276884078979,-0.073887668550014496,0.083320796489715576,-0.012488698586821556,0.11016945540904999,0.012298388406634331, 0.090383768081665039,-0.01298338919878006,-0.029947537928819656,0.0082674985751509666,-0.015714958310127258,0.037707898765802383,-0.064499840140342712,-0.03377043828368187,-0.07893003523349762,-0.02194899320602417,-0.04611123725771904,-0.033992532640695572,0.098591350018978119,0.032536573708057404,0.014142819680273533,-0.085805177688598633, 
  /* [5][0][][] */ -0.099582850933074951,0.049892380833625793,-0.031224923208355904,-0.059370502829551697,-0.10660094022750854,-0.049516621977090836,0.072521224617958069,-0.10809776932001114,-0.083039954304695129,0.047671597450971603,-0.0065694400109350681,-0.08842313289642334,-0.04220832884311676,-0.010261131450533867,0.046196501702070236,-0.058523204177618027, -0.10444549471139908,0.0068770833313465118,0.068360663950443268,0.085822537541389465,0.045485422015190125,-0.025368670001626015,-0.12235037237405777,0.025157168507575989,0.021323287859559059,-0.09751003235578537,-0.11239976435899734,-0.040493156760931015,0.012001266703009605,-0.077882297337055206,0.020665062591433525,0.020563589408993721, 0.041559137403964996,-0.059922721236944199,-0.033332657068967819,-0.080568574368953705,0.013762039132416248,-0.052350446581840515,0.084794633090496063,-0.02331584133207798,-0.10204289108514786,-0.053851969540119171,-0.029196307063102722,0.11161677539348602,0.0070824725553393364,-0.070592731237411499,-0.1165689080953598,-0.056591451168060303, 
  /* [5][1][][] */ 0.0015678731724619865,0.083644397556781769,-0.029440676793456078,0.03636549785733223,-0.11594930291175842,-0.042330127209424973,0.085131086409091949,0.031679682433605194,0.015223964117467403,-0.076810121536254883,0.023078937083482742,0.047193355858325958,0.10451511293649673,-0.099695034325122833,0.063959144055843353,-0.027903033420443535, 0.058846615254878998,0.076338052749633789,0.090478807687759399,-0.10414024442434311,-0.1071956604719162,0.020707668736577034,-0.10200683772563934,-0.027156192809343338,0.058209184557199478,0.071886710822582245,-0.04172443225979805,0.080927997827529907,-0.076459415256977081,-0.053551208227872849,-0.03313109278678894,0.099405199289321899, 0.07255370169878006,0.10009462386369705,-0.027164408937096596,0.088956683874130249,-0.11105598509311676,-0.081456921994686127,-0.065528295934200287,-0.055938910692930222,-0.038266915827989578,0.0086292857304215431,0.054264947772026062,0.067163147032260895,-0.096330843865871429,-0.0018494012765586376,-0.039454389363527298,0.034759704023599625, 
  /* [5][2][][] */ -0.011487839743494987,-0.10969544947147369,-0.088927559554576874,-0.012745740823447704,-0.0079250475391745567,0.092444337904453278,-0.016898959875106812,0.039925433695316315,-0.056683212518692017,0.036850642412900925,0.038689825683832169,-0.10330776125192642,0.020331840962171555,-0.024062387645244598,-0.11573801189661026,-0.077282242476940155, 0.076333388686180115,0.032300103455781937,-0.03339332714676857,0.06558392196893692,-0.060428537428379059,-0.10319577157497406,-0.042814686894416809,-0.019939655438065529,-0.10822924226522446,0.054765176028013229,0.059410441666841507,-0.12546759843826294,-0.004084484651684761,-0.066269040107727051,0.052497155964374542,0.056910235434770584, 0.012430655770003796,-0.076943814754486084,0.1185791939496994,0.01133826095610857,0.10033597052097321,0.0474095419049263,0.10583622008562088,0.037380445748567581,-0.087692879140377045,0.084942728281021118,-0.042187124490737915,-0.018113357946276665,0.039285264909267426,0.064309187233448029,-0.0009228455601260066,0.08765382319688797, 
  /* [6][0][][] */ 0.07739344984292984,0.027205266058444977,-0.12067317217588425,0.020893644541501999,0.03422444686293602,0.056600384414196014,-0.034254260361194611,0.016958743333816528,-0.047862756997346878,-0.086419589817523956,-0.03446434810757637,-0.092361852526664734,-0.084409520030021667,0.094415776431560516,-0.099777273833751678,-0.08924044668674469, 0.10352503508329391,-0.11120602488517761,0.034593865275382996,0.023763969540596008,0.028409553691744804,0.078656971454620361,0.0012056168634444475,0.085921749472618103,0.076658599078655243,0.058703996241092682,-0.097934670746326447,-0.074899107217788696,0.10499678552150726,-0.06866021454334259,0.062513656914234161,-0.052475295960903168, -0.087153762578964233,0.078289762139320374,-0.066202625632286072,-0.020392198115587234,0.054787270724773407,-0.067969657480716705,-0.037300191819667816,-0.10985473543405533,-0.085630834102630615,-0.11947838217020035,-0.096987664699554443,-0.090636156499385834,-0.11128260940313339,0.11355514824390411,0.038064796477556229,-0.021893288940191269, 
  /* [6][1][][] */ -0.11745639145374298,0.091516420245170593,0.091118127107620239,-0.045795407146215439,0.063593819737434387,0.09534260630607605,0.055374383926391602,-0.085900560021400452,-0.025781245902180672,0.077139317989349365,0.044622693210840225,0.096503108739852905,0.065534636378288269,-0.053508546203374863,0.060829039663076401,-0.12842297554016113, -0.074876494705677032,-0.12151247262954712,0.049077216535806656,-0.12063603103160858,0.0098403748124837875,0.073603518307209015,0.01052230317145586,-0.02885063923895359,-0.0090798325836658478,0.10260816663503647,-0.074423469603061676,0.021787906065583229,0.010311686433851719,-0.0084268329665064812,-0.062031280249357224,-0.06730390340089798, -0.079145967960357666,0.026497825980186462,0.11745291948318481,0.023132903501391411,0.081807173788547516,-0.088713772594928741,0.070793204009532928,0.02570047602057457,0.0883164182305336,-0.076841846108436584,-0.014665935188531876,-0.080509640276432037,0.087057419121265411,-0.015605120919644833,0.074528366327285767,0.052250195294618607, 
  /* [6][2][][] */ -0.11116535216569901,-0.096857823431491852,0.037671200931072235,-0.064880967140197754,0.0041954526677727699,0.038923200219869614,0.045608941465616226,-0.096816658973693848,-0.02779683843255043,-0.018067419528961182,0.040819171816110611,0.0022648845333606005,0.080126844346523285,-0.040816932916641235,-0.038625702261924744,0.094571717083454132, 0.077750980854034424,0.022005416452884674,0.081481531262397766,0.026295581832528114,-0.013572659343481064,0.096422478556632996,-0.037287306040525436,-0.10548216104507446,-0.08344307541847229,0.083014786243438721,-0.0029251850210130215,0.0021698391065001488,0.084196589887142181,0.0029772636480629444,0.023004289716482162,-0.05255618691444397, 0.0904436856508255,0.0076159965246915817,-0.025160951539874077,0.02143777534365654,-0.044021341949701309,-0.10100074112415314,-0.064234524965286255,0.018404167145490646,-0.0028082635253667831,-0.054280094802379608,-0.086519666016101837,-0.039204411208629608,0.11194833368062973,-0.048244401812553406,-0.099728427827358246,-0.10110220313072205, 
  /* [7][0][][] */ -0.010864214040338993,-0.0020375419408082962,-0.095465809106826782,0.10200592875480652,0.06612134724855423,0.079200021922588348,0.075230121612548828,0.048210505396127701,0.013547748327255249,-0.070293426513671875,0.10148150473833084,0.10763097554445267,0.0075571336783468723,0.0017178191337734461,0.07916424423456192,0.063451632857322693, -0.041247058659791946,0.03214133158326149,-0.054940361529588699,0.069469869136810303,-0.095917306840419769,-0.011869428679347038,-0.024388259276747704,-0.077038504183292389,-0.071648582816123962,0.01316645834594965,0.015689393505454063,-0.049772247672080994,-0.056884918361902237,0.021008657291531563,0.10182328522205353,-0.095784991979598999, -0.04280085489153862,0.053330395370721817,-0.079538524150848389,0.092367775738239288,0.088105998933315277,-0.058273114264011383,0.053481623530387878,-0.086027167737483978,0.064766854047775269,0.012563906610012054,-0.10741512477397919,0.083202093839645386,0.050573684275150299,0.10991104692220688,-0.07539030909538269,0.066027633845806122, 
  /* [7][1][][] */ 0.10969036817550659,-0.058724589645862579,-0.055797036737203598,-0.018069988116621971,-0.063843779265880585,0.0012191904243081808,0.0051193349063396454,0.01576700247824192,0.019982459023594856,0.085436388850212097,-0.076583504676818848,-0.080677099525928497,0.086876086890697479,0.018312493339180946,-0.0070032631047070026,-0.058191940188407898, -0.044006429612636566,0.082765839993953705,-0.062572456896305084,0.048998415470123291,-0.018459608778357506,-0.040837712585926056,-0.0048755030147731304,0.036814812570810318,0.0081775523722171783,0.00039263241342268884,0.018658321350812912,-0.029301691800355911,0.10672853142023087,-0.065728098154067993,-0.082892522215843201,0.11683537811040878, 0.082203179597854614,0.046096235513687134,0.070685446262359619,0.058825314044952393,-0.093727543950080872,-0.028303332626819611,0.042019523680210114,0.066989712417125702,0.10648677498102188,0.028310587629675865,0.037688124924898148,-0.079749651253223419,0.11378345638513565,-0.013183584436774254,0.069196604192256927,-0.022335829213261604, 
  /* [7][2][][] */ 0.045256368815898895,0.058718468993902206,-0.045072592794895172,0.0077342996373772621,-0.099491104483604431,0.073561511933803558,-0.062341708689928055,-0.08366578072309494,-0.10761858522891998,-0.098736792802810669,0.053679119795560837,0.10677000880241394,0.057061240077018738,0.067327454686164856,0.027358848601579666,-0.098963163793087006, 0.022602979093790054,0.042902220040559769,-0.040274765342473984,-0.044382710009813309,0.039076797664165497,-0.059724524617195129,-0.0048944335430860519,0.063836969435214996,0.0070102252066135406,0.02486872673034668,-0.039177924394607544,0.099177747964859009,0.04735085740685463,-0.11753325164318085,0.069561168551445007,-0.073401644825935364, -0.015589664690196514,-0.019389819353818893,0.076594837009906769,0.010369372554123402,0.0007845513173379004,-0.064315527677536011,0.0011045235441997647,0.05886106938123703,-0.096308745443820953,0.088294684886932373,-0.033747676759958267,0.041029192507266998,-0.071218319237232208,-0.041160479187965393,-0.077788315713405609,0.083763442933559418, 
  /* [8][0][][] */ 0.063103802502155304,0.09910043329000473,0.023083530366420746,0.090008191764354706,-0.042049381881952286,-0.094812966883182526,0.099336981773376465,-0.11889417469501495,-0.026027526706457138,0.081532485783100128,0.015235189348459244,-0.022683685645461082,0.032855521887540817,0.11457787454128265,-0.01296390313655138,0.07228812575340271, -0.016862377524375916,-0.0058281510137021542,0.017785137519240379,-0.060630500316619873,-0.10402742028236389,-0.069049254059791565,0.023643923923373222,0.10515198111534119,-0.0098412800580263138,0.08446994423866272,0.057977013289928436,0.052233077585697174,0.099055960774421692,0.10559584945440292,0.065767690539360046,-0.07634446769952774, 0.087057650089263916,-0.10493145138025284,0.0060054226778447628,0.073011614382266998,-0.02309475839138031,-0.012045783922076225,-0.028612170368432999,-0.0039794635958969593,-0.093252137303352356,-0.11086513102054596,-0.1196693629026413,0.1028495579957962,0.01150496955960989,-0.0080032022669911385,0.01335995364934206,-0.071614578366279602, 
  /* [8][1][][] */ 0.044922012835741043,-0.030071236193180084,-0.04298994317650795,0.037961915135383606,-0.069866679608821869,0.079503193497657776,-0.0051551000215113163,-0.028973884880542755,-0.029103785753250122,-0.00034182690433226526,-0.099523752927780151,-0.0050312839448451996,-0.093057781457901001,-0.11365078389644623,-0.1210872009396553,-0.012691788375377655, 0.061980307102203369,-0.07191159576177597,-0.033334624022245407,-0.027149626985192299,0.014624775387346745,0.030769204720854759,0.099318318068981171,-0.016479233279824257,0.022149747237563133,-0.10776547342538834,-0.10012491792440414,-0.032542116940021515,-0.037615008652210236,-0.010740414261817932,0.015266804024577141,-0.036037635058164597, -0.027547812089323997,0.059114370495080948,0.075966797769069672,0.11054041981697083,0.027091009542346001,0.087349094450473785,0.10116133093833923,-0.090026453137397766,-0.032133258879184723,0.11595907062292099,0.029742520302534103,-0.023053901270031929,-0.055247638374567032,0.00051846576388925314,0.06766878068447113,-0.029817666858434677, 
  /* [8][2][][] */ -0.07896684855222702,-0.067175246775150299,-0.11112867295742035,-0.00043442304013296962,-0.0026262667961418629,0.068243689835071564,0.10322456061840057,0.019881598651409149,0.10880858451128006,0.050087537616491318,-0.11144271492958069,0.047312885522842407,0.11205527931451797,0.08794160932302475,0.067061074078083038,-0.089928500354290009, 0.093120798468589783,-0.1122121661901474,-0.09810975193977356,-0.11823828518390656,0.074026480317115784,0.097718171775341034,-0.072058826684951782,-0.046244341880083084,0.096889719367027283,-0.072597198188304901,-0.12191089987754822,0.039571795612573624,-0.028332237154245377,-0.061826363205909729,-0.02190207876265049,0.08326999843120575, 0.093176499009132385,-0.099751964211463928,-0.10655905306339264,-0.11019562929868698,0.090021409094333649,0.044638480991125107,-0.046526893973350525,0.085501715540885925,-0.075523421168327332,-0.10378717631101608,0.065905854105949402,-0.075709998607635498,-0.11357516050338745,0.069446288049221039,0.092591568827629089,0.071795977652072906, 
  /* [9][0][][] */ 0.041090432554483414,0.048990368843078613,-0.050640206784009933,0.076699256896972656,-0.033499766141176224,-0.022122763097286224,-0.0019083413062617183,-0.037514634430408478,-0.01653929241001606,-0.049230135977268219,-0.038937754929065704,-0.04767877608537674,-0.024833213537931442,-0.079812802374362946,-0.080864034593105316,-0.018934020772576332, -0.042638801038265228,0.087681092321872711,0.025608154013752937,-0.064702421426773071,-0.060373853892087936,0.071188144385814667,-0.03309289738535881,0.036636009812355042,-0.097642675042152405,-0.054169028997421265,0.013252837583422661,-0.068212784826755524,0.011347100138664246,0.019057417288422585,-0.086260385811328888,-0.10423845052719116, 0.0025529996491968632,-0.080899573862552643,0.076768584549427032,-0.062581032514572144,0.0069626551121473312,0.1054152324795723,-0.079393923282623291,-0.088449254631996155,-0.066109642386436462,-0.057781178504228592,0.0012143944622948766,-0.055757813155651093,-0.041611164808273315,-0.057966966181993484,0.024481184780597687,0.074236840009689331, 
  /* [9][1][][] */ 0.06659727543592453,0.029047874733805656,0.048372179269790649,0.024015717208385468,0.0024012990761548281,-0.0064038480632007122,0.043820086866617203,0.097146742045879364,0.087880954146385193,-0.046773467212915421,-0.047636076807975769,0.068253293633460999,0.06200626865029335,0.079527422785758972,0.044187251478433609,0.066007241606712341, 0.07834383100271225,-0.047471474856138229,0.036863382905721664,-0.096203111112117767,0.030714478343725204,-0.086068019270896912,0.022954916581511497,-0.070905476808547974,0.085896529257297516,-0.12298140674829483,-0.0098668662831187248,-0.019896760582923889,-0.066551961004734039,-0.052795343101024628,-0.06229139119386673,0.027654416859149933, -0.0029135660734027624,-0.065850153565406799,0.041381236165761948,-0.058253254741430283,0.062682896852493286,0.04737858846783638,0.054706882685422897,-0.070440500974655151,0.0086922403424978256,-0.10705295205116272,0.051674578338861465,0.013724341057240963,0.027837073430418968,0.052447523921728134,0.091757841408252716,-0.061997696757316589, 
  /* [9][2][][] */ -0.085520699620246887,-0.031455699354410172,-0.046215947717428207,0.044768467545509338,0.085635393857955933,0.10016504675149918,-0.11347551643848419,0.081341147422790527,-0.079598031938076019,0.046575762331485748,-0.032301269471645355,0.078126884996891022,0.052657414227724075,-0.10856608301401138,-0.046963762491941452,0.085738904774188995, -0.117788165807724,0.082476161420345306,-0.061911430209875107,-0.0048475731164216995,-0.11492158472537994,-0.019883459433913231,0.0082998285070061684,-0.06854768842458725,-0.064983069896697998,0.1060466542840004,-0.089565619826316833,-0.0079568857327103615,0.11265406757593155,0.058072764426469803,-0.042055979371070862,0.036223478615283966, 0.034314844757318497,-0.093256279826164246,-0.013203210197389126,-0.050290912389755249,-0.068951167166233063,-0.034148070961236954,0.021196858957409859,0.036075923591852188,0.0705280601978302,0.028136476874351501,-0.036281723529100418,-0.03854820504784584,-0.049422886222600937,0.041619960218667984,0.0026375590823590755,-0.012092807330191135, 
  /* [10][0][][] */ -0.08252418041229248,-0.052858784794807434,0.022736910730600357,0.057650428265333176,-0.11115539819002151,-0.030447695404291153,-0.050779670476913452,-0.084563247859477997,-0.06192050501704216,-0.052933566272258759,-0.086601525545120239,-0.032721128314733505,-0.0022345588076859713,-0.021498166024684906,0.020017649978399277,0.081789672374725342, 0.088747099041938782,0.074355952441692352,-0.037566550076007843,0.094525054097175598,0.028050923720002174,-0.10594041645526886,0.031430475413799286,-0.081079632043838501,0.072934113442897797,-0.047262970358133316,0.060185924172401428,0.078682482242584229,-0.11337292939424515,0.097505770623683929,0.029401319101452827,-0.10413490980863571, -0.08642655611038208,-0.086698666214942932,-0.040188595652580261,0.076371520757675171,-0.008090650662779808,-0.04710330069065094,0.074158787727355957,0.1107858270406723,0.035166729241609573,-0.11261913180351257,-0.033425532281398773,0.024096179753541946,-0.0971650630235672,0.10689115524291992,-0.10611241310834885,0.090903900563716888, 
  /* [10][1][][] */ 0.063307382166385651,0.089905962347984314,0.095587953925132751,0.053669184446334839,0.069609589874744415,-0.10695534199476242,0.034909572452306747,-0.012711632996797562,0.076090604066848755,0.096404068171977997,-0.078778423368930817,-0.094556748867034912,0.081620030105113983,-0.1010768935084343,0.069716408848762512,-0.00054657476721331477, 0.017245950177311897,-0.076064430177211761,-0.079559281468391418,0.10492081940174103,0.015776133164763451,-0.038336355239152908,-0.056965291500091553,0.020533990114927292,-0.029004819691181183,-0.058046504855155945,-0.096876971423625946,0.072462081909179688,-0.085081607103347778,-0.046962421387434006,-0.020760210230946541,-0.087246112525463104, 0.039789244532585144,-0.055225655436515808,-0.048257280141115189,-0.022924445569515228,0.075014092028141022,-0.086559385061264038,-0.092564024031162262,0.019826900213956833,-0.0069994800724089146,-0.086635150015354156,0.11612333357334137,0.10620679706335068,-0.044571846723556519,0.11367570608854294,-0.047897502779960632,0.10693021863698959, 
  /* [10][2][][] */ 0.10262094438076019,-0.10844124853610992,-0.045502141118049622,0.018286995589733124,0.062638863921165466,0.091079764068126678,-0.024800188839435577,-0.042707536369562149,-0.019164755940437317,0.028808135539293289,0.024167690426111221,0.073217734694480896,0.063101932406425476,0.032237887382507324,-0.11662625521421432,-0.011049661785364151, -0.091829478740692139,0.058761142194271088,0.017045184969902039,-0.092977710068225861,-0.041321441531181335,-0.084706947207450867,-0.047741994261741638,-0.0062235123477876186,0.10725269466638565,-0.078978613018989563,0.046361509710550308,-0.060383707284927368,-0.030506556853652,-0.043768547475337982,0.028633352369070053,0.067811965942382812, -0.093130201101303101,-0.086903035640716553,0.095154650509357452,0.099613368511199951,0.0080894920974969864,0.025721792131662369,0.099284373223781586,-0.038770426064729691,-0.031379356980323792,-0.096609480679035187,-0.11520709097385406,0.090551584959030151,-0.070299498736858368,0.071935340762138367,-0.040441229939460754,0.0015400853008031845, 
  /* [11][0][][] */ -0.12438572198152542,-0.071810074150562286,0.067577220499515533,-0.065821915864944458,-0.062812313437461853,0.022014008834958076,0.099889196455478668,-0.015492396429181099,-0.041593898087739944,-0.093391388654708862,-0.10632216185331345,-0.097915858030319214,0.10147522389888763,0.052053730934858322,0.060904614627361298,0.032031349837779999, -0.035884160548448563,-0.11236729472875595,-0.059556629508733749,-0.050683546811342239,0.015087245963513851,-0.048993926495313644,-0.12532021105289459,0.04465855285525322,-0.055499020963907242,0.068375542759895325,0.080076910555362701,-0.088366523385047913,0.024901820346713066,0.041921358555555344,-0.049344476312398911,-0.11738471686840057, -0.036677822470664978,-0.084650576114654541,-0.089380547404289246,0.063376791775226593,0.074849419295787811,0.053435161709785461,0.096180662512779236,0.031544428318738937,-0.065984249114990234,-0.10220649093389511,-0.0089337369427084923,-0.049910437315702438,-0.058362122625112534,0.0042391992174088955,0.036268442869186401,0.072908520698547363, 
  /* [11][1][][] */ -0.099828258156776428,-0.01139561366289854,-0.11918997764587402,-0.063929587602615356,-0.0021585405338555574,0.067142195999622345,-0.024396063759922981,-0.013348793610930443,0.098464213311672211,0.067694611847400665,-0.12218217551708221,0.088837116956710815,0.008044850081205368,-0.031946636736392975,0.10043482482433319,0.081605002284049988, -0.065984390676021576,-0.0033784762490540743,-0.076005533337593079,0.0024362101685255766,-0.021562226116657257,0.018801754340529442,-0.10455471277236938,0.02051243931055069,-0.12521791458129883,-0.082539781928062439,0.051084093749523163,0.028752880170941353,0.071316279470920563,0.10467000305652618,-0.041739288717508316,0.059314262121915817, 0.0711556077003479,-0.046201750636100769,0.068740144371986389,-0.0072788768447935581,-0.061090979725122452,-0.037268027663230896,0.098321326076984406,0.0545693039894104,0.039194267243146896,0.085165068507194519,0.08402600884437561,0.11235429346561432,0.080145806074142456,0.074501261115074158,-0.018945375457406044,0.11375948041677475, 
  /* [11][2][][] */ 0.023197270929813385,-0.08735918253660202,-0.029406705871224403,-0.10878638923168182,-0.035482656210660934,-0.09174589067697525,0.090200871229171753,0.049614802002906799,-0.019074151292443275,0.005772789940237999,0.040433973073959351,-0.037105072289705276,-0.076793283224105835,0.10239172726869583,-0.037391327321529388,0.081667803227901459, -0.0082092601805925369,-0.086905092000961304,-0.085823848843574524,0.056670945137739182,-0.043411239981651306,-0.068677201867103577,-0.08966083824634552,-0.016669776290655136,-0.082995221018791199,0.0051922104321420193,-0.076646275818347931,-0.088731773197650909,-0.045404460281133652,0.064414054155349731,0.067022554576396942,-0.06684093177318573, -0.087320692837238312,-0.073392786085605621,0.098422296345233917,0.0028564361855387688,-0.030643882229924202,-0.11975956708192825,0.089775919914245605,-0.00085641664918512106,-0.012092895805835724,-0.033474329859018326,-0.10681477934122086,0.049048259854316711,0.021462399512529373,-0.10973048210144043,0.06614338606595993,-0.050317015498876572, 
  /* [12][0][][] */ -0.10000527650117874,-0.087992437183856964,-0.036150436848402023,0.09463994950056076,0.05728500708937645,-0.095634691417217255,-0.098568089306354523,-0.099315434694290161,0.063679434359073639,0.072672858834266663,0.053359799087047577,-0.063988260924816132,-0.10882949829101562,-0.032963600009679794,0.029185350984334946,0.016234088689088821, 0.073978491127490997,-0.038582693785429001,0.029315311461687088,-0.0014856461202725768,-0.0010600239038467407,0.067062102258205414,0.020775904878973961,0.0098400162532925606,-0.026620654389262199,-0.060490801930427551,-0.0097670676186680794,-0.046638850122690201,-0.055239442735910416,0.011747263371944427,0.0077558541670441628,0.018456568941473961, 0.11046034097671509,0.069872066378593445,0.064123407006263733,-0.018517404794692993,0.067289285361766815,-0.050425417721271515,-0.044084582477807999,0.07827623188495636,-0.080170281231403351,-0.033166978508234024,0.022938283160328865,0.081423796713352203,0.037093102931976318,-0.01208337489515543,-0.10829688608646393,0.0024342413526028395, 
  /* [12][1][][] */ -0.10739937424659729,0.081930600106716156,-0.081827156245708466,-0.025866366922855377,-0.068181127309799194,-0.116385318338871,0.055778145790100098,-0.046775016933679581,-0.032373916357755661,0.024976888671517372,-0.11144618690013885,0.060677021741867065,-0.090181887149810791,-0.023877063766121864,0.10422345250844955,0.089414350688457489, 0.032781597226858139,-0.1058451235294342,-0.11785159260034561,-0.094299837946891785,0.094094015657901764,-0.069482393562793732,0.094097346067428589,0.077099688351154327,-0.025567002594470978,0.083865784108638763,0.092422783374786377,0.021401895210146904,0.037603586912155151,-0.0012839820701628923,0.059584598988294601,-0.08828958123922348, -0.046621754765510559,0.070800594985485077,-0.11550579220056534,-0.075695239007472992,0.066066861152648926,0.081360034644603729,-0.049855567514896393,0.088666409254074097,0.11153365671634674,0.079988144338130951,-0.10775357484817505,0.098756924271583557,-0.02195805124938488,-0.09427778422832489,0.054701086133718491,0.0032050339505076408, 
  /* [12][2][][] */ -0.014249833300709724,-0.11433346569538116,0.060897890478372574,-0.039892412722110748,-0.039972454309463501,0.0069700228050351143,-0.11651135981082916,-0.066573731601238251,0.092474140226840973,-0.083369560539722443,-0.03073415718972683,-0.051980156451463699,0.060980163514614105,-0.087585330009460449,-0.099465809762477875,-0.031718514859676361, -0.02548501268029213,-0.059802059084177017,0.022455040365457535,0.10764577239751816,0.06984807550907135,-0.028237814083695412,0.081166535615921021,-0.082565866410732269,0.01675930991768837,-0.12337391078472137,-0.02696637250483036,0.0018419496482238173,-0.092890150845050812,-0.024721330031752586,-0.079546421766281128,-0.11218473315238953, 0.0252489373087883,0.042806331068277359,0.081383049488067627,-0.0089886020869016647,0.0092171104624867439,-0.11212732642889023,0.035165663808584213,0.093254029750823975,0.065273918211460114,0.02291557565331459,0.074058368802070618,-0.09152655303478241,-0.043604433536529541,-0.04302486777305603,-0.10678918659687042,0.035673048347234726, 
  /* [13][0][][] */ 0.018636446446180344,-0.02618914470076561,-0.10790085047483444,-0.06695556640625,0.074196167290210724,-0.048354141414165497,-0.11914967745542526,-0.070034012198448181,-0.050280272960662842,0.10533764958381653,0.083396561443805695,-0.072974413633346558,-0.021274521946907043,-0.0026834667660295963,0.075724594295024872,0.0091382432729005814, -0.041573058813810349,-0.10924988240003586,-0.09796983003616333,0.060792334377765656,-0.066333301365375519,0.070821017026901245,0.064462311565876007,0.034125339239835739,-0.013525364920496941,-0.12408473342657089,-0.088241077959537506,-0.11132995784282684,0.012741263024508953,0.027195325121283531,0.086687453091144562,-0.075335614383220673, -0.072809495031833649,-0.041744198650121689,-0.0091620050370693207,-0.030840765684843063,0.066693462431430817,-0.067129649221897125,-0.081218630075454712,-0.072577401995658875,-0.086089543998241425,0.06134452298283577,-0.049309059977531433,0.056214511394500732,-0.051091782748699188,-0.030779680237174034,0.004285797942429781,0.09027118980884552, 
  /* [13][1][][] */ -0.069685719907283783,0.0099883778020739555,0.039861556142568588,0.059755861759185791,0.059348404407501221,-0.10349710285663605,0.11690171808004379,-0.064578160643577576,0.088222816586494446,-0.11726435273885727,-0.095425873994827271,0.01597164198756218,-0.033096827566623688,0.093195296823978424,-0.074904493987560272,-0.072446435689926147, 0.057453501969575882,-0.084571965038776398,-0.023493360728025436,-0.024901378899812698,-0.071302421391010284,-0.073542945086956024,-0.10566411167383194,0.065141588449478149,-0.027992915362119675,-0.014379976317286491,0.024094820022583008,-0.088768482208251953,0.072434805333614349,-0.036871384829282761,0.067281961441040039,-0.04416922852396965, -0.086153425276279449,-0.11272746324539185,-0.090970173478126526,0.053489282727241516,0.024400463327765465,0.082383036613464355,-0.10135854035615921,0.0027563089970499277,-0.099474340677261353,0.047265429049730301,0.099944517016410828,-0.034149400889873505,0.036741305142641068,0.083575986325740814,-0.077838979661464691,-0.007146407850086689, 
  /* [13][2][][] */ 0.095637783408164978,0.0047081164084374905,0.022716311737895012,0.079722285270690918,-0.023715455085039139,-0.067062176764011383,-0.092537611722946167,-0.084744095802307129,-0.095771670341491699,0.110030896961689,-0.093287475407123566,-0.050576835870742798,0.068986661732196808,0.10016639530658722,0.016733990982174873,-0.01436435803771019, 0.039551429450511932,-0.078409455716609955,0.06109016016125679,0.054683607071638107,-0.098154105246067047,-0.060029126703739166,0.066603697836399078,-0.00045491193304769695,0.083591461181640625,0.076660625636577606,0.10975266247987747,0.092035464942455292,0.062540769577026367,-0.029127495363354683,-0.0013102779630571604,0.086046457290649414, -0.013719077222049236,-0.048546258360147476,-0.032282579690217972,0.074344940483570099,0.04348352923989296,-0.066762559115886688,0.065145120024681091,0.01173172052949667,0.049156550318002701,-0.11230581998825073,-0.085698269307613373,-0.053044956177473068,-0.010369635187089443,-0.074674114584922791,-0.044532626867294312,0.05919564887881279, 
  /* [14][0][][] */ 0.056239746510982513,0.07153860479593277,-0.031534649431705475,0.019511306658387184,-0.018991166725754738,0.10045291483402252,-0.020295923575758934,0.063827291131019592,0.08364337682723999,0.014614678919315338,0.013785717077553272,-0.0078243743628263474,0.10542172938585281,-0.023949751630425453,-0.11327018588781357,0.016730083152651787, 0.088326901197433472,0.034682724624872208,0.062581703066825867,0.10680505633354187,-0.078257381916046143,-0.061164204031229019,-0.00086615071631968021,-0.094291754066944122,0.0017337013268843293,0.019988210871815681,-0.024748807772994041,-0.054129648953676224,-0.062333401292562485,-0.027597546577453613,0.1099858433008194,0.0021201707422733307, -0.0032293910626322031,0.01778721809387207,-0.0077972458675503731,-0.01587410643696785,-0.043441601097583771,-0.078476093709468842,0.1248001754283905,-0.065968386828899384,0.071845002472400665,-0.10228819400072098,-0.024262107908725739,-0.083366274833679199,-0.063632860779762268,0.10686682164669037,0.08519136905670166,0.030464963987469673, 
  /* [14][1][][] */ 0.033616133034229279,0.03982115164399147,-0.12081094831228256,0.040577579289674759,0.049012377858161926,-0.060720279812812805,0.1054755300283432,-0.068567484617233276,0.055859118700027466,-0.07513514906167984,-0.10516251623630524,-0.058726020157337189,-0.042039785534143448,-0.079584382474422455,0.026065502315759659,-0.080205358564853668, -0.028483733534812927,0.10681384801864624,-0.064064338803291321,-0.0050637247040867805,0.082585319876670837,-0.084113776683807373,0.10017900168895721,-0.016251577064394951,0.079196460545063019,-0.11665280163288116,-0.069629080593585968,-0.12135040014982224,-0.079969361424446106,-0.061341248452663422,0.10786709189414978,-0.044148359447717667, -0.048859097063541412,-0.019789114594459534,-0.041618641465902328,-0.014300381764769554,-0.014762346632778645,0.1153375431895256,0.10735516995191574,0.10858636349439621,-0.04169851541519165,0.0036748286802321672,0.065744653344154358,0.052667498588562012,0.10436253994703293,-0.097963199019432068,1.8096632629749365e-05,0.076603375375270844, 
  /* [14][2][][] */ -0.11746153235435486,-0.057771306484937668,-0.017982406541705132,0.064435772597789764,0.097768194973468781,0.0067526823841035366,0.10175254940986633,0.071799270808696747,0.092601165175437927,0.037722695618867874,-0.03492625430226326,0.097233712673187256,-0.056343130767345428,0.025133002549409866,0.053351271897554398,-0.10241575539112091, -0.0068813865073025227,-0.11581185460090637,-0.031910933554172516,0.02457055076956749,-0.088582932949066162,-0.078101612627506256,0.029323820024728775,0.057762466371059418,0.064565382897853851,-0.032610766589641571,-0.036538966000080109,0.10492441803216934,0.058412451297044754,-0.058338973671197891,-0.038400642573833466,0.072057552635669708, -0.097012192010879517,0.10355772078037262,-0.077653683722019196,-0.10847922414541245,-0.027782058343291283,-0.05342676118016243,-0.015097735449671745,0.10675950348377228,0.06382095068693161,0.071629524230957031,-0.1002940759062767,-0.047777265310287476,-0.018928075209259987,0.11014632880687714,0.057383202016353607,0.10263265669345856, 
  /* [15][0][][] */ 0.064592190086841583,-0.014055733568966389,0.0044148722663521767,-0.057802934199571609,-0.008516811765730381,0.071219116449356079,0.01357442419975996,0.0060353651642799377,-0.068931184709072113,0.067286893725395203,-0.11488263309001923,0.018778523430228233,0.04765845462679863,0.041106492280960083,0.0094914538785815239,-0.029395489022135735, -0.015149291604757309,0.077064700424671173,-0.075456827878952026,0.020303063094615936,0.088723346590995789,0.090461529791355133,0.063154131174087524,-0.046819347888231277,-0.046367920935153961,-0.052436690777540207,-0.076423168182373047,0.096088625490665436,0.026495290920138359,0.10352883487939835,0.020661987364292145,-0.050098862498998642, 0.11557293683290482,0.10570115596055984,-0.098948433995246887,-0.075118012726306915,-0.055349774658679962,0.0061559630557894707,0.013802398927509785,0.12310250848531723,0.097059361636638641,0.002359430305659771,0.085036285221576691,0.092962019145488739,-0.099948331713676453,0.11307576298713684,-0.0012397681130096316,0.092873357236385345, 
  /* [15][1][][] */ -0.11599253118038177,0.052585802972316742,-0.0008941125706769526,-0.058328963816165924,0.0097305001690983772,-0.021723901852965355,-0.035610277205705643,0.090457417070865631,0.0039742384105920792,0.014569555409252644,-0.019174741581082344,0.08103487640619278,0.0059265941381454468,-0.014573797583580017,0.10432571917772293,-0.015970554202795029, 0.069452866911888123,-0.062665596604347229,0.026116611436009407,0.053830474615097046,0.014176276512444019,0.091216519474983215,-0.077174201607704163,0.060161802917718887,0.11377497762441635,0.1179812103509903,-0.02176140621304512,0.026774827390909195,0.10412792861461639,0.052364371716976166,0.051942434161901474,-0.090540312230587006, 0.0096876788884401321,-0.049334112554788589,-0.10839299857616425,0.036743532866239548,0.083181910216808319,-0.028410837054252625,-0.062627151608467102,0.051955472677946091,-0.019219465553760529,0.082610748708248138,-0.036950908601284027,0.022136438637971878,0.004860936664044857,0.06645386666059494,-0.099210359156131744,-0.072259560227394104, 
  /* [15][2][][] */ 0.06831081211566925,-0.0042128688655793667,0.058515403419733047,-0.0797385573387146,0.058496344834566116,-0.052493538707494736,-0.058743696659803391,0.01955786906182766,0.093770787119865417,-0.00091298390179872513,0.021330269053578377,0.0052038836292922497,0.085193492472171783,0.070331685245037079,-0.11144186556339264,-0.0079573635011911392, 0.096895813941955566,-0.058103196322917938,0.12158691138029099,-0.1067088395357132,-0.085744008421897888,0.015148893930017948,-0.11390797793865204,0.081432655453681946,0.10671322047710419,-0.068279929459095001,-0.0044165370054543018,-0.080579057335853577,0.024354089051485062,0.052971180528402328,0.014827869832515717,-0.0074705802835524082, -0.06028253585100174,-0.10696186125278473,0.10128630697727203,-0.10928050428628922,0.020402288064360619,-0.010437142103910446,-0.089242294430732727,0.089303039014339447,-0.0080221537500619888,-0.12095753848552704,-0.045142799615859985,0.070180594921112061,-0.091630265116691589,-0.037826377898454666,0.012722006067633629,0.089199744164943695, 
  /* [16][0][][] */ 0.045951418578624725,0.085573121905326843,-0.010081111453473568,0.052712582051753998,0.022709423676133156,-0.019189422950148582,0.011270738206803799,-0.10519839078187943,0.054348442703485489,0.039973936975002289,-0.055582240223884583,0.0069523989222943783,0.05880313366651535,0.089313901960849762,-0.042037367820739746,-0.12088985741138458, -0.0056299599818885326,-0.01736101508140564,-0.0053390804678201675,-0.10051625967025757,0.091783240437507629,0.042298629879951477,0.088757924735546112,-0.074556939303874969,0.05596483126282692,-0.022198932245373726,0.063586853444576263,0.01534607820212841,0.051788263022899628,-0.045187857002019882,0.012740522623062134,-0.091613903641700745, 0.014649477787315845,0.003285121638327837,-0.051440443843603134,0.023139128461480141,-0.055683676153421402,-0.061301451176404953,-0.098073750734329224,0.073217160999774933,-0.099683307111263275,0.0017190111102536321,0.030756985768675804,0.082620181143283844,-0.021799216046929359,-0.045529887080192566,-0.07425273209810257,-0.086482763290405273, 
  /* [16][1][][] */ 0.014340581372380257,-0.058253265917301178,0.075890250504016876,0.11312092840671539,0.085219226777553558,-0.11933512985706329,-0.10539072006940842,0.10873813182115555,0.088132068514823914,0.08069995790719986,-0.10461742430925369,0.022188819944858551,-0.033826939761638641,0.026731954887509346,0.012015074491500854,-0.084984056651592255, 0.048552103340625763,0.0096051665022969246,-0.10666488111019135,-0.074145741760730743,-0.020173279568552971,0.040344659239053726,-0.057359572499990463,-0.1172468289732933,-0.054365094751119614,0.017396347597241402,0.10878846794366837,0.090511113405227661,0.0091235209256410599,-0.059426881372928619,0.092479504644870758,-0.0085675744339823723, 0.074248567223548889,-0.068983875215053558,-0.041435141116380692,0.086941063404083252,-0.089227333664894104,-0.099117867648601532,0.086720727384090424,0.048371940851211548,0.1006854847073555,-0.087428033351898193,0.081285834312438965,0.072742655873298645,0.059551801532506943,0.016263430938124657,-0.095103651285171509,-0.018721984699368477, 
  /* [16][2][][] */ 0.10831458866596222,-0.068695753812789917,0.043834149837493896,-0.027188345789909363,0.10331722348928452,-0.011277420446276665,-0.075905211269855499,-0.008730829693377018,-0.11081273853778839,0.098168767988681793,-0.046914480626583099,-0.010098138824105263,-0.10215882211923599,-0.014171040616929531,-0.055777862668037415,-0.019183505326509476, 0.044754959642887115,-0.0085865072906017303,0.053206920623779297,-0.044342685490846634,-0.059631876647472382,0.09398215264081955,0.072015702724456787,-0.063650637865066528,-0.01625625416636467,0.11030788719654083,-0.06337275356054306,0.066862240433692932,-0.10056716203689575,-0.00065660971449688077,0.026154635474085808,-0.10617128014564514, 0.011045599356293678,-0.055383659899234772,-0.0063356440514326096,0.035591285675764084,-0.10901737958192825,-0.083165459334850311,-0.10056917369365692,-0.016489293426275253,0.020228112116456032,0.030980292707681656,-0.064603187143802643,-0.12942495942115784,0.028247477486729622,-0.045322149991989136,0.10400281846523285,-0.0031920063775032759, 
  /* [17][0][][] */ 0.089233823120594025,0.082585901021957397,-0.091453753411769867,0.041833054274320602,-0.030849816277623177,-0.013226442039012909,0.099977128207683563,0.11190974712371826,0.023331731557846069,-0.11412742733955383,-0.078623592853546143,-0.0021127732470631599,0.041649356484413147,-0.03695426881313324,-0.095509693026542664,-0.055753983557224274, 0.092363446950912476,0.04528459906578064,0.043583620339632034,-0.095066018402576447,0.021683208644390106,-0.082447431981563568,0.097171269357204437,-0.01351600605994463,-0.040804155170917511,-0.095409698784351349,0.092660389840602875,-0.079049363732337952,-0.059537544846534729,-0.020810462534427643,0.056002188473939896,-0.036395803093910217, -0.070497140288352966,0.040987778455018997,-0.067858874797821045,-0.1043839156627655,0.065342321991920471,-0.0093187550082802773,-0.067364558577537537,0.073462039232254028,0.017563134431838989,0.025121772661805153,0.1199251115322113,-0.073765210807323456,0.0098685622215270996,-0.013041499070823193,-0.0079186595976352692,0.05333217978477478, 
  /* [17][1][][] */ -0.10532150417566299,-0.087959513068199158,-0.0050047351978719234,0.091253571212291718,0.091751113533973694,0.082360595464706421,0.011404359713196754,0.11047569662332535,-0.017274374142289162,0.066157139837741852,0.025331497192382812,-0.02860996313393116,0.089291781187057495,0.015966186299920082,0.028218593448400497,0.097030751407146454, 0.060154635459184647,-0.003901235293596983,-0.0070199831388890743,0.095213457942008972,0.020739255473017693,0.076791703701019287,-0.077821619808673859,-0.047522220760583878,0.083761975169181824,0.10896611958742142,-0.078510291874408722,0.11047223955392838,-0.05429554358124733,0.10263711959123611,0.048827517777681351,0.067045383155345917, 0.01717817410826683,0.10030462592840195,0.092280581593513489,0.04308691993355751,-0.043031085282564163,0.12002760916948318,0.040201041847467422,0.092200815677642822,0.08888661116361618,0.10792822390794754,-0.078533507883548737,-0.11189176887273788,-0.097642518579959869,0.030694196000695229,-0.086928203701972961,-0.021600989624857903, 
  /* [17][2][][] */ -0.03653901070356369,0.12003461271524429,-0.012382395565509796,0.0473598912358284,0.042749777436256409,0.10877913981676102,-0.0077124126255512238,-0.091831453144550323,-0.032174360007047653,0.058892395347356796,-0.10326655209064484,0.11914052814245224,-0.037608746439218521,0.010717575438320637,0.024071674793958664,0.062345542013645172, -0.12259605526924133,-0.1047443300485611,-0.01688406802713871,0.093644864857196808,-0.10584186017513275,-0.057162869721651077,-0.084244415163993835,0.081968165934085846,0.012629082426428795,-0.096408240497112274,0.093010991811752319,-0.024734456092119217,0.0065798591822385788,-0.010509499348700047,-0.053193937987089157,-0.039697319269180298, 0.096046529710292816,-0.023694833740592003,0.075095809996128082,0.12432323396205902,-0.040137827396392822,0.0012568084057420492,0.099890835583209991,0.085629522800445557,0.010352221317589283,-0.097513206303119659,-0.087491393089294434,-0.036744106560945511,-0.0022512043360620737,-0.0076346839778125286,0.082949452102184296,0.033297788351774216, 
  /* [18][0][][] */ 0.031609848141670227,0.0019791901577264071,-0.054003302007913589,0.050155904144048691,0.003233881201595068,0.072483263909816742,-0.10161889344453812,0.10088754445314407,0.040081191807985306,-0.075991332530975342,0.00050853670109063387,-0.011108673177659512,0.075352683663368225,-5.9843649069080129e-05,0.021572008728981018,0.083346322178840637, 0.10948976129293442,-0.067814856767654419,-0.015473906882107258,-0.098581448197364807,-0.11104986071586609,0.0075989142060279846,0.015666350722312927,-0.052541319280862808,0.051377967000007629,0.023316763341426849,0.062288727611303329,-0.05174512043595314,0.094715304672718048,0.10732360929250717,0.034315586090087891,0.064938679337501526, -0.07764086127281189,0.003315839683637023,-0.10437406599521637,-0.069658435881137848,-0.057336937636137009,-0.070075668394565582,0.096642561256885529,0.031855139881372452,0.11529050022363663,-0.03104843758046627,-0.074264608323574066,-0.0011416836641728878,-0.012086020782589912,0.072332501411437988,-0.10488522052764893,-0.082059912383556366, 
  /* [18][1][][] */ 0.10711478441953659,-0.0065472051501274109,-0.0030883424915373325,0.045841105282306671,-0.09574434906244278,0.08551672101020813,0.022726587951183319,0.010653545148670673,0.010616255924105644,-0.0018048713682219386,0.075185663998126984,-0.045235302299261093,-0.022431468591094017,0.068673692643642426,0.014711257070302963,0.087292127311229706, -0.02395096980035305,0.10364853590726852,-0.068360388278961182,0.06054716557264328,0.080019667744636536,-0.012872603721916676,0.046352680772542953,-0.041871972382068634,0.0083679715171456337,-0.054164867848157883,0.053349263966083527,-0.1015787348151207,-0.027014449238777161,0.031471561640501022,0.10251376032829285,-0.083924837410449982, -0.07507738471031189,0.051976960152387619,0.06204523891210556,-0.094741538166999817,0.086553663015365601,0.060307353734970093,-0.10533895343542099,-0.11261511594057083,-0.026824880391359329,-0.052073322236537933,-0.11004804819822311,0.067973479628562927,0.047131825238466263,0.1062462329864502,0.097238205373287201,0.091104120016098022, 
  /* [18][2][][] */ 0.090114623308181763,0.10340344905853271,-0.12024588882923126,-0.081735685467720032,0.096239864826202393,-0.089438945055007935,-0.089249379932880402,-0.11515722423791885,0.01710936613380909,-0.0046589397825300694,0.047943364828824997,-0.0047520683147013187,-0.013850025832653046,-0.047030754387378693,-0.0054892976768314838,0.019111435860395432, 0.036632198840379715,-0.12095055729150772,0.060967419296503067,-0.078791350126266479,-0.11512631177902222,0.055272828787565231,0.10911919176578522,-0.092136964201927185,-0.029162287712097168,0.010395064018666744,-0.037633445113897324,-0.046632029116153717,-0.025213917717337608,0.019868096336722374,0.034610480070114136,0.092964790761470795, -0.045461308211088181,-0.1088750809431076,0.026443060487508774,-0.063884027302265167,-0.061294332146644592,0.082535885274410248,0.07694292813539505,0.11921913176774979,0.090995661914348602,0.04231683537364006,0.053426638245582581,-0.078261017799377441,-0.019035240635275841,0.09768618643283844,0.030152598395943642,0.077906697988510132, 
  /* [19][0][][] */ -0.066043131053447723,-0.033231221139431,-0.025743052363395691,0.05560017004609108,-0.09487510472536087,0.098921515047550201,-0.048349514603614807,0.029103653505444527,0.012427372857928276,-0.042063891887664795,-0.021560762077569962,0.065597563982009888,-0.076228208839893341,-0.01356569305062294,-0.076880842447280884,-0.014723449945449829, -0.018571948632597923,-0.050300125032663345,0.038889996707439423,0.10577745735645294,0.030679868534207344,0.07319311797618866,-0.037203051149845123,0.098790548741817474,0.034730199724435806,-0.088580422103404999,-0.039910357445478439,-0.04765034094452858,-0.042843632400035858,-0.040082219988107681,-0.0826692134141922,0.090488508343696594, -0.020432522520422935,-0.097866922616958618,-0.036598801612854004,0.050231702625751495,0.089290603995323181,-0.10295574367046356,-0.092501118779182434,0.035067643970251083,-0.096834376454353333,-0.050841037184000015,0.090211950242519379,0.11536528170108795,-0.062742270529270172,0.10090005397796631,0.11089290678501129,-0.049188543111085892, 
  /* [19][1][][] */ 0.0025493591092526913,-0.067776858806610107,0.037698008120059967,0.08512868732213974,-0.044062420725822449,0.0012048580683767796,0.084665685892105103,-0.11849033087491989,0.09501039981842041,-0.094793409109115601,-0.084111176431179047,0.044321410357952118,-0.067088410258293152,-0.0062083578668534756,0.02619188092648983,0.067610263824462891, 0.068191960453987122,-0.083933010697364807,0.0011464304989203811,0.051132615655660629,-0.042010150849819183,-0.071885243058204651,0.11162817478179932,-0.10984840989112854,-0.028147950768470764,-0.039836477488279343,0.085808493196964264,-0.10082296282052994,-0.096487708389759064,-0.046575233340263367,0.042557951062917709,-0.026492374017834663, -0.096068024635314941,0.047418341040611267,-0.092406526207923889,-0.11141219735145569,0.073744840919971466,0.054888036102056503,-0.025834282860159874,-0.013814027421176434,0.0093690212815999985,-0.096034936606884003,0.027968671172857285,-0.021135525777935982,0.075272150337696075,0.056125421077013016,0.070817314088344574,-0.05978500097990036, 
  /* [19][2][][] */ -0.097049467265605927,-0.077525265514850616,0.077190563082695007,0.06999468058347702,0.10606256127357483,-0.085235372185707092,-0.11049285531044006,0.076724514365196228,0.070182964205741882,-0.029207495972514153,0.02317064069211483,0.067048355937004089,0.01884167455136776,-0.044174641370773315,0.0983920618891716,0.075646638870239258, -0.0068536908365786076,0.046876233071088791,0.045520700514316559,0.018123166635632515,-0.072709619998931885,0.083639204502105713,-0.051217418164014816,0.11393219977617264,-0.082473829388618469,0.10503073036670685,-0.01544132549315691,-0.043502174317836761,-0.10853080451488495,-0.0025835386477410793,0.11510507762432098,0.052109979093074799, -0.076722227036952972,0.0036471460480242968,0.0652446448802948,-0.082518778741359711,0.071719042956829071,-0.0093522295355796814,0.0092544350773096085,0.026526721194386482,0.1011534109711647,-0.03969988226890564,-0.091109693050384521,-0.058277104049921036,-0.02376771904528141,0.055418949574232101,-0.068148009479045868,0.015474413521587849, 
  /* [20][0][][] */ -0.061262950301170349,-0.0523093082010746,-0.084539622068405151,0.030682193115353584,-0.027669092640280724,-0.062772743403911591,0.076310999691486359,-0.029750162735581398,0.086107075214385986,-0.059350781142711639,0.11389359831809998,0.030699478462338448,-0.062105335295200348,0.030256964266300201,0.072053693234920502,-0.065514139831066132, 0.1095360592007637,-0.021806055679917336,0.11328545212745667,0.032825980335474014,-0.044870812445878983,0.033682383596897125,-0.017108915373682976,0.0080183874815702438,-0.057342272251844406,0.018670471385121346,-0.068909794092178345,-0.12073919177055359,-0.003573921974748373,0.029434103518724442,-0.047610770910978317,0.10464752465486526, 0.10007257759571075,-0.043131321668624878,-0.028522474691271782,0.11127364635467529,-0.053639814257621765,-0.10071084648370743,0.077198505401611328,0.019016845151782036,0.10263450443744659,-0.075424075126647949,-0.077531732618808746,0.042228329926729202,-0.067329533398151398,0.0095351152122020721,-0.011838441714644432,-0.020686192438006401, 
  /* [20][1][][] */ -0.060083627700805664,-0.068878404796123505,0.10108240693807602,0.0056836609728634357,0.074769824743270874,0.10532901436090469,0.0070864027366042137,-0.11380213499069214,-0.094463251531124115,0.043676398694515228,3.7197431083768606e-05,0.1133168637752533,0.004189586266875267,0.082728758454322815,0.090981587767601013,0.01893182098865509, 0.081101410090923309,0.065169170498847961,0.032581869512796402,-0.032578419893980026,-0.031305089592933655,-0.034313268959522247,0.077351801097393036,0.075357265770435333,-0.077719718217849731,0.00048936961684376001,0.078070476651191711,0.084866024553775787,-0.01570071280002594,0.013649824075400829,0.094345055520534515,-0.0099475840106606483, -0.0029449248686432838,0.066849507391452789,-0.025629160925745964,-0.025478947907686234,-0.042273197323083878,0.076542481780052185,0.031516615301370621,0.042378481477499008,-0.0058555090799927711,-0.067647106945514679,0.034881170839071274,-0.0046364474110305309,0.06083303689956665,0.10704565793275833,-0.099364764988422394,0.1182030662894249, 
  /* [20][2][][] */ -0.10549433529376984,-0.0080947102978825569,-0.02251059003174305,0.065118350088596344,-0.0071720299310982227,-0.011176830157637596,0.11285816133022308,0.10397090762853622,0.085088424384593964,0.094307675957679749,-0.10839559882879257,0.047632008790969849,-0.013844610191881657,0.036969833076000214,0.049009270966053009,-0.046974509954452515, 0.007311712484806776,-0.029704468324780464,-0.084642849862575531,0.01889837346971035,-0.031794663518667221,-0.093427367508411407,-0.025194358080625534,0.062994502484798431,0.059574652463197708,-0.056137189269065857,-0.017195641994476318,-0.019836133345961571,0.020625855773687363,0.0704360231757164,0.087924003601074219,-0.094539865851402283, 0.069318316876888275,0.033243685960769653,-0.051631767302751541,0.072764985263347626,0.031938105821609497,-0.12616108357906342,-0.10289037227630615,0.080583162605762482,-0.037737321108579636,-0.076039522886276245,0.037919178605079651,-0.087093062698841095,0.010474415495991707,0.014926387928426266,0.092209398746490479,0.075856588780879974, 
  /* [21][0][][] */ 0.058909609913825989,0.068508066236972809,-0.11998390406370163,0.098854169249534607,0.053007282316684723,-0.054518260061740875,0.088672086596488953,-0.049190092831850052,0.11070664972066879,0.024068482220172882,0.0092004165053367615,0.07411358505487442,0.070034265518188477,-0.038553733378648758,-0.013993474654853344,-0.11563204973936081, 0.020495215430855751,0.052024312317371368,0.054429877549409866,0.078738369047641754,0.083492405712604523,0.095037825405597687,0.036043398082256317,-0.0046933847479522228,0.019606407731771469,0.050619099289178848,0.084057837724685669,-0.022898934781551361,0.02148013561964035,0.052984368056058884,-0.10974149405956268,-0.067966647446155548, 0.034989591687917709,0.08308873325586319,0.0506582111120224,-0.063746191561222076,0.069118231534957886,-0.093090750277042389,0.080856792628765106,0.0067690284922719002,-0.064610771834850311,0.099201440811157227,0.0078522255644202232,0.073895722627639771,0.06811165064573288,-0.013504103757441044,-0.1166669949889183,-0.11939799785614014, 
  /* [21][1][][] */ -0.071023993194103241,0.082183927297592163,-0.029914204031229019,0.031957980245351791,0.038281187415122986,-0.025668604299426079,0.012656418606638908,-0.048177734017372131,0.035797391086816788,-0.069131754338741302,-0.10958763211965561,0.026406586170196533,-0.021154221147298813,0.043655592948198318,0.030826658010482788,-0.13240043818950653, 0.063540846109390259,0.021235447376966476,-0.072481051087379456,-0.066965818405151367,0.0079439859837293625,-0.033812437206506729,0.022376136854290962,-0.012039344757795334,0.079351171851158142,-0.065026432275772095,-0.094877280294895172,0.044061921536922455,0.058730538934469223,0.041392769664525986,0.083360858261585236,-0.087602309882640839, -0.036753978580236435,-0.10070290416479111,-0.023966765031218529,0.084423422813415527,0.0567610003054142,0.091407157480716705,0.030131127685308456,-0.10519277304410934,-0.1026809960603714,0.10646060854196548,0.083068482577800751,0.045630522072315216,0.045683540403842926,-0.079304464161396027,-0.11285486817359924,-0.031006570905447006, 
  /* [21][2][][] */ 0.0071293585933744907,0.011059378273785114,-0.10500533878803253,-0.055273320525884628,0.074204809963703156,0.050530213862657547,0.062261801213026047,-0.00531431520357728,0.031572561711072922,0.040258012712001801,0.019889833405613899,0.10036952793598175,0.09783230721950531,-0.00088182097533717752,-0.058659408241510391,0.062890231609344482, -0.055100176483392715,-0.035457644611597061,0.033593516796827316,-0.072918497025966644,0.094576351344585419,-0.026885120198130608,-0.096272110939025879,-0.017123255878686905,-0.11745847761631012,0.053137633949518204,-0.045741602778434753,-0.048357501626014709,0.041932594031095505,0.080727607011795044,0.089672356843948364,0.014626504853367805, 0.1018485426902771,0.10502976924180984,-0.031474065035581589,-0.10917870700359344,-0.0068453820422291756,-0.085315756499767303,0.065485641360282898,-0.00036398923839442432,-0.089005663990974426,0.073556110262870789,0.086135886609554291,0.11204806715250015,0.04848354309797287,0.11001153290271759,0.067121312022209167,-0.11749879270792007, 
  /* [22][0][][] */ -0.0072006736882030964,0.068981461226940155,-0.031624637544155121,0.014811517670750618,-0.086131095886230469,-0.087854154407978058,-0.0033856879454106092,0.060034040361642838,-0.1114131435751915,0.074018940329551697,0.016975788399577141,-0.082388810813426971,-0.036014728248119354,-0.050356000661849976,0.037160638719797134,-0.049928441643714905, -0.01965893991291523,-0.10490549355745316,0.07818564772605896,0.019598575308918953,0.11172138154506683,-0.064548268914222717,0.023285528644919395,0.11611448228359222,-0.048384103924036026,-0.096890762448310852,0.046277694404125214,-0.08201269805431366,-0.017645401880145073,-0.094636373221874237,0.045210149139165878,0.10841080546379089, -0.029418433085083961,0.10863199830055237,-0.064094617962837219,-0.040439039468765259,-0.10016559809446335,-0.092467531561851501,-0.094814099371433258,-0.018913073465228081,-0.049715645611286163,0.10517409443855286,-0.0056185321882367134,-0.082977026700973511,-0.083339065313339233,0.002784371841698885,0.081776507198810577,-0.021288791671395302, 
  /* [22][1][][] */ -0.089933671057224274,0.07487865537405014,0.073461808264255524,0.0050697149708867073,-0.0051371753215789795,0.10288805514574051,-0.019393812865018845,0.06221303716301918,0.045964568853378296,-0.11679510772228241,-0.085565812885761261,-0.065203465521335602,0.077684938907623291,-0.039008907973766327,-0.058938771486282349,-0.086790651082992554, 0.019082074984908104,-0.093759745359420776,0.06317119300365448,0.05233992263674736,-0.022556798532605171,-0.059722114354372025,-0.038125190883874893,-0.054098539054393768,-0.0183730348944664,0.10156825184822083,0.092914380133152008,0.032029975205659866,-0.06638578325510025,-0.096871405839920044,0.021723594516515732,-0.025226285681128502, 0.09720061719417572,0.02551443874835968,-0.057168044149875641,-0.08059585839509964,-0.069227650761604309,0.044499076902866364,0.10696049779653549,-0.070037819445133209,-0.071454077959060669,-0.032487418502569199,-0.029128290712833405,-0.11306478083133698,-0.045896008610725403,-0.064319580793380737,-0.019477751106023788,-0.080592304468154907, 
  /* [22][2][][] */ 0.0082769496366381645,0.015975756570696831,-0.0543205626308918,0.099623791873455048,-0.075495615601539612,0.067368380725383759,0.11719253659248352,0.08352816104888916,-0.041239399462938309,0.071057327091693878,0.016419094055891037,-0.085695810616016388,-0.059408038854598999,0.063798069953918457,-0.017264032736420631,-0.029594620689749718, -0.028915656730532646,0.11715071648359299,-0.11525852233171463,0.012268434278666973,-0.10861409455537796,0.10358726233243942,0.0085518509149551392,0.03753725066781044,-0.068864092230796814,-0.036790657788515091,0.068795338273048401,0.11862579733133316,-0.054039999842643738,-0.00095917575526982546,-0.096675664186477661,-0.045033890753984451, -0.043797556310892105,0.045703835785388947,-0.060632199048995972,0.0099078230559825897,0.0048845522105693817,0.016211768612265587,-0.037742480635643005,0.047943484038114548,0.11728759855031967,0.02405211515724659,0.012588619254529476,-0.031342379748821259,-0.010446027852594852,0.089666746556758881,-0.070847615599632263,-0.018043581396341324, 
  /* [23][0][][] */ 0.084519445896148682,-0.13053129613399506,0.10425237566232681,0.043836995959281921,0.083019092679023743,0.11579407006502151,0.088062264025211334,0.062676668167114258,-0.0078192651271820068,-0.026958528906106949,0.027155879884958267,0.022224869579076767,0.095479570329189301,-0.11606638878583908,-0.049207195639610291,0.068666376173496246, 0.058976225554943085,0.07908465713262558,0.085320539772510529,0.050210941582918167,-0.036638841032981873,-0.0010225879959762096,-0.086575493216514587,0.10689838975667953,-0.10209716111421585,0.020929858088493347,-0.061454180628061295,0.085174053907394409,-0.061485890299081802,0.062527470290660858,0.015797179192304611,0.045241333544254303, -0.0071762595325708389,-0.0037848879583179951,0.018201153725385666,0.046267177909612656,-0.017973149195313454,-0.094934873282909393,0.04015660285949707,0.037263922393321991,-0.018539244309067726,-0.065786905586719513,0.10279712826013565,-0.11495054513216019,0.097539268434047699,-0.10808993130922318,0.0048512513749301434,-0.1025964766740799, 
  /* [23][1][][] */ 0.015578524209558964,-0.024589486420154572,0.051733274012804031,0.050047632306814194,-0.11165051162242889,0.11107943207025528,-0.023736149072647095,-0.11876992136240005,0.08377104252576828,0.015937980264425278,-0.05043540894985199,0.051774449646472931,0.10201659053564072,-0.1123209148645401,0.091007031500339508,-0.10986483842134476, 0.048893876373767853,0.077107943594455719,-0.12355459481477737,-0.097597785294055939,-0.035100243985652924,-0.10512110590934753,0.0516788549721241,0.053392793983221054,0.06412661075592041,-0.0059776646085083485,0.1105734184384346,0.11111855506896973,0.007497517392039299,-0.088876552879810333,0.072449803352355957,0.040127523243427277, 0.0046558999456465244,-0.070868827402591705,0.10144028812646866,-0.031414758414030075,-0.038499932736158371,-0.06319022923707962,0.078079327940940857,0.039372231811285019,-0.015597441233694553,0.030067820101976395,-0.067809440195560455,0.053903665393590927,0.0027224316727370024,0.025970831513404846,-0.095521710813045502,-0.058519266545772552, 
  /* [23][2][][] */ -0.088617511093616486,-0.0097513254731893539,-0.071136310696601868,0.098943799734115601,0.092331863939762115,0.012338547967374325,0.06083134189248085,-0.011272279545664787,-0.1096709668636322,-0.049691930413246155,0.034107126295566559,-0.11207962036132812,0.042439956218004227,-0.013074466027319431,0.041132725775241852,0.034858029335737228, -0.018842792138457298,0.041847433894872665,0.085562653839588165,0.0058158314786851406,-0.052561886608600616,0.011133553460240364,-0.089031130075454712,0.09015597403049469,-0.11710771918296814,-0.058716859668493271,-0.050323806703090668,-0.1062467023730278,-0.082450665533542633,-0.011648493818938732,-0.0075079691596329212,0.027521774172782898, 0.086598604917526245,0.0121074253693223,0.082527011632919312,-0.10023609548807144,-0.081145063042640686,0.0044587696902453899,-0.1056877076625824,-0.035656485706567764,0.035859808325767517,-0.10728968679904938,0.076124869287014008,0.073392778635025024,-0.10219694674015045,-0.041246868669986725,0.043614193797111511,-0.0094817951321601868, 
  /* [24][0][][] */ -0.099842719733715057,0.082632929086685181,-0.033148761838674545,0.0632777139544487,-0.07201550155878067,0.083791747689247131,-0.014766182750463486,0.1090228334069252,-0.049569331109523773,0.0607433021068573,0.055254656821489334,-0.019960829988121986,-0.11798381060361862,-0.0041818739846348763,-0.10893560945987701,-0.045969568192958832, 0.073546253144741058,-0.0066113537177443504,0.081935696303844452,0.044300850480794907,-0.079141654074192047,0.014290302991867065,0.081925876438617706,0.048861090093851089,-0.094770699739456177,-0.068101219832897186,0.076466463506221771,-0.020732451230287552,-0.061390150338411331,-0.046118032187223434,-0.070922933518886566,0.079285711050033569, 0.069172605872154236,0.032753795385360718,-0.068122066557407379,-0.072519056499004364,-0.067680351436138153,-0.049735363572835922,0.035227630287408829,-0.073724307119846344,0.027132505550980568,0.064879126846790314,0.10068657249212265,-0.016119517385959625,0.074384920299053192,0.075329191982746124,-0.068095080554485321,0.041573259979486465, 
  /* [24][1][][] */ -0.013774128630757332,-0.075828194618225098,-0.034763108938932419,0.064127594232559204,-0.10629552602767944,-0.05810198187828064,0.042348302900791168,0.099001035094261169,-0.094560503959655762,-0.02376282773911953,0.06738445907831192,0.041448764503002167,0.001664087874814868,0.055667255073785782,0.088237717747688293,-0.087274052202701569, -0.077886343002319336,-0.10842680931091309,-0.049028918147087097,0.046737901866436005,-0.032790288329124451,-0.028148598968982697,0.049615286290645599,0.093826748430728912,0.0057941889390349388,-0.050669532269239426,-0.082294054329395294,0.027787845581769943,0.041988391429185867,-0.054942183196544647,-0.042520508170127869,-0.024312283843755722, -0.087385639548301697,-0.078913420438766479,0.03847881406545639,-0.092386774718761444,-0.023175342008471489,0.037124685943126678,-0.049993209540843964,0.058254346251487732,0.05656229704618454,-0.0059127639979124069,-0.068680204451084137,0.1152493953704834,-0.074216201901435852,0.020137052983045578,-0.077320978045463562,0.070945501327514648, 
  /* [24][2][][] */ 0.036560032516717911,-0.0082860728725790977,-0.068538986146450043,0.11002001166343689,0.0230291448533535,-0.0085825994610786438,-0.05446581169962883,0.011972629465162754,-0.058714866638183594,0.089889362454414368,0.089059747755527496,-0.011224500834941864,0.055543523281812668,-0.087367072701454163,-0.09949909895658493,0.10619992762804031, -0.02241799421608448,-0.09788164496421814,-0.096338391304016113,0.085113130509853363,-0.08996446430683136,-0.10713544487953186,0.086549475789070129,-0.02331678569316864,0.040380887687206268,0.089307993650436401,-0.023239530622959137,-0.021100804209709167,-0.10069053620100021,-0.023553146049380302,-0.023428630083799362,-0.08658590167760849, -0.067995607852935791,-0.032626133412122726,0.072915688157081604,0.088036566972732544,0.097506649792194366,-0.046903986483812332,0.064904384315013885,0.045654293149709702,0.073975279927253723,-0.10953652858734131,0.096468761563301086,-0.098289795219898224,0.08477388322353363,-0.080500394105911255,-0.036832373589277267,0.093391083180904388, 
  /* [25][0][][] */ -0.0749320387840271,0.07966940850019455,0.07361447811126709,0.058304730802774429,-0.047736935317516327,-0.067167781293392181,0.05849422886967659,0.035685095936059952,-0.073576532304286957,0.094302333891391754,0.045652396976947784,0.096214346587657928,0.10703018307685852,-0.093949891626834869,0.098352238535881042,0.076393358409404755, -0.073257759213447571,-0.094358794391155243,0.0056405328214168549,-0.064898118376731873,0.047029420733451843,0.012861152179539204,0.062091078609228134,-0.08124503493309021,0.10978347808122635,-0.021745014935731888,0.0047713103704154491,0.018975697457790375,-0.029610056430101395,0.003466837340965867,0.014616175554692745,0.085794843733310699, 0.041122552007436752,-0.0097855478525161743,0.085173264145851135,-0.032622423022985458,-0.0066283592022955418,-0.11019957065582275,-0.0025428552180528641,-0.0008243290358223021,-0.055498741567134857,-0.018938634544610977,-0.097863391041755676,0.1090649738907814,-0.10765769332647324,-0.081381194293498993,-0.0012726855929940939,-0.10806234925985336, 
  /* [25][1][][] */ 0.0042914086952805519,-0.040887154638767242,0.050658751279115677,0.071268782019615173,-0.10462145507335663,-0.087451145052909851,0.011507314629852772,-0.10148441046476364,-0.035764511674642563,0.10053228586912155,0.010997580364346504,-0.042487598955631256,-0.044366724789142609,0.039197243750095367,0.051156632602214813,0.10260453075170517, -0.023099141195416451,0.072321698069572449,0.098064713180065155,0.01916462741792202,-0.10883132368326187,-0.10037615150213242,-0.077383875846862793,0.10452952980995178,-0.057479266077280045,0.044002015143632889,-0.032143671065568924,0.038599498569965363,-0.1097896546125412,-0.082059480249881744,0.050344374030828476,-0.03768429160118103, -0.020915498957037926,0.060198239982128143,-0.070235244929790497,-0.0079021081328392029,-0.069426342844963074,0.034624151885509491,-0.026899369433522224,0.00037536630406975746,-0.010968497954308987,0.025438306853175163,0.096887379884719849,-0.062159702181816101,-0.039315197616815567,0.056269686669111252,-0.092820808291435242,0.0081721264868974686, 
  /* [25][2][][] */ -0.094386085867881775,0.012768330052495003,-0.041693169623613358,0.028278976678848267,0.0089268246665596962,-0.038146808743476868,-0.087641701102256775,0.027697909623384476,-0.043701339513063431,-0.067983426153659821,-0.02041434682905674,-0.082253396511077881,0.080884881317615509,0.062904000282287598,0.086070805788040161,0.068492747843265533, 0.049575965851545334,0.096842773258686066,-0.10999917984008789,0.043198820203542709,0.084787555038928986,0.074211873114109039,-0.049721866846084595,-0.048020068556070328,0.011229525320231915,0.11740823090076447,0.026573864743113518,-0.10241609066724777,-0.026488777250051498,0.0083756642416119576,0.080844536423683167,-0.013283367268741131, 0.016938198357820511,-0.073673039674758911,-0.038261309266090393,-0.096453063189983368,-0.023529939353466034,0.059468839317560196,0.092933282256126404,0.050489559769630432,0.10394199937582016,8.9644905528984964e-05,-0.041321013122797012,0.10302089899778366,-0.093508504331111908,0.015435489825904369,-0.0042083784937858582,0.10580120235681534, 
  /* [26][0][][] */ -0.05649985745549202,0.038388486951589584,-0.049886472523212433,-0.023801947012543678,-0.095830217003822327,-0.014500469900667667,-0.097510181367397308,0.030248565599322319,-0.0023498937953263521,0.057333048433065414,0.055605880916118622,0.11210741102695465,0.030764374881982803,0.089184477925300598,0.058989085257053375,0.079990379512310028, -0.10358526557683945,-0.037946365773677826,-0.10346636921167374,0.10042808204889297,0.11029794812202454,0.0006662187515757978,0.024917948991060257,-0.03606993705034256,-0.0033476892858743668,0.044350109994411469,-0.087999977171421051,0.0015121318865567446,0.05873529240489006,-0.020000919699668884,0.097353853285312653,-0.043364070355892181, 0.0072457753121852875,-0.02411896176636219,-0.037434834986925125,-0.11713308840990067,0.0072896410711109638,-0.017895828932523727,0.10814491659402847,-0.089851491153240204,0.09581061452627182,-0.052123736590147018,0.039350833743810654,-0.10043451189994812,-0.0036329857539385557,-0.020272718742489815,0.025038143619894981,0.039034686982631683, 
  /* [26][1][][] */ 0.012528005987405777,-0.07875707745552063,0.025925382971763611,0.11425334960222244,0.0074231652542948723,-0.043558038771152496,0.10679857432842255,0.11003842949867249,-0.054512333124876022,0.040291987359523773,0.037242330610752106,-0.041199292987585068,-0.06883566826581955,0.068408146500587463,-0.031631950289011002,-0.094847455620765686, 0.11910774558782578,0.11345545202493668,-0.07478700578212738,0.11269322037696838,-0.067241005599498749,-0.012129685841500759,0.021460412070155144,-0.043637081980705261,-0.057536665350198746,0.050020292401313782,-0.052506666630506516,-0.11815866827964783,0.017966311424970627,-0.09146379679441452,-0.077606767416000366,-0.11495969444513321, 0.12335945665836334,-0.07723032683134079,-0.093543015420436859,-0.0016594781773164868,0.1200324147939682,0.062690369784832001,0.0435970239341259,-0.0059718838892877102,0.075040362775325775,-0.017303658649325371,-0.051415190100669861,-0.050673957914113998,-0.049436412751674652,-0.045350000262260437,-0.044603776186704636,0.084825702011585236, 
